{"learner":{"attributes":{"scikit_learn":"{\"_estimator_type\": \"regressor\"}"},"feature_names":["rolling_mean","temperature_2m_mean","precipitation_sum","wind_speed_10m_max","wind_direction_10m_dominant"],"feature_types":["float","float","float","float","float"],"gradient_booster":{"model":{"gbtree_model_param":{"num_parallel_tree":"1","num_trees":"400"},"iteration_indptr":[0,1,2,3,4,5,6,7,8,9,10,11,12,13,14,15,16,17,18,19,20,21,22,23,24,25,26,27,28,29,30,31,32,33,34,35,36,37,38,39,40,41,42,43,44,45,46,47,48,49,50,51,52,53,54,55,56,57,58,59,60,61,62,63,64,65,66,67,68,69,70,71,72,73,74,75,76,77,78,79,80,81,82,83,84,85,86,87,88,89,90,91,92,93,94,95,96,97,98,99,100,101,102,103,104,105,106,107,108,109,110,111,112,113,114,115,116,117,118,119,120,121,122,123,124,125,126,127,128,129,130,131,132,133,134,135,136,137,138,139,140,141,142,143,144,145,146,147,148,149,150,151,152,153,154,155,156,157,158,159,160,161,162,163,164,165,166,167,168,169,170,171,172,173,174,175,176,177,178,179,180,181,182,183,184,185,186,187,188,189,190,191,192,193,194,195,196,197,198,199,200,201,202,203,204,205,206,207,208,209,210,211,212,213,214,215,216,217,218,219,220,221,222,223,224,225,226,227,228,229,230,231,232,233,234,235,236,237,238,239,240,241,242,243,244,245,246,247,248,249,250,251,252,253,254,255,256,257,258,259,260,261,262,263,264,265,266,267,268,269,270,271,272,273,274,275,276,277,278,279,280,281,282,283,284,285,286,287,288,289,290,291,292,293,294,295,296,297,298,299,300,301,302,303,304,305,306,307,308,309,310,311,312,313,314,315,316,317,318,319,320,321,322,323,324,325,326,327,328,329,330,331,332,333,334,335,336,337,338,339,340,341,342,343,344,345,346,347,348,349,350,351,352,353,354,355,356,357,358,359,360,361,362,363,364,365,366,367,368,369,370,371,372,373,374,375,376,377,378,379,380,381,382,383,384,385,386,387,388,389,390,391,392,393,394,395,396,397,398,399,400],"tree_info":[0,0,0,0,0,0,0,0,0,0,0,0,0,0,0,0,0,0,0,0,0,0,0,0,0,0,0,0,0,0,0,0,0,0,0,0,0,0,0,0,0,0,0,0,0,0,0,0,0,0,0,0,0,0,0,0,0,0,0,0,0,0,0,0,0,0,0,0,0,0,0,0,0,0,0,0,0,0,0,0,0,0,0,0,0,0,0,0,0,0,0,0,0,0,0,0,0,0,0,0,0,0,0,0,0,0,0,0,0,0,0,0,0,0,0,0,0,0,0,0,0,0,0,0,0,0,0,0,0,0,0,0,0,0,0,0,0,0,0,0,0,0,0,0,0,0,0,0,0,0,0,0,0,0,0,0,0,0,0,0,0,0,0,0,0,0,0,0,0,0,0,0,0,0,0,0,0,0,0,0,0,0,0,0,0,0,0,0,0,0,0,0,0,0,0,0,0,0,0,0,0,0,0,0,0,0,0,0,0,0,0,0,0,0,0,0,0,0,0,0,0,0,0,0,0,0,0,0,0,0,0,0,0,0,0,0,0,0,0,0,0,0,0,0,0,0,0,0,0,0,0,0,0,0,0,0,0,0,0,0,0,0,0,0,0,0,0,0,0,0,0,0,0,0,0,0,0,0,0,0,0,0,0,0,0,0,0,0,0,0,0,0,0,0,0,0,0,0,0,0,0,0,0,0,0,0,0,0,0,0,0,0,0,0,0,0,0,0,0,0,0,0,0,0,0,0,0,0,0,0,0,0,0,0,0,0,0,0,0,0,0,0,0,0,0,0,0,0,0,0,0,0,0,0,0,0,0,0,0,0,0,0,0,0,0,0,0,0,0,0,0,0,0,0,0,0,0,0,0,0,0,0,0,0,0,0,0,0,0,0,0,0,0,0,0,0,0,0,0,0],"trees":[{"base_weights":[-0E0,-8.99868E0,8.237599E0,-1.5440671E1,-5.058347E0,4.3194833E0,1.943618E1,-1.1595598E-1,-1.9844812E-1,-3.767789E-2,-1.5661955E-1,7.5978614E-2,-2.1278046E-3,2.0791084E-1,7.1289584E-2],"categories":[],"categories_nodes":[],"categories_segments":[],"categories_sizes":[],"default_left":[0,0,0,0,0,0,0,0,0,0,0,0,0,0,0],"id":0,"left_children":[1,3,5,7,9,11,13,-1,-1,-1,-1,-1,-1,-1,-1],"loss_changes":[8.56173E4,1.393159E4,2.637171E4,3.306E3,4.646539E3,6.658952E3,2.4503047E3,0E0,0E0,0E0,0E0,0E0,0E0,0E0,0E0],"parents":[2147483647,0,0,1,1,2,2,3,3,4,4,5,5,6,6],"right_children":[2,4,6,8,10,12,14,-1,-1,-1,-1,-1,-1,-1,-1],"split_conditions":[3.4666668E1,2.2666666E1,5.5666668E1,2.0886982E1,2.6405453E1,1.8613253E1,2.4079666E1,-1.1595598E-1,-1.9844812E-1,-3.767789E-2,-1.5661955E-1,7.5978614E-2,-2.1278046E-3,2.0791084E-1,7.1289584E-2],"split_indices":[0,0,0,3,3,3,3,0,0,0,0,0,0,0,0],"split_type":[0,0,0,0,0,0,0,0,0,0,0,0,0,0,0],"sum_hessian":[1.153E3,5.51E2,6.02E2,2.08E2,3.43E2,4.47E2,1.55E2,1.13E2,9.5E1,3.07E2,3.6E1,2.59E2,1.88E2,1.39E2,1.6E1],"tree_param":{"num_deleted":"0","num_feature":"5","num_nodes":"15","size_leaf_vector":"1"}},{"base_weights":[-4.8786475E-5,-8.90962E0,8.155811E0,-1.5287773E1,-5.0083313E0,4.276452E0,1.9243614E1,-1.2301725E-1,-2.0916969E-1,-3.7302338E-2,-1.5509568E-1,7.522176E-2,-2.106631E-3,2.0584658E-1,7.061863E-2],"categories":[],"categories_nodes":[],"categories_segments":[],"categories_sizes":[],"default_left":[0,0,0,0,0,0,0,0,0,0,0,0,0,0,0],"id":1,"left_children":[1,3,5,7,9,11,13,-1,-1,-1,-1,-1,-1,-1,-1],"loss_changes":[8.392841E4,1.3656828E4,2.585254E4,3.252457E3,4.557256E3,6.526961E3,2.4003281E3,0E0,0E0,0E0,0E0,0E0,0E0,0E0,0E0],"parents":[2147483647,0,0,1,1,2,2,3,3,4,4,5,5,6,6],"right_children":[2,4,6,8,10,12,14,-1,-1,-1,-1,-1,-1,-1,-1],"split_conditions":[3.4666668E1,2.2666666E1,5.5666668E1,2.3499481E1,2.6405453E1,1.8613253E1,2.4079666E1,-1.2301725E-1,-2.0916969E-1,-3.7302338E-2,-1.5509568E-1,7.522176E-2,-2.106631E-3,2.0584658E-1,7.061863E-2],"split_indices":[0,0,0,3,3,3,3,0,0,0,0,0,0,0,0],"split_type":[0,0,0,0,0,0,0,0,0,0,0,0,0,0,0],"sum_hessian":[1.153E3,5.51E2,6.02E2,2.08E2,3.43E2,4.47E2,1.55E2,1.38E2,7E1,3.07E2,3.6E1,2.59E2,1.88E2,1.39E2,1.6E1],"tree_param":{"num_deleted":"0","num_feature":"5","num_nodes":"15","size_leaf_vector":"1"}},{"base_weights":[-2.0044217E-4,-8.462564E0,8.418145E0,-1.513649E1,-4.6489425E0,4.4852467E0,1.9052958E1,-1.1358722E-1,-1.9463874E-1,-3.416243E-2,-1.4957708E-1,7.185901E-2,-8.71186E-3,2.0380282E-1,6.995399E-2],"categories":[],"categories_nodes":[],"categories_segments":[],"categories_sizes":[],"default_left":[0,0,0,0,0,0,0,0,0,0,0,0,0,0,0],"id":2,"left_children":[1,3,5,7,9,11,13,-1,-1,-1,-1,-1,-1,-1,-1],"loss_changes":[8.228117E4,1.4587906E4,2.4129234E4,3.1925352E3,4.6234634E3,6.140423E3,2.3513633E3,0E0,0E0,0E0,0E0,0E0,0E0,0E0,0E0],"parents":[2147483647,0,0,1,1,2,2,3,3,4,4,5,5,6,6],"right_children":[2,4,6,8,10,12,14,-1,-1,-1,-1,-1,-1,-1,-1],"split_conditions":[3.5333332E1,2.2666666E1,5.5666668E1,2.0886982E1,2.6405453E1,2.0316889E1,2.4079666E1,-1.1358722E-1,-1.9463874E-1,-3.416243E-2,-1.4957708E-1,7.185901E-2,-8.71186E-3,2.0380282E-1,6.995399E-2],"split_indices":[0,0,0,3,3,3,3,0,0,0,0,0,0,0,0],"split_type":[0,0,0,0,0,0,0,0,0,0,0,0,0,0,0],"sum_hessian":[1.153E3,5.75E2,5.78E2,2.08E2,3.67E2,4.23E2,1.55E2,1.13E2,9.5E1,3.29E2,3.8E1,2.81E2,1.42E2,1.39E2,1.6E1],"tree_param":{"num_deleted":"0","num_feature":"5","num_nodes":"15","size_leaf_vector":"1"}},{"base_weights":[-3.3399955E-4,-4.8096204E0,1.4544477E1,-1.3019664E1,-6.2480736E-1,1.027824E1,2.0395174E1,-1.0000856E-1,-1.950531E-1,-3.8746048E-2,2.042297E-2,1.3119332E-1,1.9710865E-2,2.1885513E-1,7.540771E-2],"categories":[],"categories_nodes":[],"categories_segments":[],"categories_sizes":[],"default_left":[0,0,0,0,0,0,0,0,0,0,0,0,0,0,0],"id":3,"left_children":[1,3,5,7,9,11,13,-1,-1,-1,-1,-1,-1,-1,-1],"loss_changes":[8.079147E4,2.9812805E4,6.950961E3,5.5386055E3,5.0006045E3,3.937662E3,2.130918E3,0E0,0E0,0E0,0E0,0E0,0E0,0E0,0E0],"parents":[2147483647,0,0,1,1,2,2,3,3,4,4,5,5,6,6],"right_children":[2,4,6,8,10,12,14,-1,-1,-1,-1,-1,-1,-1,-1],"split_conditions":[4.7E1,2.6333334E1,5.8E1,2.3499481E1,3.4666668E1,2.1578989E1,2.4079666E1,-1.0000856E-1,-1.950531E-1,-3.8746048E-2,2.042297E-2,1.3119332E-1,1.9710865E-2,2.1885513E-1,7.540771E-2],"split_indices":[0,0,0,3,0,3,3,0,0,0,0,0,0,0,0],"split_type":[0,0,0,0,0,0,0,0,0,0,0,0,0,0,0],"sum_hessian":[1.153E3,8.67E2,2.86E2,2.92E2,5.75E2,1.67E2,1.19E2,2.01E2,9.1E1,2.59E2,3.16E2,1.24E2,4.3E1,1.06E2,1.3E1],"tree_param":{"num_deleted":"0","num_feature":"5","num_nodes":"15","size_leaf_vector":"1"}},{"base_weights":[-2.1425971E-4,-4.7618866E0,1.4400593E1,-1.2890476E1,-6.1858994E-1,1.017636E1,2.019368E1,-9.901341E-2,-1.9312377E-1,-3.8360078E-2,2.0219376E-2,1.2989186E-1,1.951824E-2,2.1668702E-1,7.4707486E-2],"categories":[],"categories_nodes":[],"categories_segments":[],"categories_sizes":[],"default_left":[0,0,0,0,0,0,0,0,0,0,0,0,0,0,0],"id":4,"left_children":[1,3,5,7,9,11,13,-1,-1,-1,-1,-1,-1,-1,-1],"loss_changes":[7.919961E4,2.922419E4,6.81475E3,5.4302695E3,4.90145E3,3.8596953E3,2.0871992E3,0E0,0E0,0E0,0E0,0E0,0E0,0E0,0E0],"parents":[2147483647,0,0,1,1,2,2,3,3,4,4,5,5,6,6],"right_children":[2,4,6,8,10,12,14,-1,-1,-1,-1,-1,-1,-1,-1],"split_conditions":[4.7E1,2.6333334E1,5.8E1,2.3499481E1,3.4666668E1,2.1578989E1,2.4079666E1,-9.901341E-2,-1.9312377E-1,-3.8360078E-2,2.0219376E-2,1.2989186E-1,1.951824E-2,2.1668702E-1,7.4707486E-2],"split_indices":[0,0,0,3,0,3,3,0,0,0,0,0,0,0,0],"split_type":[0,0,0,0,0,0,0,0,0,0,0,0,0,0,0],"sum_hessian":[1.153E3,8.67E2,2.86E2,2.92E2,5.75E2,1.67E2,1.19E2,2.01E2,9.1E1,2.59E2,3.16E2,1.24E2,4.3E1,1.06E2,1.3E1],"tree_param":{"num_deleted":"0","num_feature":"5","num_nodes":"15","size_leaf_vector":"1"}},{"base_weights":[-9.564048E-5,-4.7146254E0,1.4258134E1,-1.2762572E1,-6.124328E-1,1.0075493E1,1.999418E1,-9.802817E-2,-1.9121353E-1,-3.797795E-2,2.0017836E-2,1.2860335E-1,1.9327478E-2,2.145404E-1,7.401378E-2],"categories":[],"categories_nodes":[],"categories_segments":[],"categories_sizes":[],"default_left":[0,0,0,0,0,0,0,0,0,0,0,0,0,0,0],"id":5,"left_children":[1,3,5,7,9,11,13,-1,-1,-1,-1,-1,-1,-1,-1],"loss_changes":[7.7639125E4,2.86472E4,6.6811914E3,5.324047E3,4.8042637E3,3.7832773E3,2.044375E3,0E0,0E0,0E0,0E0,0E0,0E0,0E0,0E0],"parents":[2147483647,0,0,1,1,2,2,3,3,4,4,5,5,6,6],"right_children":[2,4,6,8,10,12,14,-1,-1,-1,-1,-1,-1,-1,-1],"split_conditions":[4.7E1,2.6333334E1,5.8E1,2.3499481E1,3.4666668E1,2.1578989E1,2.4079666E1,-9.802817E-2,-1.9121353E-1,-3.797795E-2,2.0017836E-2,1.2860335E-1,1.9327478E-2,2.145404E-1,7.401378E-2],"split_indices":[0,0,0,3,0,3,3,0,0,0,0,0,0,0,0],"split_type":[0,0,0,0,0,0,0,0,0,0,0,0,0,0,0],"sum_hessian":[1.153E3,8.67E2,2.86E2,2.92E2,5.75E2,1.67E2,1.19E2,2.01E2,9.1E1,2.59E2,3.16E2,1.24E2,4.3E1,1.06E2,1.3E1],"tree_param":{"num_deleted":"0","num_feature":"5","num_nodes":"15","size_leaf_vector":"1"}},{"base_weights":[-0E0,-4.667835E0,1.4117084E1,-1.2635939E1,-6.0633826E-1,9.975623E0,1.9796654E1,-9.705276E-2,-1.893222E-1,-3.7599616E-2,1.981827E-2,1.2732759E-1,1.913858E-2,2.1241508E-1,7.332652E-2],"categories":[],"categories_nodes":[],"categories_segments":[],"categories_sizes":[],"default_left":[0,0,0,0,0,0,0,0,0,0,0,0,0,0,0],"id":6,"left_children":[1,3,5,7,9,11,13,-1,-1,-1,-1,-1,-1,-1,-1],"loss_changes":[7.610941E4,2.8081605E4,6.5502656E3,5.21991E3,4.7089985E3,3.7083691E3,2.0024258E3,0E0,0E0,0E0,0E0,0E0,0E0,0E0,0E0],"parents":[2147483647,0,0,1,1,2,2,3,3,4,4,5,5,6,6],"right_children":[2,4,6,8,10,12,14,-1,-1,-1,-1,-1,-1,-1,-1],"split_conditions":[4.7E1,2.6333334E1,5.8E1,2.3499481E1,3.4666668E1,2.1578989E1,2.4079666E1,-9.705276E-2,-1.893222E-1,-3.7599616E-2,1.981827E-2,1.2732759E-1,1.913858E-2,2.1241508E-1,7.332652E-2],"split_indices":[0,0,0,3,0,3,3,0,0,0,0,0,0,0,0],"split_type":[0,0,0,0,0,0,0,0,0,0,0,0,0,0,0],"sum_hessian":[1.153E3,8.67E2,2.86E2,2.92E2,5.75E2,1.67E2,1.19E2,2.01E2,9.1E1,2.59E2,3.16E2,1.24E2,4.3E1,1.06E2,1.3E1],"tree_param":{"num_deleted":"0","num_feature":"5","num_nodes":"15","size_leaf_vector":"1"}},{"base_weights":[-0E0,-4.621507E0,1.397743E1,-1.2510559E1,-6.003027E-1,9.876745E0,1.9601078E1,-9.608702E-2,-1.8744954E-1,7.544941E-2,-1.5976762E-2,1.2606451E-1,1.8951546E-2,2.1031077E-1,7.2645634E-2],"categories":[],"categories_nodes":[],"categories_segments":[],"categories_sizes":[],"default_left":[0,0,0,0,0,0,0,0,0,0,0,0,0,0,0],"id":7,"left_children":[1,3,5,7,9,11,13,-1,-1,-1,-1,-1,-1,-1,-1],"loss_changes":[7.4609805E4,2.752717E4,6.42191E3,5.1178086E3,4.690798E3,3.6349414E3,1.9613359E3,0E0,0E0,0E0,0E0,0E0,0E0,0E0,0E0],"parents":[2147483647,0,0,1,1,2,2,3,3,4,4,5,5,6,6],"right_children":[2,4,6,8,10,12,14,-1,-1,-1,-1,-1,-1,-1,-1],"split_conditions":[4.7E1,2.6333334E1,5.8E1,2.3499481E1,1.1542478E1,2.1578989E1,2.4079666E1,-9.608702E-2,-1.8744954E-1,7.544941E-2,-1.5976762E-2,1.2606451E-1,1.8951546E-2,2.1031077E-1,7.2645634E-2],"split_indices":[0,0,0,3,3,3,3,0,0,0,0,0,0,0,0],"split_type":[0,0,0,0,0,0,0,0,0,0,0,0,0,0,0],"sum_hessian":[1.153E3,8.67E2,2.86E2,2.92E2,5.75E2,1.67E2,1.19E2,2.01E2,9.1E1,6.2E1,5.13E2,1.24E2,4.3E1,1.06E2,1.3E1],"tree_param":{"num_deleted":"0","num_feature":"5","num_nodes":"15","size_leaf_vector":"1"}},{"base_weights":[1.3811783E-4,-7.9879746E0,7.9470344E0,-1.4342692E1,-4.3569317E0,4.2352076E0,1.7984007E1,-1.07602395E-1,-1.8446408E-1,-3.1664073E-2,-1.4316316E-1,6.8564005E-2,-9.627758E-3,1.9233598E-1,6.629486E-2],"categories":[],"categories_nodes":[],"categories_segments":[],"categories_sizes":[],"default_left":[0,0,0,0,0,0,0,0,0,0,0,0,0,0,0],"id":8,"left_children":[1,3,5,7,9,11,13,-1,-1,-1,-1,-1,-1,-1,-1],"loss_changes":[7.332021E4,1.322641E4,2.149255E4,2.8711758E3,4.316255E3,5.7841553E3,2.0833125E3,0E0,0E0,0E0,0E0,0E0,0E0,0E0,0E0],"parents":[2147483647,0,0,1,1,2,2,3,3,4,4,5,5,6,6],"right_children":[2,4,6,8,10,12,14,-1,-1,-1,-1,-1,-1,-1,-1],"split_conditions":[3.5333332E1,2.2666666E1,5.5666668E1,2.0886982E1,2.6405453E1,2.0316889E1,2.4079666E1,-1.07602395E-1,-1.8446408E-1,-3.1664073E-2,-1.4316316E-1,6.8564005E-2,-9.627758E-3,1.9233598E-1,6.629486E-2],"split_indices":[0,0,0,3,3,3,3,0,0,0,0,0,0,0,0],"split_type":[0,0,0,0,0,0,0,0,0,0,0,0,0,0,0],"sum_hessian":[1.153E3,5.75E2,5.78E2,2.08E2,3.67E2,4.23E2,1.55E2,1.13E2,9.5E1,3.29E2,3.8E1,2.81E2,1.42E2,1.39E2,1.6E1],"tree_param":{"num_deleted":"0","num_feature":"5","num_nodes":"15","size_leaf_vector":"1"}},{"base_weights":[4.610031E-6,-4.5371423E0,1.3722455E1,-1.2269569E1,-5.957561E-1,9.705966E0,1.9230352E1,-9.4201915E-2,-1.8391359E-1,7.4477576E-2,-1.5806697E-2,1.2390032E-1,1.8579163E-2,2.0632192E-1,7.1355455E-2],"categories":[],"categories_nodes":[],"categories_segments":[],"categories_sizes":[],"default_left":[0,0,0,0,0,0,0,0,0,0,0,0,0,0,0],"id":9,"left_children":[1,3,5,7,9,11,13,-1,-1,-1,-1,-1,-1,-1,-1],"loss_changes":[7.191211E4,2.6444988E4,6.159586E3,4.9348555E3,4.5743535E3,3.514421E3,1.8846016E3,0E0,0E0,0E0,0E0,0E0,0E0,0E0,0E0],"parents":[2147483647,0,0,1,1,2,2,3,3,4,4,5,5,6,6],"right_children":[2,4,6,8,10,12,14,-1,-1,-1,-1,-1,-1,-1,-1],"split_conditions":[4.7E1,2.6333334E1,5.8E1,2.3499481E1,1.1542478E1,2.1578989E1,2.4079666E1,-9.4201915E-2,-1.8391359E-1,7.4477576E-2,-1.5806697E-2,1.2390032E-1,1.8579163E-2,2.0632192E-1,7.1355455E-2],"split_indices":[0,0,0,3,3,3,3,0,0,0,0,0,0,0,0],"split_type":[0,0,0,0,0,0,0,0,0,0,0,0,0,0,0],"sum_hessian":[1.153E3,8.67E2,2.86E2,2.92E2,5.75E2,1.67E2,1.19E2,2.01E2,9.1E1,6.2E1,5.13E2,1.24E2,4.3E1,1.06E2,1.3E1],"tree_param":{"num_deleted":"0","num_feature":"5","num_nodes":"15","size_leaf_vector":"1"}},{"base_weights":[1.7967951E-4,-7.8436046E0,7.803495E0,-1.4076871E1,-4.28193E0,4.1670513E0,1.76365E1,-2.1660574E-1,-1.2153151E-1,-3.1097347E-2,-1.4088145E-1,1.334483E-1,2.7049853E-2,1.8860975E-1,6.509246E-2],"categories":[],"categories_nodes":[],"categories_segments":[],"categories_sizes":[],"default_left":[0,0,0,0,0,0,0,0,0,0,0,0,0,0,0],"id":10,"left_children":[1,3,5,7,9,11,13,-1,-1,-1,-1,-1,-1,-1,-1],"loss_changes":[7.069469E4,1.2725586E4,2.0627723E4,2.782457E3,4.184554E3,5.651749E3,2.0002031E3,0E0,0E0,0E0,0E0,0E0,0E0,0E0,0E0],"parents":[2147483647,0,0,1,1,2,2,3,3,4,4,5,5,6,6],"right_children":[2,4,6,8,10,12,14,-1,-1,-1,-1,-1,-1,-1,-1],"split_conditions":[3.5333332E1,2.2666666E1,5.5666668E1,1.3666667E1,2.6405453E1,1.1570515E1,2.4079666E1,-2.1660574E-1,-1.2153151E-1,-3.1097347E-2,-1.4088145E-1,1.334483E-1,2.7049853E-2,1.8860975E-1,6.509246E-2],"split_indices":[0,0,0,0,3,3,3,0,0,0,0,0,0,0,0],"split_type":[0,0,0,0,0,0,0,0,0,0,0,0,0,0,0],"sum_hessian":[1.153E3,5.75E2,5.78E2,2.08E2,3.67E2,4.23E2,1.55E2,4E1,1.68E2,3.29E2,3.8E1,5.7E1,3.66E2,1.39E2,1.6E1],"tree_param":{"num_deleted":"0","num_feature":"5","num_nodes":"15","size_leaf_vector":"1"}},{"base_weights":[9.386204E-5,-8.096691E0,7.412242E0,-1.3937724E1,-4.524096E0,3.8960855E0,1.7461765E1,-1.0428066E-1,-1.7959216E-1,-3.332516E-2,-1.4318217E-1,1.3130535E-1,2.461476E-2,1.8673714E-1,6.447981E-2],"categories":[],"categories_nodes":[],"categories_segments":[],"categories_sizes":[],"default_left":[0,0,0,0,0,0,0,0,0,0,0,0,0,0,0],"id":11,"left_children":[1,3,5,7,9,11,13,-1,-1,-1,-1,-1,-1,-1,-1],"loss_changes":[6.931676E4,1.1454039E4,2.1237262E4,2.7597188E3,3.965163E3,5.901148E3,1.9593867E3,0E0,0E0,0E0,0E0,0E0,0E0,0E0,0E0],"parents":[2147483647,0,0,1,1,2,2,3,3,4,4,5,5,6,6],"right_children":[2,4,6,8,10,12,14,-1,-1,-1,-1,-1,-1,-1,-1],"split_conditions":[3.4666668E1,2.2666666E1,5.5666668E1,2.0886982E1,2.6405453E1,1.1542478E1,2.4079666E1,-1.0428066E-1,-1.7959216E-1,-3.332516E-2,-1.4318217E-1,1.3130535E-1,2.461476E-2,1.8673714E-1,6.447981E-2],"split_indices":[0,0,0,3,3,3,3,0,0,0,0,0,0,0,0],"split_type":[0,0,0,0,0,0,0,0,0,0,0,0,0,0,0],"sum_hessian":[1.153E3,5.51E2,6.02E2,2.08E2,3.43E2,4.47E2,1.55E2,1.13E2,9.5E1,3.07E2,3.6E1,5.9E1,3.88E2,1.39E2,1.6E1],"tree_param":{"num_deleted":"0","num_feature":"5","num_nodes":"15","size_leaf_vector":"1"}},{"base_weights":[4.554365E-5,-4.416631E0,1.3358148E1,-1.1918912E1,-5.925254E-1,9.466161E0,1.8694778E1,-9.132421E-2,-1.7906435E-1,7.249758E-2,-1.5527808E-2,1.2106714E-1,1.747175E-2,2.0055959E-1,6.9489695E-2],"categories":[],"categories_nodes":[],"categories_segments":[],"categories_sizes":[],"default_left":[0,0,0,0,0,0,0,0,0,0,0,0,0,0,0],"id":12,"left_children":[1,3,5,7,9,11,13,-1,-1,-1,-1,-1,-1,-1,-1],"loss_changes":[6.814406E4,2.4894188E4,5.7812344E3,4.7222305E3,4.3483105E3,3.401704E3,1.7765156E3,0E0,0E0,0E0,0E0,0E0,0E0,0E0,0E0],"parents":[2147483647,0,0,1,1,2,2,3,3,4,4,5,5,6,6],"right_children":[2,4,6,8,10,12,14,-1,-1,-1,-1,-1,-1,-1,-1],"split_conditions":[4.7E1,2.6333334E1,5.8E1,2.3499481E1,1.1542478E1,2.1578989E1,2.4079666E1,-9.132421E-2,-1.7906435E-1,7.249758E-2,-1.5527808E-2,1.2106714E-1,1.747175E-2,2.0055959E-1,6.9489695E-2],"split_indices":[0,0,0,3,3,3,3,0,0,0,0,0,0,0,0],"split_type":[0,0,0,0,0,0,0,0,0,0,0,0,0,0,0],"sum_hessian":[1.153E3,8.67E2,2.86E2,2.92E2,5.75E2,1.67E2,1.19E2,2.01E2,9.1E1,6.2E1,5.13E2,1.24E2,4.3E1,1.06E2,1.3E1],"tree_param":{"num_deleted":"0","num_feature":"5","num_nodes":"15","size_leaf_vector":"1"}},{"base_weights":[2.1610425E-4,-7.6275277E0,7.58861E0,-1.3679435E1,-4.1694403E0,4.062146E0,1.7124073E1,-2.1172138E-1,-1.17801435E-1,-3.0261979E-2,-1.3733555E-1,6.616805E-2,-1.0034199E-2,1.831162E-1,6.3310735E-2],"categories":[],"categories_nodes":[],"categories_segments":[],"categories_sizes":[],"default_left":[0,0,0,0,0,0,0,0,0,0,0,0,0,0,0],"id":13,"left_children":[1,3,5,7,9,11,13,-1,-1,-1,-1,-1,-1,-1,-1],"loss_changes":[6.685408E4,1.1995727E4,1.9398043E4,2.7215352E3,3.9805132E3,5.494097E3,1.8810898E3,0E0,0E0,0E0,0E0,0E0,0E0,0E0,0E0],"parents":[2147483647,0,0,1,1,2,2,3,3,4,4,5,5,6,6],"right_children":[2,4,6,8,10,12,14,-1,-1,-1,-1,-1,-1,-1,-1],"split_conditions":[3.5333332E1,2.2666666E1,5.5666668E1,1.3666667E1,2.6405453E1,2.0316889E1,2.4079666E1,-2.1172138E-1,-1.17801435E-1,-3.0261979E-2,-1.3733555E-1,6.616805E-2,-1.0034199E-2,1.831162E-1,6.3310735E-2],"split_indices":[0,0,0,0,3,3,3,0,0,0,0,0,0,0,0],"split_type":[0,0,0,0,0,0,0,0,0,0,0,0,0,0,0],"sum_hessian":[1.153E3,5.75E2,5.78E2,2.08E2,3.67E2,4.23E2,1.55E2,4E1,1.68E2,3.29E2,3.8E1,2.81E2,1.42E2,1.39E2,1.6E1],"tree_param":{"num_deleted":"0","num_feature":"5","num_nodes":"15","size_leaf_vector":"1"}},{"base_weights":[4.2052903E-5,-4.3361516E0,1.3114733E1,-1.1689312E1,-5.880407E-1,9.302684E0,1.8341478E1,-8.941404E-2,-1.7594616E-1,7.156149E-2,-1.5362818E-2,1.18990466E-1,1.7129557E-2,1.967587E-1,6.825654E-2],"categories":[],"categories_nodes":[],"categories_segments":[],"categories_sizes":[],"default_left":[0,0,0,0,0,0,0,0,0,0,0,0,0,0,0],"id":14,"left_children":[1,3,5,7,9,11,13,-1,-1,-1,-1,-1,-1,-1,-1],"loss_changes":[6.5683234E4,2.3914379E4,5.5449727E3,4.5946016E3,4.2402065E3,3.2888115E3,1.7070469E3,0E0,0E0,0E0,0E0,0E0,0E0,0E0,0E0],"parents":[2147483647,0,0,1,1,2,2,3,3,4,4,5,5,6,6],"right_children":[2,4,6,8,10,12,14,-1,-1,-1,-1,-1,-1,-1,-1],"split_conditions":[4.7E1,2.6333334E1,5.8E1,2.3499481E1,1.1542478E1,2.1578989E1,2.4079666E1,-8.941404E-2,-1.7594616E-1,7.156149E-2,-1.5362818E-2,1.18990466E-1,1.7129557E-2,1.967587E-1,6.825654E-2],"split_indices":[0,0,0,3,3,3,3,0,0,0,0,0,0,0,0],"split_type":[0,0,0,0,0,0,0,0,0,0,0,0,0,0,0],"sum_hessian":[1.153E3,8.67E2,2.86E2,2.92E2,5.75E2,1.67E2,1.19E2,2.01E2,9.1E1,6.2E1,5.13E2,1.24E2,4.3E1,1.06E2,1.3E1],"tree_param":{"num_deleted":"0","num_feature":"5","num_nodes":"15","size_leaf_vector":"1"}},{"base_weights":[2.0813107E-4,-7.808357E0,7.1485124E0,-1.3426255E1,-4.372167E0,3.7740548E0,1.6792799E1,-2.084036E-1,-1.154753E-1,-3.2171175E-2,-1.3866305E-1,6.790045E-2,-3.943656E-3,1.7956428E-1,6.216266E-2],"categories":[],"categories_nodes":[],"categories_segments":[],"categories_sizes":[],"default_left":[0,0,0,0,0,0,0,0,0,0,0,0,0,0,0],"id":15,"left_children":[1,3,5,7,9,11,13,-1,-1,-1,-1,-1,-1,-1,-1],"loss_changes":[6.446972E4,1.0595422E4,1.9558738E4,2.6672773E3,3.7260552E3,5.635535E3,1.8058789E3,0E0,0E0,0E0,0E0,0E0,0E0,0E0,0E0],"parents":[2147483647,0,0,1,1,2,2,3,3,4,4,5,5,6,6],"right_children":[2,4,6,8,10,12,14,-1,-1,-1,-1,-1,-1,-1,-1],"split_conditions":[3.4666668E1,2.2666666E1,5.5666668E1,1.3666667E1,2.6405453E1,1.8613253E1,2.4079666E1,-2.084036E-1,-1.154753E-1,-3.2171175E-2,-1.3866305E-1,6.790045E-2,-3.943656E-3,1.7956428E-1,6.216266E-2],"split_indices":[0,0,0,0,3,3,3,0,0,0,0,0,0,0,0],"split_type":[0,0,0,0,0,0,0,0,0,0,0,0,0,0,0],"sum_hessian":[1.153E3,5.51E2,6.02E2,2.08E2,3.43E2,4.47E2,1.55E2,4E1,1.68E2,3.07E2,3.6E1,2.59E2,1.88E2,1.39E2,1.6E1],"tree_param":{"num_deleted":"0","num_feature":"5","num_nodes":"15","size_leaf_vector":"1"}},{"base_weights":[3.8839833E-5,-4.2574134E0,1.2876585E1,-1.1463265E1,-5.843718E-1,9.143382E0,1.799493E1,-8.753391E-2,-1.7287517E-1,7.057023E-2,-1.5200207E-2,1.1698406E-1,1.674711E-2,1.9303064E-1,6.7045495E-2],"categories":[],"categories_nodes":[],"categories_segments":[],"categories_sizes":[],"default_left":[0,0,0,0,0,0,0,0,0,0,0,0,0,0,0],"id":16,"left_children":[1,3,5,7,9,11,13,-1,-1,-1,-1,-1,-1,-1,-1],"loss_changes":[6.3319438E4,2.2965799E4,5.316699E3,4.4704844E3,4.1283794E3,3.184954E3,1.6402969E3,0E0,0E0,0E0,0E0,0E0,0E0,0E0,0E0],"parents":[2147483647,0,0,1,1,2,2,3,3,4,4,5,5,6,6],"right_children":[2,4,6,8,10,12,14,-1,-1,-1,-1,-1,-1,-1,-1],"split_conditions":[4.7E1,2.6333334E1,5.8E1,2.3499481E1,1.1542478E1,2.1578989E1,2.4079666E1,-8.753391E-2,-1.7287517E-1,7.057023E-2,-1.5200207E-2,1.1698406E-1,1.674711E-2,1.9303064E-1,6.7045495E-2],"split_indices":[0,0,0,3,3,3,3,0,0,0,0,0,0,0,0],"split_type":[0,0,0,0,0,0,0,0,0,0,0,0,0,0,0],"sum_hessian":[1.153E3,8.67E2,2.86E2,2.92E2,5.75E2,1.67E2,1.19E2,2.01E2,9.1E1,6.2E1,5.13E2,1.24E2,4.3E1,1.06E2,1.3E1],"tree_param":{"num_deleted":"0","num_feature":"5","num_nodes":"15","size_leaf_vector":"1"}},{"base_weights":[2.0282884E-4,-7.3561363E0,7.3185987E0,-1.3177851E1,-4.029521E0,3.9348793E0,1.646782E1,-2.0514172E-1,-1.1319465E-1,-2.9210467E-2,-1.3303034E-1,6.417639E-2,-9.880099E-3,1.7607997E-1,6.103532E-2],"categories":[],"categories_nodes":[],"categories_segments":[],"categories_sizes":[],"default_left":[0,0,0,0,0,0,0,0,0,0,0,0,0,0,0],"id":17,"left_children":[1,3,5,7,9,11,13,-1,-1,-1,-1,-1,-1,-1,-1],"loss_changes":[6.218127E4,1.1100344E4,1.785807E4,2.6140586E3,3.7423564E3,5.1891606E3,1.7336367E3,0E0,0E0,0E0,0E0,0E0,0E0,0E0,0E0],"parents":[2147483647,0,0,1,1,2,2,3,3,4,4,5,5,6,6],"right_children":[2,4,6,8,10,12,14,-1,-1,-1,-1,-1,-1,-1,-1],"split_conditions":[3.5333332E1,2.2666666E1,5.5666668E1,1.3666667E1,2.6405453E1,2.0316889E1,2.4079666E1,-2.0514172E-1,-1.1319465E-1,-2.9210467E-2,-1.3303034E-1,6.417639E-2,-9.880099E-3,1.7607997E-1,6.103532E-2],"split_indices":[0,0,0,0,3,3,3,0,0,0,0,0,0,0,0],"split_type":[0,0,0,0,0,0,0,0,0,0,0,0,0,0,0],"sum_hessian":[1.153E3,5.75E2,5.78E2,2.08E2,3.67E2,4.23E2,1.55E2,4E1,1.68E2,3.29E2,3.8E1,2.81E2,1.42E2,1.39E2,1.6E1],"tree_param":{"num_deleted":"0","num_feature":"5","num_nodes":"15","size_leaf_vector":"1"}},{"base_weights":[3.4334258E-5,-4.1798763E0,1.2642064E1,-1.124222E1,-5.799693E-1,8.985545E0,1.7655008E1,-8.569838E-2,-1.6986555E-1,6.9659196E-2,-1.50392065E-2,1.1497777E-1,1.6420338E-2,1.8937404E-1,6.585615E-2],"categories":[],"categories_nodes":[],"categories_segments":[],"categories_sizes":[],"default_left":[0,0,0,0,0,0,0,0,0,0,0,0,0,0,0],"id":18,"left_children":[1,3,5,7,9,11,13,-1,-1,-1,-1,-1,-1,-1,-1],"loss_changes":[6.1034004E4,2.206014E4,5.0993867E3,4.3497305E3,4.025822E3,3.079171E3,1.5761719E3,0E0,0E0,0E0,0E0,0E0,0E0,0E0,0E0],"parents":[2147483647,0,0,1,1,2,2,3,3,4,4,5,5,6,6],"right_children":[2,4,6,8,10,12,14,-1,-1,-1,-1,-1,-1,-1,-1],"split_conditions":[4.7E1,2.6333334E1,5.8E1,2.3499481E1,1.1542478E1,2.1578989E1,2.4079666E1,-8.569838E-2,-1.6986555E-1,6.9659196E-2,-1.50392065E-2,1.1497777E-1,1.6420338E-2,1.8937404E-1,6.585615E-2],"split_indices":[0,0,0,3,3,3,3,0,0,0,0,0,0,0,0],"split_type":[0,0,0,0,0,0,0,0,0,0,0,0,0,0,0],"sum_hessian":[1.153E3,8.67E2,2.86E2,2.92E2,5.75E2,1.67E2,1.19E2,2.01E2,9.1E1,6.2E1,5.13E2,1.24E2,4.3E1,1.06E2,1.3E1],"tree_param":{"num_deleted":"0","num_feature":"5","num_nodes":"15","size_leaf_vector":"1"}},{"base_weights":[1.9472674E-4,-7.5305824E0,6.894206E0,-1.2934124E1,-4.2254353E0,3.655934E0,1.6149025E1,-2.0193475E-1,-1.1095854E-1,-3.1057743E-2,-1.342895E-1,1.2473873E-1,2.2861851E-2,1.7266212E-1,5.9928287E-2],"categories":[],"categories_nodes":[],"categories_segments":[],"categories_sizes":[],"default_left":[0,0,0,0,0,0,0,0,0,0,0,0,0,0,0],"id":19,"left_children":[1,3,5,7,9,11,13,-1,-1,-1,-1,-1,-1,-1,-1],"loss_changes":[5.9964375E4,9.802074E3,1.801066E4,2.5618398E3,3.501496E3,5.3811113E3,1.6642383E3,0E0,0E0,0E0,0E0,0E0,0E0,0E0,0E0],"parents":[2147483647,0,0,1,1,2,2,3,3,4,4,5,5,6,6],"right_children":[2,4,6,8,10,12,14,-1,-1,-1,-1,-1,-1,-1,-1],"split_conditions":[3.4666668E1,2.2666666E1,5.5666668E1,1.3666667E1,2.6405453E1,1.1542478E1,2.4079666E1,-2.0193475E-1,-1.1095854E-1,-3.1057743E-2,-1.342895E-1,1.2473873E-1,2.2861851E-2,1.7266212E-1,5.9928287E-2],"split_indices":[0,0,0,0,3,3,3,0,0,0,0,0,0,0,0],"split_type":[0,0,0,0,0,0,0,0,0,0,0,0,0,0,0],"sum_hessian":[1.153E3,5.51E2,6.02E2,2.08E2,3.43E2,4.47E2,1.55E2,4E1,1.68E2,3.07E2,3.6E1,5.9E1,3.88E2,1.39E2,1.6E1],"tree_param":{"num_deleted":"0","num_feature":"5","num_nodes":"15","size_leaf_vector":"1"}},{"base_weights":[1.0744488E-4,-4.1037583E0,1.24121475E1,-1.1024592E1,-5.7596684E-1,8.830931E0,1.7321585E1,-8.3891675E-2,-1.6690147E-1,6.833957E-2,-1.4832611E-2,1.1310368E-1,1.5840966E-2,1.8578754E-1,6.4688146E-2],"categories":[],"categories_nodes":[],"categories_segments":[],"categories_sizes":[],"default_left":[0,0,0,0,0,0,0,0,0,0,0,0,0,0,0],"id":20,"left_children":[1,3,5,7,9,11,13,-1,-1,-1,-1,-1,-1,-1,-1],"loss_changes":[5.883347E4,2.1184934E4,4.8903867E3,4.2323047E3,3.8820386E3,2.9994297E3,1.5145625E3,0E0,0E0,0E0,0E0,0E0,0E0,0E0,0E0],"parents":[2147483647,0,0,1,1,2,2,3,3,4,4,5,5,6,6],"right_children":[2,4,6,8,10,12,14,-1,-1,-1,-1,-1,-1,-1,-1],"split_conditions":[4.7E1,2.6333334E1,5.8E1,2.3499481E1,1.1542478E1,2.1578989E1,2.4079666E1,-8.3891675E-2,-1.6690147E-1,6.833957E-2,-1.4832611E-2,1.1310368E-1,1.5840966E-2,1.8578754E-1,6.4688146E-2],"split_indices":[0,0,0,3,3,3,3,0,0,0,0,0,0,0,0],"split_type":[0,0,0,0,0,0,0,0,0,0,0,0,0,0,0],"sum_hessian":[1.153E3,8.67E2,2.86E2,2.92E2,5.75E2,1.67E2,1.19E2,2.01E2,9.1E1,6.2E1,5.13E2,1.24E2,4.3E1,1.06E2,1.3E1],"tree_param":{"num_deleted":"0","num_feature":"5","num_nodes":"15","size_leaf_vector":"1"}},{"base_weights":[2.6483255E-4,-7.0948434E0,7.058783E0,-1.2694992E1,-3.894773E0,3.8124392E0,1.5836289E1,-1.9878177E-1,-1.0876615E-1,-2.8198613E-2,-1.2887749E-1,6.2391553E-2,-9.990739E-3,1.693093E-1,5.884161E-2],"categories":[],"categories_nodes":[],"categories_segments":[],"categories_sizes":[],"default_left":[0,0,0,0,0,0,0,0,0,0,0,0,0,0,0],"id":21,"left_children":[1,3,5,7,9,11,13,-1,-1,-1,-1,-1,-1,-1,-1],"loss_changes":[5.7843492E4,1.0271314E4,1.6436152E4,2.510621E3,3.5194165E3,4.957456E3,1.5975586E3,0E0,0E0,0E0,0E0,0E0,0E0,0E0,0E0],"parents":[2147483647,0,0,1,1,2,2,3,3,4,4,5,5,6,6],"right_children":[2,4,6,8,10,12,14,-1,-1,-1,-1,-1,-1,-1,-1],"split_conditions":[3.5333332E1,2.2666666E1,5.5666668E1,1.3666667E1,2.6405453E1,2.0316889E1,2.4079666E1,-1.9878177E-1,-1.0876615E-1,-2.8198613E-2,-1.2887749E-1,6.2391553E-2,-9.990739E-3,1.693093E-1,5.884161E-2],"split_indices":[0,0,0,0,3,3,3,0,0,0,0,0,0,0,0],"split_type":[0,0,0,0,0,0,0,0,0,0,0,0,0,0,0],"sum_hessian":[1.153E3,5.75E2,5.78E2,2.08E2,3.67E2,4.23E2,1.55E2,4E1,1.68E2,3.29E2,3.8E1,2.81E2,1.42E2,1.39E2,1.6E1],"tree_param":{"num_deleted":"0","num_feature":"5","num_nodes":"15","size_leaf_vector":"1"}},{"base_weights":[9.941881E-5,-4.0290585E0,1.2186193E1,-1.0811779E1,-5.7165194E-1,8.678532E0,1.6994534E1,-8.212788E-2,-1.6399655E-1,6.745561E-2,-1.4675912E-2,1.1116382E-1,1.5533099E-2,1.8226978E-1,6.354107E-2],"categories":[],"categories_nodes":[],"categories_segments":[],"categories_sizes":[],"default_left":[0,0,0,0,0,0,0,0,0,0,0,0,0,0,0],"id":22,"left_children":[1,3,5,7,9,11,13,-1,-1,-1,-1,-1,-1,-1,-1],"loss_changes":[5.6710965E4,2.034782E4,4.690496E3,4.118047E3,3.7855007E3,2.899664E3,1.455375E3,0E0,0E0,0E0,0E0,0E0,0E0,0E0,0E0],"parents":[2147483647,0,0,1,1,2,2,3,3,4,4,5,5,6,6],"right_children":[2,4,6,8,10,12,14,-1,-1,-1,-1,-1,-1,-1,-1],"split_conditions":[4.7E1,2.6333334E1,5.8E1,2.3499481E1,1.1542478E1,2.1578989E1,2.4079666E1,-8.212788E-2,-1.6399655E-1,6.745561E-2,-1.4675912E-2,1.1116382E-1,1.5533099E-2,1.8226978E-1,6.354107E-2],"split_indices":[0,0,0,3,3,3,3,0,0,0,0,0,0,0,0],"split_type":[0,0,0,0,0,0,0,0,0,0,0,0,0,0,0],"sum_hessian":[1.153E3,8.67E2,2.86E2,2.92E2,5.75E2,1.67E2,1.19E2,2.01E2,9.1E1,6.2E1,5.13E2,1.24E2,4.3E1,1.06E2,1.3E1],"tree_param":{"num_deleted":"0","num_feature":"5","num_nodes":"15","size_leaf_vector":"1"}},{"base_weights":[2.5401983E-4,-7.262893E0,6.6492705E0,-1.4678594E1,-5.012134E0,3.5419815E0,1.5529502E1,-1.05289154E-1,-1.7659461E-1,-3.346914E-2,-1.08391635E-1,6.413294E-2,-4.261835E-3,1.6602041E-1,5.7774484E-2],"categories":[],"categories_nodes":[],"categories_segments":[],"categories_sizes":[],"default_left":[0,0,0,0,0,0,0,0,0,0,0,0,0,0,0],"id":23,"left_children":[1,3,5,7,9,11,13,-1,-1,-1,-1,-1,-1,-1,-1],"loss_changes":[5.57781E4,9.137869E3,1.6581938E4,1.3945586E3,4.0862002E3,5.107773E3,1.5335195E3,0E0,0E0,0E0,0E0,0E0,0E0,0E0,0E0],"parents":[2147483647,0,0,1,1,2,2,3,3,4,4,5,5,6,6],"right_children":[2,4,6,8,10,12,14,-1,-1,-1,-1,-1,-1,-1,-1],"split_conditions":[3.4666668E1,1.9333334E1,5.5666668E1,1.8978693E1,2.2828087E1,1.8613253E1,2.4079666E1,-1.05289154E-1,-1.7659461E-1,-3.346914E-2,-1.08391635E-1,6.413294E-2,-4.261835E-3,1.6602041E-1,5.7774484E-2],"split_indices":[0,0,0,3,3,3,3,0,0,0,0,0,0,0,0],"split_type":[0,0,0,0,0,0,0,0,0,0,0,0,0,0,0],"sum_hessian":[1.153E3,5.51E2,6.02E2,1.27E2,4.24E2,4.47E2,1.55E2,5.5E1,7.2E1,3.31E2,9.3E1,2.59E2,1.88E2,1.39E2,1.6E1],"tree_param":{"num_deleted":"0","num_feature":"5","num_nodes":"15","size_leaf_vector":"1"}},{"base_weights":[1.2772823E-4,-6.8994255E0,6.8641047E0,-1.2349888E1,-3.7848985E0,3.7160738E0,1.5375649E1,-1.9415021E-1,-1.0562193E-1,-2.7334072E-2,-1.2582518E-1,1.2141266E-1,2.374174E-2,1.6437207E-1,5.7230733E-2],"categories":[],"categories_nodes":[],"categories_segments":[],"categories_sizes":[],"default_left":[0,0,0,0,0,0,0,0,0,0,0,0,0,0,0],"id":24,"left_children":[1,3,5,7,9,11,13,-1,-1,-1,-1,-1,-1,-1,-1],"loss_changes":[5.469892E4,9.729596E3,1.5455027E4,2.4316719E3,3.3683032E3,4.763366E3,1.5022109E3,0E0,0E0,0E0,0E0,0E0,0E0,0E0,0E0],"parents":[2147483647,0,0,1,1,2,2,3,3,4,4,5,5,6,6],"right_children":[2,4,6,8,10,12,14,-1,-1,-1,-1,-1,-1,-1,-1],"split_conditions":[3.5333332E1,2.2666666E1,5.5666668E1,1.3666667E1,2.6405453E1,1.1570515E1,2.4079666E1,-1.9415021E-1,-1.0562193E-1,-2.7334072E-2,-1.2582518E-1,1.2141266E-1,2.374174E-2,1.6437207E-1,5.7230733E-2],"split_indices":[0,0,0,0,3,3,3,0,0,0,0,0,0,0,0],"split_type":[0,0,0,0,0,0,0,0,0,0,0,0,0,0,0],"sum_hessian":[1.153E3,5.75E2,5.78E2,2.08E2,3.67E2,4.23E2,1.55E2,4E1,1.68E2,3.29E2,3.8E1,5.7E1,3.66E2,1.39E2,1.6E1],"tree_param":{"num_deleted":"0","num_feature":"5","num_nodes":"15","size_leaf_vector":"1"}},{"base_weights":[4.9917E-5,-3.922595E0,1.1864007E1,-1.0509607E1,-5.649263E-1,8.465412E0,1.652234E1,-7.9683505E-2,-1.5974002E-1,6.5998666E-2,-1.4421968E-2,1.305395E-1,4.7132224E-2,1.7719108E-1,6.1883133E-2],"categories":[],"categories_nodes":[],"categories_segments":[],"categories_sizes":[],"default_left":[0,0,0,0,0,0,0,0,0,0,0,0,0,0,0],"id":25,"left_children":[1,3,5,7,9,11,13,-1,-1,-1,-1,-1,-1,-1,-1],"loss_changes":[5.3752293E4,1.919052E4,4.4013555E3,3.939045E3,3.6294287E3,2.829164E3,1.3720469E3,0E0,0E0,0E0,0E0,0E0,0E0,0E0,0E0],"parents":[2147483647,0,0,1,1,2,2,3,3,4,4,5,5,6,6],"right_children":[2,4,6,8,10,12,14,-1,-1,-1,-1,-1,-1,-1,-1],"split_conditions":[4.7E1,2.6333334E1,5.8E1,2.3499481E1,1.1542478E1,1.61198E1,2.4079666E1,-7.9683505E-2,-1.5974002E-1,6.5998666E-2,-1.4421968E-2,1.305395E-1,4.7132224E-2,1.7719108E-1,6.1883133E-2],"split_indices":[0,0,0,3,3,3,3,0,0,0,0,0,0,0,0],"split_type":[0,0,0,0,0,0,0,0,0,0,0,0,0,0,0],"sum_hessian":[1.153E3,8.67E2,2.86E2,2.92E2,5.75E2,1.67E2,1.19E2,2.01E2,9.1E1,6.2E1,5.13E2,7.4E1,9.3E1,1.06E2,1.3E1],"tree_param":{"num_deleted":"0","num_feature":"5","num_nodes":"15","size_leaf_vector":"1"}},{"base_weights":[2.4966302E-4,-7.0627947E0,6.4660873E0,-1.4293725E1,-4.868155E0,3.452152E0,1.5079401E1,-1.022612E-1,-1.7216906E-1,-3.241524E-2,-1.0560424E-1,6.2715605E-2,-4.4413563E-3,1.61204E-1,5.6135695E-2],"categories":[],"categories_nodes":[],"categories_segments":[],"categories_sizes":[],"default_left":[0,0,0,0,0,0,0,0,0,0,0,0,0,0,0],"id":26,"left_children":[1,3,5,7,9,11,13,-1,-1,-1,-1,-1,-1,-1,-1],"loss_changes":[5.2747055E4,8.688344E3,1.5599951E4,1.3431582E3,3.8995566E3,4.9247505E3,1.4445469E3,0E0,0E0,0E0,0E0,0E0,0E0,0E0,0E0],"parents":[2147483647,0,0,1,1,2,2,3,3,4,4,5,5,6,6],"right_children":[2,4,6,8,10,12,14,-1,-1,-1,-1,-1,-1,-1,-1],"split_conditions":[3.4666668E1,1.9333334E1,5.5666668E1,1.8978693E1,2.2828087E1,1.8613253E1,2.4079666E1,-1.022612E-1,-1.7216906E-1,-3.241524E-2,-1.0560424E-1,6.2715605E-2,-4.4413563E-3,1.61204E-1,5.6135695E-2],"split_indices":[0,0,0,3,3,3,3,0,0,0,0,0,0,0,0],"split_type":[0,0,0,0,0,0,0,0,0,0,0,0,0,0,0],"sum_hessian":[1.153E3,5.51E2,6.02E2,1.27E2,4.24E2,4.47E2,1.55E2,5.5E1,7.2E1,3.31E2,9.3E1,2.59E2,1.88E2,1.39E2,1.6E1],"tree_param":{"num_deleted":"0","num_feature":"5","num_nodes":"15","size_leaf_vector":"1"}},{"base_weights":[1.2482588E-4,-3.905397E0,1.1490431E1,-1.1874767E1,-1.2386436E0,8.168504E0,1.6210638E1,-1.8963507E-1,-1.01553746E-1,-3.949174E-2,1.5090942E-2,1.2194285E-1,3.9061427E-2,1.7383872E-1,6.0787242E-2],"categories":[],"categories_nodes":[],"categories_segments":[],"categories_sizes":[],"default_left":[0,0,0,0,0,0,0,0,0,0,0,0,0,0,0],"id":27,"left_children":[1,3,5,7,9,11,13,-1,-1,-1,-1,-1,-1,-1,-1],"loss_changes":[5.183212E4,1.8303498E4,4.4594375E3,2.4371855E3,4.8249478E3,2.9364814E3,1.3184355E3,0E0,0E0,0E0,0E0,0E0,0E0,0E0,0E0],"parents":[2147483647,0,0,1,1,2,2,3,3,4,4,5,5,6,6],"right_children":[2,4,6,8,10,12,14,-1,-1,-1,-1,-1,-1,-1,-1],"split_conditions":[4.6666668E1,2.3E1,5.8E1,1.3666667E1,3.4333332E1,1.7555305E1,2.4079666E1,-1.8963507E-1,-1.01553746E-1,-3.949174E-2,1.5090942E-2,1.2194285E-1,3.9061427E-2,1.7383872E-1,6.0787242E-2],"split_indices":[0,0,0,0,0,3,3,0,0,0,0,0,0,0,0],"split_type":[0,0,0,0,0,0,0,0,0,0,0,0,0,0,0],"sum_hessian":[1.153E3,8.61E2,2.92E2,2.15E2,6.46E2,1.73E2,1.19E2,4E1,1.75E2,3.25E2,3.21E2,8.8E1,8.5E1,1.06E2,1.3E1],"tree_param":{"num_deleted":"0","num_feature":"5","num_nodes":"15","size_leaf_vector":"1"}},{"base_weights":[1.9421768E-4,-3.8667092E0,1.1376885E1,-1.1757371E1,-1.2262925E0,8.087749E0,1.6050493E1,-8.626417E-2,-1.5508474E-1,-3.9098017E-2,1.4940501E-2,1.207371E-1,3.867534E-2,1.7211658E-1,6.022279E-2],"categories":[],"categories_nodes":[],"categories_segments":[],"categories_sizes":[],"default_left":[0,0,0,0,0,0,0,0,0,0,0,0,0,0,0],"id":28,"left_children":[1,3,5,7,9,11,13,-1,-1,-1,-1,-1,-1,-1,-1],"loss_changes":[5.0812164E4,1.7943738E4,4.3718125E3,2.400625E3,4.7292246E3,2.878671E3,1.2913496E3,0E0,0E0,0E0,0E0,0E0,0E0,0E0,0E0],"parents":[2147483647,0,0,1,1,2,2,3,3,4,4,5,5,6,6],"right_children":[2,4,6,8,10,12,14,-1,-1,-1,-1,-1,-1,-1,-1],"split_conditions":[4.6666668E1,2.3E1,5.8E1,2.0929596E1,3.4333332E1,1.7555305E1,2.4079666E1,-8.626417E-2,-1.5508474E-1,-3.9098017E-2,1.4940501E-2,1.207371E-1,3.867534E-2,1.7211658E-1,6.022279E-2],"split_indices":[0,0,0,3,0,3,3,0,0,0,0,0,0,0,0],"split_type":[0,0,0,0,0,0,0,0,0,0,0,0,0,0,0],"sum_hessian":[1.153E3,8.61E2,2.92E2,2.15E2,6.46E2,1.73E2,1.19E2,1.19E2,9.6E1,3.25E2,3.21E2,8.8E1,8.5E1,1.06E2,1.3E1],"tree_param":{"num_deleted":"0","num_feature":"5","num_nodes":"15","size_leaf_vector":"1"}},{"base_weights":[3.0184237E-4,-3.7758644E0,1.1421249E1,-1.0120536E1,-5.417245E-1,1.2951706E1,1.9201803E0,-7.645416E-2,-1.5443945E-1,6.5212585E-2,-1.4065615E-2,1.075174E-1,1.9777836E-1,-5.836222E-4,2.0261289E-1],"categories":[],"categories_nodes":[],"categories_segments":[],"categories_sizes":[],"default_left":[0,0,0,0,0,0,0,0,0,0,0,0,0,0,0],"id":29,"left_children":[1,3,5,7,9,11,13,-1,-1,-1,-1,-1,-1,-1,-1],"loss_changes":[4.9812906E4,1.7804424E4,4.1469023E3,3.740207E3,3.5270588E3,3.4935625E3,1.491038E3,0E0,0E0,0E0,0E0,0E0,0E0,0E0,0E0],"parents":[2147483647,0,0,1,1,2,2,3,3,4,4,5,5,6,6],"right_children":[2,4,6,8,10,12,14,-1,-1,-1,-1,-1,-1,-1,-1],"split_conditions":[4.7E1,2.6333334E1,2.4079666E1,2.3499481E1,1.1542478E1,6.4E1,7.2666664E1,-7.645416E-2,-1.5443945E-1,6.5212585E-2,-1.4065615E-2,1.075174E-1,1.9777836E-1,-5.836222E-4,2.0261289E-1],"split_indices":[0,0,3,3,3,0,0,0,0,0,0,0,0,0,0],"split_type":[0,0,0,0,0,0,0,0,0,0,0,0,0,0,0],"sum_hessian":[1.153E3,8.67E2,2.86E2,2.92E2,5.75E2,2.46E2,4E1,2.01E2,9.1E1,6.2E1,5.13E2,1.88E2,5.8E1,3.7E1,3E0],"tree_param":{"num_deleted":"0","num_feature":"5","num_nodes":"15","size_leaf_vector":"1"}},{"base_weights":[5.814921E-4,-6.5250244E0,6.4925475E0,-1.38023815E1,-4.435655E0,3.524685E0,1.4516786E1,-9.848828E-2,-1.66448E-1,-3.3837985E-2,-1.2759793E-1,5.8351655E-2,-1.0555961E-2,1.3160478E-1,2.2604454E-1],"categories":[],"categories_nodes":[],"categories_segments":[],"categories_sizes":[],"default_left":[0,0,0,0,0,0,0,0,0,0,0,0,0,0,0],"id":30,"left_children":[1,3,5,7,9,11,13,-1,-1,-1,-1,-1,-1,-1,-1],"loss_changes":[4.893043E4,8.695086E3,1.373582E4,1.2718379E3,3.8865615E3,4.493681E3,1.4101562E3,0E0,0E0,0E0,0E0,0E0,0E0,0E0,0E0],"parents":[2147483647,0,0,1,1,2,2,3,3,4,4,5,5,6,6],"right_children":[2,4,6,8,10,12,14,-1,-1,-1,-1,-1,-1,-1,-1],"split_conditions":[3.5333332E1,1.9333334E1,5.5666668E1,1.8978693E1,2.6405453E1,2.0316889E1,7.2666664E1,-9.848828E-2,-1.66448E-1,-3.3837985E-2,-1.2759793E-1,5.8351655E-2,-1.0555961E-2,1.3160478E-1,2.2604454E-1],"split_indices":[0,0,0,3,3,3,0,0,0,0,0,0,0,0,0],"split_type":[0,0,0,0,0,0,0,0,0,0,0,0,0,0,0],"sum_hessian":[1.153E3,5.75E2,5.78E2,1.27E2,4.48E2,4.23E2,1.55E2,5.5E1,7.2E1,3.99E2,4.9E1,2.81E2,1.42E2,1.35E2,2E1],"tree_param":{"num_deleted":"0","num_feature":"5","num_nodes":"15","size_leaf_vector":"1"}},{"base_weights":[5.539793E-4,-3.7592232E0,1.1062081E1,-1.1439268E1,-1.1892866E0,7.8669024E0,1.5602073E1,-1.8397713E-1,-9.7527035E-2,-3.799847E-2,1.4570859E-2,1.1779885E-1,3.7247818E-2,1.6740336E-1,5.7809174E-2],"categories":[],"categories_nodes":[],"categories_segments":[],"categories_sizes":[],"default_left":[0,0,0,0,0,0,0,0,0,0,0,0,0,0,0],"id":31,"left_children":[1,3,5,7,9,11,13,-1,-1,-1,-1,-1,-1,-1,-1],"loss_changes":[4.8035883E4,1.6998623E4,4.1251953E3,2.352707E3,4.4755806E3,2.7747725E3,1.242459E3,0E0,0E0,0E0,0E0,0E0,0E0,0E0,0E0],"parents":[2147483647,0,0,1,1,2,2,3,3,4,4,5,5,6,6],"right_children":[2,4,6,8,10,12,14,-1,-1,-1,-1,-1,-1,-1,-1],"split_conditions":[4.6666668E1,2.3E1,5.8E1,1.3666667E1,3.4333332E1,1.7555305E1,2.4079666E1,-1.8397713E-1,-9.7527035E-2,-3.799847E-2,1.4570859E-2,1.1779885E-1,3.7247818E-2,1.6740336E-1,5.7809174E-2],"split_indices":[0,0,0,0,0,3,3,0,0,0,0,0,0,0,0],"split_type":[0,0,0,0,0,0,0,0,0,0,0,0,0,0,0],"sum_hessian":[1.153E3,8.61E2,2.92E2,2.15E2,6.46E2,1.73E2,1.19E2,4E1,1.75E2,3.25E2,3.21E2,8.8E1,8.5E1,1.06E2,1.3E1],"tree_param":{"num_deleted":"0","num_feature":"5","num_nodes":"15","size_leaf_vector":"1"}},{"base_weights":[6.1417156E-4,-3.7219865E0,1.0952768E1,-1.1326184E1,-1.1774292E0,7.789131E0,1.5447936E1,-1.8218221E-1,-9.655731E-2,-3.761965E-2,1.4425591E-2,1.1663411E-1,3.687968E-2,1.6574495E-1,5.7272386E-2],"categories":[],"categories_nodes":[],"categories_segments":[],"categories_sizes":[],"default_left":[0,0,0,0,0,0,0,0,0,0,0,0,0,0,0],"id":32,"left_children":[1,3,5,7,9,11,13,-1,-1,-1,-1,-1,-1,-1,-1],"loss_changes":[4.7090645E4,1.6664523E4,4.044129E3,2.3080742E3,4.38679E3,2.7201465E3,1.216957E3,0E0,0E0,0E0,0E0,0E0,0E0,0E0,0E0],"parents":[2147483647,0,0,1,1,2,2,3,3,4,4,5,5,6,6],"right_children":[2,4,6,8,10,12,14,-1,-1,-1,-1,-1,-1,-1,-1],"split_conditions":[4.6666668E1,2.3E1,5.8E1,1.3666667E1,3.4333332E1,1.7555305E1,2.4079666E1,-1.8218221E-1,-9.655731E-2,-3.761965E-2,1.4425591E-2,1.1663411E-1,3.687968E-2,1.6574495E-1,5.7272386E-2],"split_indices":[0,0,0,0,0,3,3,0,0,0,0,0,0,0,0],"split_type":[0,0,0,0,0,0,0,0,0,0,0,0,0,0,0],"sum_hessian":[1.153E3,8.61E2,2.92E2,2.15E2,6.46E2,1.73E2,1.19E2,4E1,1.75E2,3.25E2,3.21E2,8.8E1,8.5E1,1.06E2,1.3E1],"tree_param":{"num_deleted":"0","num_feature":"5","num_nodes":"15","size_leaf_vector":"1"}},{"base_weights":[6.733192E-4,-3.6851184E0,1.0844536E1,-1.1214217E1,-1.1656896E0,7.712127E0,1.5295323E1,-8.177169E-2,-1.4854749E-1,-3.7244603E-2,1.4281767E-2,1.1548087E-1,3.6515165E-2,1.6410299E-1,5.6740556E-2],"categories":[],"categories_nodes":[],"categories_segments":[],"categories_sizes":[],"default_left":[0,0,0,0,0,0,0,0,0,0,0,0,0,0,0],"id":33,"left_children":[1,3,5,7,9,11,13,-1,-1,-1,-1,-1,-1,-1,-1],"loss_changes":[4.6164004E4,1.6336991E4,3.9646523E3,2.2644258E3,4.2997583E3,2.6665957E3,1.1919766E3,0E0,0E0,0E0,0E0,0E0,0E0,0E0,0E0],"parents":[2147483647,0,0,1,1,2,2,3,3,4,4,5,5,6,6],"right_children":[2,4,6,8,10,12,14,-1,-1,-1,-1,-1,-1,-1,-1],"split_conditions":[4.6666668E1,2.3E1,5.8E1,2.0929596E1,3.4333332E1,1.7555305E1,2.4079666E1,-8.177169E-2,-1.4854749E-1,-3.7244603E-2,1.4281767E-2,1.1548087E-1,3.6515165E-2,1.6410299E-1,5.6740556E-2],"split_indices":[0,0,0,3,0,3,3,0,0,0,0,0,0,0,0],"split_type":[0,0,0,0,0,0,0,0,0,0,0,0,0,0,0],"sum_hessian":[1.153E3,8.61E2,2.92E2,2.15E2,6.46E2,1.73E2,1.19E2,1.19E2,9.6E1,3.25E2,3.21E2,8.8E1,8.5E1,1.06E2,1.3E1],"tree_param":{"num_deleted":"0","num_feature":"5","num_nodes":"15","size_leaf_vector":"1"}},{"base_weights":[7.7033945E-4,-3.5986228E0,1.0887085E1,-9.655269E0,-5.113038E-1,1.2363194E1,1.7264512E0,-7.246635E-2,-1.4837752E-1,6.457516E-2,-1.3646586E-2,1.0244799E-1,1.8938E-1,-2.1997949E-3,1.981093E-1],"categories":[],"categories_nodes":[],"categories_segments":[],"categories_sizes":[],"default_left":[0,0,0,0,0,0,0,0,0,0,0,0,0,0,0],"id":34,"left_children":[1,3,5,7,9,11,13,-1,-1,-1,-1,-1,-1,-1,-1],"loss_changes":[4.525839E4,1.6224602E4,3.858086E3,3.5477012E3,3.4337036E3,3.243293E3,1.4495247E3,0E0,0E0,0E0,0E0,0E0,0E0,0E0,0E0],"parents":[2147483647,0,0,1,1,2,2,3,3,4,4,5,5,6,6],"right_children":[2,4,6,8,10,12,14,-1,-1,-1,-1,-1,-1,-1,-1],"split_conditions":[4.7E1,2.6333334E1,2.4079666E1,2.3499481E1,1.1542478E1,6.4E1,7.2666664E1,-7.246635E-2,-1.4837752E-1,6.457516E-2,-1.3646586E-2,1.0244799E-1,1.8938E-1,-2.1997949E-3,1.981093E-1],"split_indices":[0,0,3,3,3,0,0,0,0,0,0,0,0,0,0],"split_type":[0,0,0,0,0,0,0,0,0,0,0,0,0,0,0],"sum_hessian":[1.153E3,8.67E2,2.86E2,2.92E2,5.75E2,2.46E2,4E1,2.01E2,9.1E1,6.2E1,5.13E2,1.88E2,5.8E1,3.7E1,3E0],"tree_param":{"num_deleted":"0","num_feature":"5","num_nodes":"15","size_leaf_vector":"1"}},{"base_weights":[1.036927E-3,-6.221792E0,6.1917944E0,-1.3207956E1,-4.216111E0,3.3613672E0,1.3844419E1,-9.3761936E-2,-1.5965089E-1,-3.1836417E-2,-1.23895444E-1,1.13907404E-1,2.0829884E-2,1.2516464E-1,2.178048E-1],"categories":[],"categories_nodes":[],"categories_segments":[],"categories_sizes":[],"default_left":[0,0,0,0,0,0,0,0,0,0,0,0,0,0,0],"id":35,"left_children":[1,3,5,7,9,11,13,-1,-1,-1,-1,-1,-1,-1,-1],"loss_changes":[4.449525E4,8.013492E3,1.2492996E4,1.2000527E3,3.7480293E3,4.3271074E3,1.3679961E3,0E0,0E0,0E0,0E0,0E0,0E0,0E0,0E0],"parents":[2147483647,0,0,1,1,2,2,3,3,4,4,5,5,6,6],"right_children":[2,4,6,8,10,12,14,-1,-1,-1,-1,-1,-1,-1,-1],"split_conditions":[3.5333332E1,1.9333334E1,5.5666668E1,1.8978693E1,2.6405453E1,1.1570515E1,7.2666664E1,-9.3761936E-2,-1.5965089E-1,-3.1836417E-2,-1.23895444E-1,1.13907404E-1,2.0829884E-2,1.2516464E-1,2.178048E-1],"split_indices":[0,0,0,3,3,3,0,0,0,0,0,0,0,0,0],"split_type":[0,0,0,0,0,0,0,0,0,0,0,0,0,0,0],"sum_hessian":[1.153E3,5.75E2,5.78E2,1.27E2,4.48E2,4.23E2,1.55E2,5.5E1,7.2E1,3.99E2,4.9E1,5.7E1,3.66E2,1.35E2,2E1],"tree_param":{"num_deleted":"0","num_feature":"5","num_nodes":"15","size_leaf_vector":"1"}},{"base_weights":[1.0860205E-3,-3.5822127E0,1.0543415E1,-1.0910533E1,-1.1299723E0,7.5002046E0,1.4867374E1,-1.7676254E-1,-9.2718676E-2,6.0891053E-3,-4.7518805E-2,1.1272856E-1,3.5075746E-2,1.5960403E-1,5.444414E-2],"categories":[],"categories_nodes":[],"categories_segments":[],"categories_sizes":[],"default_left":[0,0,0,0,0,0,0,0,0,0,0,0,0,0,0],"id":36,"left_children":[1,3,5,7,9,11,13,-1,-1,-1,-1,-1,-1,-1,-1],"loss_changes":[4.363233E4,1.5477297E4,3.7417598E3,2.2281543E3,4.078162E3,2.5799082E3,1.1469121E3,0E0,0E0,0E0,0E0,0E0,0E0,0E0,0E0],"parents":[2147483647,0,0,1,1,2,2,3,3,4,4,5,5,6,6],"right_children":[2,4,6,8,10,12,14,-1,-1,-1,-1,-1,-1,-1,-1],"split_conditions":[4.6666668E1,2.3E1,5.8E1,1.3666667E1,2.0316889E1,1.7555305E1,2.4079666E1,-1.7676254E-1,-9.2718676E-2,6.0891053E-3,-4.7518805E-2,1.1272856E-1,3.5075746E-2,1.5960403E-1,5.444414E-2],"split_indices":[0,0,0,0,3,3,3,0,0,0,0,0,0,0,0],"split_type":[0,0,0,0,0,0,0,0,0,0,0,0,0,0,0],"sum_hessian":[1.153E3,8.61E2,2.92E2,2.15E2,6.46E2,1.73E2,1.19E2,4E1,1.75E2,4.37E2,2.09E2,8.8E1,8.5E1,1.06E2,1.3E1],"tree_param":{"num_deleted":"0","num_feature":"5","num_nodes":"15","size_leaf_vector":"1"}},{"base_weights":[1.120837E-3,-6.1131325E0,6.0838647E0,-1.2959606E1,-4.1475163E0,3.3115864E0,1.3579136E1,-9.1765344E-2,-1.568279E-1,-3.1289976E-2,-1.2210711E-1,1.1232364E-1,2.0505054E-2,1.2333393E-1,2.1907203E-1],"categories":[],"categories_nodes":[],"categories_segments":[],"categories_sizes":[],"default_left":[0,0,0,0,0,0,0,0,0,0,0,0,0,0,0],"id":37,"left_children":[1,3,5,7,9,11,13,-1,-1,-1,-1,-1,-1,-1,-1],"loss_changes":[4.295611E4,7.696084E3,1.1984371E4,1.1722539E3,3.6476768E3,4.2108657E3,1.3448281E3,0E0,0E0,0E0,0E0,0E0,0E0,0E0,0E0],"parents":[2147483647,0,0,1,1,2,2,3,3,4,4,5,5,6,6],"right_children":[2,4,6,8,10,12,14,-1,-1,-1,-1,-1,-1,-1,-1],"split_conditions":[3.5333332E1,1.9333334E1,5.5666668E1,1.8978693E1,2.6405453E1,1.1570515E1,7.3E1,-9.1765344E-2,-1.568279E-1,-3.1289976E-2,-1.2210711E-1,1.1232364E-1,2.0505054E-2,1.2333393E-1,2.1907203E-1],"split_indices":[0,0,0,3,3,3,0,0,0,0,0,0,0,0,0],"split_type":[0,0,0,0,0,0,0,0,0,0,0,0,0,0,0],"sum_hessian":[1.153E3,5.75E2,5.78E2,1.27E2,4.48E2,4.23E2,1.55E2,5.5E1,7.2E1,3.99E2,4.9E1,5.7E1,3.66E2,1.37E2,1.8E1],"tree_param":{"num_deleted":"0","num_feature":"5","num_nodes":"15","size_leaf_vector":"1"}},{"base_weights":[1.1721272E-3,-6.31031E0,5.7790112E0,-1.283196E1,-4.3310595E0,3.096291E0,1.3445547E1,-9.086406E-2,-1.552811E-1,-2.797419E-2,-9.700606E-2,1.1102459E-1,1.8531898E-2,1.2142925E-1,2.1236546E-1],"categories":[],"categories_nodes":[],"categories_segments":[],"categories_sizes":[],"default_left":[0,0,0,0,0,0,0,0,0,0,0,0,0,0,0],"id":38,"left_children":[1,3,5,7,9,11,13,-1,-1,-1,-1,-1,-1,-1,-1],"loss_changes":[4.211902E4,7.067912E3,1.2358717E4,1.1490645E3,3.4714688E3,4.436839E3,1.3219902E3,0E0,0E0,0E0,0E0,0E0,0E0,0E0,0E0],"parents":[2147483647,0,0,1,1,2,2,3,3,4,4,5,5,6,6],"right_children":[2,4,6,8,10,12,14,-1,-1,-1,-1,-1,-1,-1,-1],"split_conditions":[3.4666668E1,1.9333334E1,5.5666668E1,1.8978693E1,2.2828087E1,1.1542478E1,7.2666664E1,-9.086406E-2,-1.552811E-1,-2.797419E-2,-9.700606E-2,1.1102459E-1,1.8531898E-2,1.2142925E-1,2.1236546E-1],"split_indices":[0,0,0,3,3,3,0,0,0,0,0,0,0,0,0],"split_type":[0,0,0,0,0,0,0,0,0,0,0,0,0,0,0],"sum_hessian":[1.153E3,5.51E2,6.02E2,1.27E2,4.24E2,4.47E2,1.55E2,5.5E1,7.2E1,3.31E2,9.3E1,5.9E1,3.88E2,1.35E2,2E1],"tree_param":{"num_deleted":"0","num_feature":"5","num_nodes":"15","size_leaf_vector":"1"}},{"base_weights":[1.2392629E-3,-3.4876714E0,1.0265881E1,-1.0614323E1,-1.1029044E0,1.166526E1,1.6227912E0,-1.7234045E-1,-9.0113506E-2,6.022616E-3,-4.6546176E-2,9.6312225E-2,1.8154041E-1,-2.1233638E-3,1.9134586E-1],"categories":[],"categories_nodes":[],"categories_segments":[],"categories_sizes":[],"default_left":[0,0,0,0,0,0,0,0,0,0,0,0,0,0,0],"id":39,"left_children":[1,3,5,7,9,11,13,-1,-1,-1,-1,-1,-1,-1,-1],"loss_changes":[4.136401E4,1.4637158E4,3.5235684E3,2.1340996E3,3.9216096E3,3.148375E3,1.3556831E3,0E0,0E0,0E0,0E0,0E0,0E0,0E0,0E0],"parents":[2147483647,0,0,1,1,2,2,3,3,4,4,5,5,6,6],"right_children":[2,4,6,8,10,12,14,-1,-1,-1,-1,-1,-1,-1,-1],"split_conditions":[4.6666668E1,2.3E1,2.4079666E1,1.3666667E1,2.0316889E1,6.4E1,7.2666664E1,-1.7234045E-1,-9.0113506E-2,6.022616E-3,-4.6546176E-2,9.6312225E-2,1.8154041E-1,-2.1233638E-3,1.9134586E-1],"split_indices":[0,0,3,0,3,0,0,0,0,0,0,0,0,0,0],"split_type":[0,0,0,0,0,0,0,0,0,0,0,0,0,0,0],"sum_hessian":[1.153E3,8.61E2,2.92E2,2.15E2,6.46E2,2.51E2,4.1E1,4E1,1.75E2,4.37E2,2.09E2,1.93E2,5.8E1,3.8E1,3E0],"tree_param":{"num_deleted":"0","num_feature":"5","num_nodes":"15","size_leaf_vector":"1"}},{"base_weights":[1.3678966E-3,-5.948401E0,5.9204793E0,-1.25904665E1,-4.041424E0,3.230825E0,1.3192229E1,-8.89251E-2,-1.5253411E-1,-3.0431824E-2,-1.19445294E-1,5.4331407E-2,-1.1340972E-2,1.1976188E-1,2.1324942E-1],"categories":[],"categories_nodes":[],"categories_segments":[],"categories_sizes":[],"default_left":[0,0,0,0,0,0,0,0,0,0,0,0,0,0,0],"id":40,"left_children":[1,3,5,7,9,11,13,-1,-1,-1,-1,-1,-1,-1,-1],"loss_changes":[4.067603E4,7.2432227E3,1.1280105E4,1.122418E3,3.5044067E3,4.0824766E3,1.2840742E3,0E0,0E0,0E0,0E0,0E0,0E0,0E0,0E0],"parents":[2147483647,0,0,1,1,2,2,3,3,4,4,5,5,6,6],"right_children":[2,4,6,8,10,12,14,-1,-1,-1,-1,-1,-1,-1,-1],"split_conditions":[3.5333332E1,1.9333334E1,5.5666668E1,1.8978693E1,2.6405453E1,2.0316889E1,7.3E1,-8.89251E-2,-1.5253411E-1,-3.0431824E-2,-1.19445294E-1,5.4331407E-2,-1.1340972E-2,1.1976188E-1,2.1324942E-1],"split_indices":[0,0,0,3,3,3,0,0,0,0,0,0,0,0,0],"split_type":[0,0,0,0,0,0,0,0,0,0,0,0,0,0,0],"sum_hessian":[1.153E3,5.75E2,5.78E2,1.27E2,4.48E2,4.23E2,1.55E2,5.5E1,7.2E1,3.99E2,4.9E1,2.81E2,1.42E2,1.37E2,1.8E1],"tree_param":{"num_deleted":"0","num_feature":"5","num_nodes":"15","size_leaf_vector":"1"}},{"base_weights":[1.3385871E-3,-6.1407833E0,5.624141E0,-1.2466455E1,-4.2209554E0,3.0212393E0,1.3062448E1,-8.805174E-2,-1.5102968E-1,-3.2129787E-2,-1.206875E-1,1.0907985E-1,1.7967505E-2,1.1857293E-1,2.1122915E-1],"categories":[],"categories_nodes":[],"categories_segments":[],"categories_sizes":[],"default_left":[0,0,0,0,0,0,0,0,0,0,0,0,0,0,0],"id":41,"left_children":[1,3,5,7,9,11,13,-1,-1,-1,-1,-1,-1,-1,-1],"loss_changes":[3.9888957E4,6.6493105E3,1.1633719E4,1.100209E3,3.3216128E3,4.3055703E3,1.2616426E3,0E0,0E0,0E0,0E0,0E0,0E0,0E0,0E0],"parents":[2147483647,0,0,1,1,2,2,3,3,4,4,5,5,6,6],"right_children":[2,4,6,8,10,12,14,-1,-1,-1,-1,-1,-1,-1,-1],"split_conditions":[3.4666668E1,1.9333334E1,5.5666668E1,1.8978693E1,2.6405453E1,1.1542478E1,7.3E1,-8.805174E-2,-1.5102968E-1,-3.2129787E-2,-1.206875E-1,1.0907985E-1,1.7967505E-2,1.1857293E-1,2.1122915E-1],"split_indices":[0,0,0,3,3,3,0,0,0,0,0,0,0,0,0],"split_type":[0,0,0,0,0,0,0,0,0,0,0,0,0,0,0],"sum_hessian":[1.153E3,5.51E2,6.02E2,1.27E2,4.24E2,4.47E2,1.55E2,5.5E1,7.2E1,3.77E2,4.7E1,5.9E1,3.88E2,1.37E2,1.8E1],"tree_param":{"num_deleted":"0","num_feature":"5","num_nodes":"15","size_leaf_vector":"1"}},{"base_weights":[1.3811885E-3,-3.3961809E0,9.997275E0,-8.987009E0,-5.1616544E-1,1.1372918E1,1.503012E0,-6.7091346E-2,-1.3889655E-1,6.162349E-2,-1.3435871E-2,9.3914E-2,1.7693958E-1,-2.939585E-3,1.867272E-1],"categories":[],"categories_nodes":[],"categories_segments":[],"categories_sizes":[],"default_left":[0,0,0,0,0,0,0,0,0,0,0,0,0,0,0],"id":42,"left_children":[1,3,5,7,9,11,13,-1,-1,-1,-1,-1,-1,-1,-1],"loss_changes":[3.922638E4,1.3874051E4,3.4053418E3,3.1768633E3,3.157588E3,2.9874844E3,1.3031721E3,0E0,0E0,0E0,0E0,0E0,0E0,0E0,0E0],"parents":[2147483647,0,0,1,1,2,2,3,3,4,4,5,5,6,6],"right_children":[2,4,6,8,10,12,14,-1,-1,-1,-1,-1,-1,-1,-1],"split_conditions":[4.6666668E1,2.6333334E1,2.4079666E1,2.3499481E1,1.1542478E1,6.4E1,7.2666664E1,-6.7091346E-2,-1.3889655E-1,6.162349E-2,-1.3435871E-2,9.3914E-2,1.7693958E-1,-2.939585E-3,1.867272E-1],"split_indices":[0,0,3,3,3,0,0,0,0,0,0,0,0,0,0],"split_type":[0,0,0,0,0,0,0,0,0,0,0,0,0,0,0],"sum_hessian":[1.153E3,8.61E2,2.92E2,2.92E2,5.69E2,2.51E2,4.1E1,2.01E2,9.1E1,6.2E1,5.07E2,1.93E2,5.8E1,3.8E1,3E0],"tree_param":{"num_deleted":"0","num_feature":"5","num_nodes":"15","size_leaf_vector":"1"}},{"base_weights":[1.623797E-3,-5.7845087E0,5.757946E0,-1.1222156E1,-3.5739639E0,3.1472807E0,1.2816051E1,-1.6706732E-1,-9.347634E-2,-2.5559107E-2,-1.1594255E-1,5.313024E-2,-1.1449349E-2,1.16296E-1,2.0753632E-1],"categories":[],"categories_nodes":[],"categories_segments":[],"categories_sizes":[],"default_left":[0,0,0,0,0,0,0,0,0,0,0,0,0,0,0],"id":43,"left_children":[1,3,5,7,9,11,13,-1,-1,-1,-1,-1,-1,-1,-1],"loss_changes":[3.8469402E4,6.8820254E3,1.0626922E4,1.5478652E3,3.3247998E3,3.9479346E3,1.224541E3,0E0,0E0,0E0,0E0,0E0,0E0,0E0,0E0],"parents":[2147483647,0,0,1,1,2,2,3,3,4,4,5,5,6,6],"right_children":[2,4,6,8,10,12,14,-1,-1,-1,-1,-1,-1,-1,-1],"split_conditions":[3.5333332E1,2.1333334E1,5.5666668E1,1.3666667E1,2.6405453E1,2.0316889E1,7.3E1,-1.6706732E-1,-9.347634E-2,-2.5559107E-2,-1.1594255E-1,5.313024E-2,-1.1449349E-2,1.16296E-1,2.0753632E-1],"split_indices":[0,0,0,0,3,3,0,0,0,0,0,0,0,0,0],"split_type":[0,0,0,0,0,0,0,0,0,0,0,0,0,0,0],"sum_hessian":[1.153E3,5.75E2,5.78E2,1.65E2,4.1E2,4.23E2,1.55E2,4E1,1.25E2,3.65E2,4.5E1,2.81E2,1.42E2,1.37E2,1.8E1],"tree_param":{"num_deleted":"0","num_feature":"5","num_nodes":"15","size_leaf_vector":"1"}},{"base_weights":[1.5728159E-3,-3.2889838E0,9.953843E0,-8.816676E0,-4.7127086E-1,1.1350474E1,1.2947812E0,-6.571607E-2,-1.3649146E-1,6.08439E-2,-1.2740633E-2,9.406877E-2,1.7382495E-1,-5.347914E-3,1.8377025E-1],"categories":[],"categories_nodes":[],"categories_segments":[],"categories_sizes":[],"default_left":[0,0,0,0,0,0,0,0,0,0,0,0,0,0,0],"id":44,"left_children":[1,3,5,7,9,11,13,-1,-1,-1,-1,-1,-1,-1,-1],"loss_changes":[3.7825184E4,1.3514407E4,3.454879E3,3.0871055E3,3.0386643E3,2.7295898E3,1.2929935E3,0E0,0E0,0E0,0E0,0E0,0E0,0E0,0E0],"parents":[2147483647,0,0,1,1,2,2,3,3,4,4,5,5,6,6],"right_children":[2,4,6,8,10,12,14,-1,-1,-1,-1,-1,-1,-1,-1],"split_conditions":[4.7E1,2.6333334E1,2.4079666E1,2.3499481E1,1.1542478E1,6.4E1,7.2666664E1,-6.571607E-2,-1.3649146E-1,6.08439E-2,-1.2740633E-2,9.406877E-2,1.7382495E-1,-5.347914E-3,1.8377025E-1],"split_indices":[0,0,3,3,3,0,0,0,0,0,0,0,0,0,0],"split_type":[0,0,0,0,0,0,0,0,0,0,0,0,0,0,0],"sum_hessian":[1.153E3,8.67E2,2.86E2,2.92E2,5.75E2,2.46E2,4E1,2.01E2,9.1E1,6.2E1,5.13E2,1.88E2,5.8E1,3.7E1,3E0],"tree_param":{"num_deleted":"0","num_feature":"5","num_nodes":"15","size_leaf_vector":"1"}},{"base_weights":[1.8093585E-3,-5.9223247E0,5.4250603E0,-1.2044914E1,-4.0641747E0,1.396147E0,9.855863E0,-1.6448554E-1,-9.855207E-2,-2.6047707E-2,-9.174365E-2,1.589298E-1,5.7241833E-3,1.1238057E-1,1.286161E-2],"categories":[],"categories_nodes":[],"categories_segments":[],"categories_sizes":[],"default_left":[0,0,0,0,0,0,0,0,0,0,0,0,0,0,0],"id":45,"left_children":[1,3,5,7,9,11,13,-1,-1,-1,-1,-1,-1,-1,-1],"loss_changes":[3.7107867E4,6.229369E3,1.0749459E4,1.0695273E3,3.144503E3,3.7746978E3,3.3838047E3,0E0,0E0,0E0,0E0,0E0,0E0,0E0,0E0],"parents":[2147483647,0,0,1,1,2,2,3,3,4,4,5,5,6,6],"right_children":[2,4,6,8,10,12,14,-1,-1,-1,-1,-1,-1,-1,-1],"split_conditions":[3.4666668E1,1.9333334E1,4.7E1,1.3666667E1,2.2828087E1,1.0086427E1,2.4079666E1,-1.6448554E-1,-9.855207E-2,-2.6047707E-2,-9.174365E-2,1.589298E-1,5.7241833E-3,1.1238057E-1,1.286161E-2],"split_indices":[0,0,0,0,3,3,3,0,0,0,0,0,0,0,0],"split_type":[0,0,0,0,0,0,0,0,0,0,0,0,0,0,0],"sum_hessian":[1.153E3,5.51E2,6.02E2,1.27E2,4.24E2,3.16E2,2.86E2,4E1,8.7E1,3.31E2,9.3E1,1.6E1,3E2,2.46E2,4E1],"tree_param":{"num_deleted":"0","num_feature":"5","num_nodes":"15","size_leaf_vector":"1"}},{"base_weights":[1.710821E-3,-5.6248703E0,5.5993085E0,-1.0922752E1,-3.4711642E0,3.0572495E0,1.247196E1,-1.628808E-1,-9.089409E-2,-2.4751557E-2,-1.1318292E-1,5.1832225E-2,-1.1559094E-2,1.1303082E-1,2.0300022E-1],"categories":[],"categories_nodes":[],"categories_segments":[],"categories_sizes":[],"default_left":[0,0,0,0,0,0,0,0,0,0,0,0,0,0,0],"id":46,"left_children":[1,3,5,7,9,11,13,-1,-1,-1,-1,-1,-1,-1,-1],"loss_changes":[3.6377113E4,6.5328516E3,1.0075844E4,1.4822715E3,3.1829023E3,3.8041895E3,1.1947949E3,0E0,0E0,0E0,0E0,0E0,0E0,0E0,0E0],"parents":[2147483647,0,0,1,1,2,2,3,3,4,4,5,5,6,6],"right_children":[2,4,6,8,10,12,14,-1,-1,-1,-1,-1,-1,-1,-1],"split_conditions":[3.5333332E1,2.1333334E1,5.5666668E1,1.3666667E1,2.6405453E1,2.0316889E1,7.3E1,-1.628808E-1,-9.089409E-2,-2.4751557E-2,-1.1318292E-1,5.1832225E-2,-1.1559094E-2,1.1303082E-1,2.0300022E-1],"split_indices":[0,0,0,0,3,3,0,0,0,0,0,0,0,0,0],"split_type":[0,0,0,0,0,0,0,0,0,0,0,0,0,0,0],"sum_hessian":[1.153E3,5.75E2,5.78E2,1.65E2,4.1E2,4.23E2,1.55E2,4E1,1.25E2,3.65E2,4.5E1,2.81E2,1.42E2,1.37E2,1.8E1],"tree_param":{"num_deleted":"0","num_feature":"5","num_nodes":"15","size_leaf_vector":"1"}},{"base_weights":[1.6593953E-3,-3.2422404E0,9.545482E0,-9.873029E0,-1.0233955E0,1.0810831E1,1.0247248E0,-1.6129173E-1,-8.3589666E-2,5.95239E-3,-4.3950073E-2,8.9116745E-2,1.6967154E-1,-8.956927E-3,1.80773E-1],"categories":[],"categories_nodes":[],"categories_segments":[],"categories_sizes":[],"default_left":[0,0,0,0,0,0,0,0,0,0,0,0,0,0,0],"id":47,"left_children":[1,3,5,7,9,11,13,-1,-1,-1,-1,-1,-1,-1,-1],"loss_changes":[3.5758496E4,1.2671145E4,3.146787E3,1.9087227E3,3.533939E3,2.827621E3,1.2950845E3,0E0,0E0,0E0,0E0,0E0,0E0,0E0,0E0],"parents":[2147483647,0,0,1,1,2,2,3,3,4,4,5,5,6,6],"right_children":[2,4,6,8,10,12,14,-1,-1,-1,-1,-1,-1,-1,-1],"split_conditions":[4.6666668E1,2.3E1,2.4344624E1,1.3666667E1,2.0316889E1,6.4E1,7.2666664E1,-1.6129173E-1,-8.3589666E-2,5.95239E-3,-4.3950073E-2,8.9116745E-2,1.6967154E-1,-8.956927E-3,1.80773E-1],"split_indices":[0,0,3,0,3,0,0,0,0,0,0,0,0,0,0],"split_type":[0,0,0,0,0,0,0,0,0,0,0,0,0,0,0],"sum_hessian":[1.153E3,8.61E2,2.92E2,2.15E2,6.46E2,2.54E2,3.8E1,4E1,1.75E2,4.37E2,2.09E2,1.96E2,5.8E1,3.5E1,3E0],"tree_param":{"num_deleted":"0","num_feature":"5","num_nodes":"15","size_leaf_vector":"1"}},{"base_weights":[1.770805E-3,-5.763158E0,5.279281E0,-1.1706629E1,-3.9593287E0,2.844431E0,1.223719E1,-8.171482E-2,-1.4256787E-1,-2.5317695E-2,-8.958161E-2,1.0445728E-1,1.6644249E-2,1.108654E-1,1.9945213E-1],"categories":[],"categories_nodes":[],"categories_segments":[],"categories_sizes":[],"default_left":[0,0,0,0,0,0,0,0,0,0,0,0,0,0,0],"id":48,"left_children":[1,3,5,7,9,11,13,-1,-1,-1,-1,-1,-1,-1,-1],"loss_changes":[3.5140215E4,5.87008E3,1.0179389E4,1.0352012E3,3.0090254E3,3.9997734E3,1.159373E3,0E0,0E0,0E0,0E0,0E0,0E0,0E0,0E0],"parents":[2147483647,0,0,1,1,2,2,3,3,4,4,5,5,6,6],"right_children":[2,4,6,8,10,12,14,-1,-1,-1,-1,-1,-1,-1,-1],"split_conditions":[3.4666668E1,1.9333334E1,5.5666668E1,1.8978693E1,2.2828087E1,1.1542478E1,7.3E1,-8.171482E-2,-1.4256787E-1,-2.5317695E-2,-8.958161E-2,1.0445728E-1,1.6644249E-2,1.108654E-1,1.9945213E-1],"split_indices":[0,0,0,3,3,3,0,0,0,0,0,0,0,0,0],"split_type":[0,0,0,0,0,0,0,0,0,0,0,0,0,0,0],"sum_hessian":[1.153E3,5.51E2,6.02E2,1.27E2,4.24E2,4.47E2,1.55E2,5.5E1,7.2E1,3.31E2,9.3E1,5.9E1,3.88E2,1.37E2,1.8E1],"tree_param":{"num_deleted":"0","num_feature":"5","num_nodes":"15","size_leaf_vector":"1"}},{"base_weights":[1.8323971E-3,-3.1834943E0,9.373334E0,-9.688759E0,-1.0066465E0,1.0623362E1,9.571708E-1,-1.5849051E-1,-8.198072E-2,5.8720796E-3,-4.3266542E-2,8.7583505E-2,1.666885E-1,-9.371907E-3,1.7792131E-1],"categories":[],"categories_nodes":[],"categories_segments":[],"categories_sizes":[],"default_left":[0,0,0,0,0,0,0,0,0,0,0,0,0,0,0],"id":49,"left_children":[1,3,5,7,9,11,13,-1,-1,-1,-1,-1,-1,-1,-1],"loss_changes":[3.4478855E4,1.2195934E4,3.0711582E3,1.8512051E3,3.426586E3,2.7265684E3,1.2621288E3,0E0,0E0,0E0,0E0,0E0,0E0,0E0,0E0],"parents":[2147483647,0,0,1,1,2,2,3,3,4,4,5,5,6,6],"right_children":[2,4,6,8,10,12,14,-1,-1,-1,-1,-1,-1,-1,-1],"split_conditions":[4.6666668E1,2.3E1,2.4344624E1,1.3666667E1,2.0316889E1,6.4E1,7.2666664E1,-1.5849051E-1,-8.198072E-2,5.8720796E-3,-4.3266542E-2,8.7583505E-2,1.666885E-1,-9.371907E-3,1.7792131E-1],"split_indices":[0,0,3,0,3,0,0,0,0,0,0,0,0,0,0],"split_type":[0,0,0,0,0,0,0,0,0,0,0,0,0,0,0],"sum_hessian":[1.153E3,8.61E2,2.92E2,2.15E2,6.46E2,2.54E2,3.8E1,4E1,1.75E2,4.37E2,2.09E2,1.96E2,5.8E1,3.5E1,3E0],"tree_param":{"num_deleted":"0","num_feature":"5","num_nodes":"15","size_leaf_vector":"1"}},{"base_weights":[1.9398301E-3,-5.772759E0,5.09023E0,-3.6037617E0,-1.0566403E1,1.2945412E0,9.410075E0,-7.784043E-2,-1.854574E-2,-1.2038964E-1,-7.5508235E-3,1.5594186E-1,5.109242E-3,1.0684927E-1,7.7262796E-3],"categories":[],"categories_nodes":[],"categories_segments":[],"categories_sizes":[],"default_left":[0,0,0,0,0,0,0,0,0,0,0,0,0,0,0],"id":50,"left_children":[1,3,5,7,9,11,13,-1,-1,-1,-1,-1,-1,-1,-1],"loss_changes":[3.393769E4,5.585496E3,1.0054377E4,2.7193242E3,2.4168574E3,3.6658079E3,3.1508887E3,0E0,0E0,0E0,0E0,0E0,0E0,0E0,0E0],"parents":[2147483647,0,0,1,1,2,2,3,3,4,4,5,5,6,6],"right_children":[2,4,6,8,10,12,14,-1,-1,-1,-1,-1,-1,-1,-1],"split_conditions":[3.4333332E1,2.1868332E1,4.7E1,2.2E1,1.7690332E1,1.0086427E1,2.4344624E1,-7.784043E-2,-1.854574E-2,-1.2038964E-1,-7.5508235E-3,1.5594186E-1,5.109242E-3,1.0684927E-1,7.7262796E-3],"split_indices":[0,3,0,0,1,3,3,0,0,0,0,0,0,0,0],"split_type":[0,0,0,0,0,0,0,0,0,0,0,0,0,0,0],"sum_hessian":[1.153E3,5.4E2,6.13E2,3.73E2,1.67E2,3.27E2,2.86E2,1.09E2,2.64E2,1.45E2,2.2E1,1.6E1,3.11E2,2.49E2,3.7E1],"tree_param":{"num_deleted":"0","num_feature":"5","num_nodes":"15","size_leaf_vector":"1"}},{"base_weights":[1.9644834E-3,-5.7154512E0,5.039782E0,-3.5679839E0,-1.0461507E1,2.6933615E0,1.1910726E1,-7.706911E-2,-1.8360969E-2,-1.19194E-1,-7.4786097E-3,1.02277845E-1,1.5562145E-2,1.0777277E-1,1.9510998E-1],"categories":[],"categories_nodes":[],"categories_segments":[],"categories_sizes":[],"default_left":[0,0,0,0,0,0,0,0,0,0,0,0,0,0,0],"id":51,"left_children":[1,3,5,7,9,11,13,-1,-1,-1,-1,-1,-1,-1,-1],"loss_changes":[3.3267742E4,5.4751445E3,9.865443E3,2.6657852E3,2.3689414E3,3.915501E3,1.1305605E3,0E0,0E0,0E0,0E0,0E0,0E0,0E0,0E0],"parents":[2147483647,0,0,1,1,2,2,3,3,4,4,5,5,6,6],"right_children":[2,4,6,8,10,12,14,-1,-1,-1,-1,-1,-1,-1,-1],"split_conditions":[3.4333332E1,2.1868332E1,5.5666668E1,2.2E1,1.7690332E1,1.1542478E1,7.3E1,-7.706911E-2,-1.8360969E-2,-1.19194E-1,-7.4786097E-3,1.02277845E-1,1.5562145E-2,1.0777277E-1,1.9510998E-1],"split_indices":[0,3,0,0,1,3,0,0,0,0,0,0,0,0,0],"split_type":[0,0,0,0,0,0,0,0,0,0,0,0,0,0,0],"sum_hessian":[1.153E3,5.4E2,6.13E2,3.73E2,1.67E2,4.58E2,1.55E2,1.09E2,2.64E2,1.45E2,2.2E1,5.9E1,3.99E2,1.37E2,1.8E1],"tree_param":{"num_deleted":"0","num_feature":"5","num_nodes":"15","size_leaf_vector":"1"}},{"base_weights":[2.1150648E-3,-5.3266897E0,5.3034782E0,-1.1294667E1,-3.6132648E0,2.9028718E0,1.1793567E1,-7.8435384E-2,-1.3786016E-1,-2.6995096E-2,-1.084904E-1,4.9557675E-2,-1.1650967E-2,1.0670285E-1,1.9326156E-1],"categories":[],"categories_nodes":[],"categories_segments":[],"categories_sizes":[],"default_left":[0,0,0,0,0,0,0,0,0,0,0,0,0,0,0],"id":52,"left_children":[1,3,5,7,9,11,13,-1,-1,-1,-1,-1,-1,-1,-1],"loss_changes":[3.2628668E4,5.8476914E3,8.985201E3,9.902461E2,2.9380225E3,3.5470261E3,1.1107344E3,0E0,0E0,0E0,0E0,0E0,0E0,0E0,0E0],"parents":[2147483647,0,0,1,1,2,2,3,3,4,4,5,5,6,6],"right_children":[2,4,6,8,10,12,14,-1,-1,-1,-1,-1,-1,-1,-1],"split_conditions":[3.5333332E1,1.9333334E1,5.5666668E1,1.8978693E1,2.6405453E1,2.0316889E1,7.3E1,-7.8435384E-2,-1.3786016E-1,-2.6995096E-2,-1.084904E-1,4.9557675E-2,-1.1650967E-2,1.0670285E-1,1.9326156E-1],"split_indices":[0,0,0,3,3,3,0,0,0,0,0,0,0,0,0],"split_type":[0,0,0,0,0,0,0,0,0,0,0,0,0,0,0],"sum_hessian":[1.153E3,5.75E2,5.78E2,1.27E2,4.48E2,4.23E2,1.55E2,5.5E1,7.2E1,3.99E2,4.9E1,2.81E2,1.42E2,1.37E2,1.8E1],"tree_param":{"num_deleted":"0","num_feature":"5","num_nodes":"15","size_leaf_vector":"1"}},{"base_weights":[2.079569E-3,-3.0691695E0,9.037966E0,-8.121184E0,-4.6669683E-1,1.0255806E1,8.408614E-1,-6.0032576E-2,-1.2682053E-1,5.8063354E-2,-1.24392975E-2,8.4395E-2,1.6144897E-1,-1.01535795E-2,1.736162E-1],"categories":[],"categories_nodes":[],"categories_segments":[],"categories_sizes":[],"default_left":[0,0,0,0,0,0,0,0,0,0,0,0,0,0,0],"id":53,"left_children":[1,3,5,7,9,11,13,-1,-1,-1,-1,-1,-1,-1,-1],"loss_changes":[3.205352E4,1.1328693E4,2.915213E3,2.7522559E3,2.7858628E3,2.5888652E3,1.2152428E3,0E0,0E0,0E0,0E0,0E0,0E0,0E0,0E0],"parents":[2147483647,0,0,1,1,2,2,3,3,4,4,5,5,6,6],"right_children":[2,4,6,8,10,12,14,-1,-1,-1,-1,-1,-1,-1,-1],"split_conditions":[4.6666668E1,2.6333334E1,2.4344624E1,2.3499481E1,1.1542478E1,6.4E1,7.2666664E1,-6.0032576E-2,-1.2682053E-1,5.8063354E-2,-1.24392975E-2,8.4395E-2,1.6144897E-1,-1.01535795E-2,1.736162E-1],"split_indices":[0,0,3,3,3,0,0,0,0,0,0,0,0,0,0],"split_type":[0,0,0,0,0,0,0,0,0,0,0,0,0,0,0],"sum_hessian":[1.153E3,8.61E2,2.92E2,2.92E2,5.69E2,2.54E2,3.8E1,2.01E2,9.1E1,6.2E1,5.07E2,1.96E2,5.8E1,3.5E1,3E0],"tree_param":{"num_deleted":"0","num_feature":"5","num_nodes":"15","size_leaf_vector":"1"}},{"base_weights":[2.2899855E-3,-5.5586433E0,4.902229E0,-3.463349E0,-1.0189485E1,1.2374481E0,9.073121E0,-7.50347E-2,-1.772871E-2,-1.16197005E-1,-6.63354E-3,1.5258871E-1,4.691736E-3,1.031609E-1,6.5428815E-3],"categories":[],"categories_nodes":[],"categories_segments":[],"categories_sizes":[],"default_left":[0,0,0,0,0,0,0,0,0,0,0,0,0,0,0],"id":54,"left_children":[1,3,5,7,9,11,13,-1,-1,-1,-1,-1,-1,-1,-1],"loss_changes":[3.1471646E4,5.2126562E3,9.372981E3,2.5400908E3,2.2799688E3,3.524583E3,2.9954219E3,0E0,0E0,0E0,0E0,0E0,0E0,0E0,0E0],"parents":[2147483647,0,0,1,1,2,2,3,3,4,4,5,5,6,6],"right_children":[2,4,6,8,10,12,14,-1,-1,-1,-1,-1,-1,-1,-1],"split_conditions":[3.4333332E1,2.1868332E1,4.7E1,2.2E1,1.7690332E1,1.0086427E1,2.4344624E1,-7.50347E-2,-1.772871E-2,-1.16197005E-1,-6.63354E-3,1.5258871E-1,4.691736E-3,1.031609E-1,6.5428815E-3],"split_indices":[0,3,0,0,1,3,3,0,0,0,0,0,0,0,0],"split_type":[0,0,0,0,0,0,0,0,0,0,0,0,0,0,0],"sum_hessian":[1.153E3,5.4E2,6.13E2,3.73E2,1.67E2,3.27E2,2.86E2,1.09E2,2.64E2,1.45E2,2.2E1,1.6E1,3.11E2,2.49E2,3.7E1],"tree_param":{"num_deleted":"0","num_feature":"5","num_nodes":"15","size_leaf_vector":"1"}},{"base_weights":[2.310322E-3,-5.179339E0,5.1572804E0,-1.1007075E1,-3.506222E0,2.819102E0,1.1478629E1,-1.5193054E-1,-8.930572E-2,-2.6146805E-2,-1.056643E-1,4.8359383E-2,-1.1771706E-2,1.0372155E-1,1.8905717E-1],"categories":[],"categories_nodes":[],"categories_segments":[],"categories_sizes":[],"default_left":[0,0,0,0,0,0,0,0,0,0,0,0,0,0,0],"id":55,"left_children":[1,3,5,7,9,11,13,-1,-1,-1,-1,-1,-1,-1,-1],"loss_changes":[3.085149E4,5.5762324E3,8.524083E3,9.745078E2,2.797271E3,3.4234265E3,1.0829688E3,0E0,0E0,0E0,0E0,0E0,0E0,0E0,0E0],"parents":[2147483647,0,0,1,1,2,2,3,3,4,4,5,5,6,6],"right_children":[2,4,6,8,10,12,14,-1,-1,-1,-1,-1,-1,-1,-1],"split_conditions":[3.5333332E1,1.9333334E1,5.5666668E1,1.3666667E1,2.6405453E1,2.0316889E1,7.3E1,-1.5193054E-1,-8.930572E-2,-2.6146805E-2,-1.056643E-1,4.8359383E-2,-1.1771706E-2,1.0372155E-1,1.8905717E-1],"split_indices":[0,0,0,0,3,3,0,0,0,0,0,0,0,0,0],"split_type":[0,0,0,0,0,0,0,0,0,0,0,0,0,0,0],"sum_hessian":[1.153E3,5.75E2,5.78E2,1.27E2,4.48E2,4.23E2,1.55E2,4E1,8.7E1,3.99E2,4.9E1,2.81E2,1.42E2,1.37E2,1.8E1],"tree_param":{"num_deleted":"0","num_feature":"5","num_nodes":"15","size_leaf_vector":"1"}},{"base_weights":[2.2466257E-3,-2.9836786E0,8.787111E0,-9.088208E0,-9.4092435E-1,9.975681E0,7.8781664E-1,-1.504483E-1,-7.648379E-2,5.7355305E-3,-4.095687E-2,8.1918426E-2,1.5761113E-1,-1.0420552E-2,1.7084709E-1],"categories":[],"categories_nodes":[],"categories_segments":[],"categories_sizes":[],"default_left":[0,0,0,0,0,0,0,0,0,0,0,0,0,0,0],"id":56,"left_children":[1,3,5,7,9,11,13,-1,-1,-1,-1,-1,-1,-1,-1],"loss_changes":[3.0297314E4,1.0739632E4,2.7768262E3,1.7351895E3,3.0939487E3,2.500164E3,1.1824353E3,0E0,0E0,0E0,0E0,0E0,0E0,0E0,0E0],"parents":[2147483647,0,0,1,1,2,2,3,3,4,4,5,5,6,6],"right_children":[2,4,6,8,10,12,14,-1,-1,-1,-1,-1,-1,-1,-1],"split_conditions":[4.6666668E1,2.3E1,2.4344624E1,1.3666667E1,2.0316889E1,6.4E1,7.2666664E1,-1.504483E-1,-7.648379E-2,5.7355305E-3,-4.095687E-2,8.1918426E-2,1.5761113E-1,-1.0420552E-2,1.7084709E-1],"split_indices":[0,0,3,0,3,0,0,0,0,0,0,0,0,0,0],"split_type":[0,0,0,0,0,0,0,0,0,0,0,0,0,0,0],"sum_hessian":[1.153E3,8.61E2,2.92E2,2.15E2,6.46E2,2.54E2,3.8E1,4E1,1.75E2,4.37E2,2.09E2,1.96E2,5.8E1,3.5E1,3E0],"tree_param":{"num_deleted":"0","num_feature":"5","num_nodes":"15","size_leaf_vector":"1"}},{"base_weights":[2.3426772E-3,-5.4100103E0,4.7713666E0,-3.3601062E0,-9.940689E0,1.2128981E0,8.821214E0,-7.653271E-2,-1.8704865E-2,-1.1347134E-1,-5.762716E-3,1.507311E-1,4.534863E-3,1.0035176E-1,5.9985123E-3],"categories":[],"categories_nodes":[],"categories_segments":[],"categories_sizes":[],"default_left":[0,0,0,0,0,0,0,0,0,0,0,0,0,0,0],"id":57,"left_children":[1,3,5,7,9,11,13,-1,-1,-1,-1,-1,-1,-1,-1],"loss_changes":[2.981238E4,4.9897812E3,8.836807E3,2.3765308E3,2.20492E3,3.444012E3,2.8572988E3,0E0,0E0,0E0,0E0,0E0,0E0,0E0,0E0],"parents":[2147483647,0,0,1,1,2,2,3,3,4,4,5,5,6,6],"right_children":[2,4,6,8,10,12,14,-1,-1,-1,-1,-1,-1,-1,-1],"split_conditions":[3.4333332E1,2.1868332E1,4.7E1,2.1333334E1,1.7690332E1,1.0086427E1,2.4344624E1,-7.653271E-2,-1.8704865E-2,-1.1347134E-1,-5.762716E-3,1.507311E-1,4.534863E-3,1.0035176E-1,5.9985123E-3],"split_indices":[0,3,0,0,1,3,3,0,0,0,0,0,0,0,0],"split_type":[0,0,0,0,0,0,0,0,0,0,0,0,0,0,0],"sum_hessian":[1.153E3,5.4E2,6.13E2,3.73E2,1.67E2,3.27E2,2.86E2,9.5E1,2.78E2,1.45E2,2.2E1,1.6E1,3.11E2,2.49E2,3.7E1],"tree_param":{"num_deleted":"0","num_feature":"5","num_nodes":"15","size_leaf_vector":"1"}},{"base_weights":[2.358536E-3,-5.3563128E0,4.724083E0,-3.3267636E0,-9.841997E0,2.5220752E0,1.1172143E1,-7.197641E-2,-1.707053E-2,-1.12344384E-1,-5.7075857E-3,9.786882E-2,1.4257989E-2,1.0082237E-1,1.8495032E-1],"categories":[],"categories_nodes":[],"categories_segments":[],"categories_sizes":[],"default_left":[0,0,0,0,0,0,0,0,0,0,0,0,0,0,0],"id":58,"left_children":[1,3,5,7,9,11,13,-1,-1,-1,-1,-1,-1,-1,-1],"loss_changes":[2.9223941E4,4.891161E3,8.688442E3,2.3316904E3,2.1612295E3,3.6405088E3,1.055748E3,0E0,0E0,0E0,0E0,0E0,0E0,0E0,0E0],"parents":[2147483647,0,0,1,1,2,2,3,3,4,4,5,5,6,6],"right_children":[2,4,6,8,10,12,14,-1,-1,-1,-1,-1,-1,-1,-1],"split_conditions":[3.4333332E1,2.1868332E1,5.5666668E1,2.2E1,1.7690332E1,1.1542478E1,7.3E1,-7.197641E-2,-1.707053E-2,-1.12344384E-1,-5.7075857E-3,9.786882E-2,1.4257989E-2,1.0082237E-1,1.8495032E-1],"split_indices":[0,3,0,0,1,3,0,0,0,0,0,0,0,0,0],"split_type":[0,0,0,0,0,0,0,0,0,0,0,0,0,0,0],"sum_hessian":[1.153E3,5.4E2,6.13E2,3.73E2,1.67E2,4.58E2,1.55E2,1.09E2,2.64E2,1.45E2,2.2E1,5.9E1,3.99E2,1.37E2,1.8E1],"tree_param":{"num_deleted":"0","num_feature":"5","num_nodes":"15","size_leaf_vector":"1"}},{"base_weights":[2.4988253E-3,-4.990791E0,4.970085E0,-1.0618122E1,-3.3752248E0,2.7166667E0,1.106226E1,-1.7856856E-1,-9.423688E-2,-2.5108833E-2,-1.02204524E-1,9.694595E-2,1.6062127E-2,9.982145E-2,1.8319814E-1],"categories":[],"categories_nodes":[],"categories_segments":[],"categories_sizes":[],"default_left":[0,0,0,0,0,0,0,0,0,0,0,0,0,0,0],"id":59,"left_children":[1,3,5,7,9,11,13,-1,-1,-1,-1,-1,-1,-1,-1],"loss_changes":[2.8649305E4,5.199365E3,7.91721E3,9.3570605E2,2.629624E3,3.2687336E3,1.0371816E3,0E0,0E0,0E0,0E0,0E0,0E0,0E0,0E0],"parents":[2147483647,0,0,1,1,2,2,3,3,4,4,5,5,6,6],"right_children":[2,4,6,8,10,12,14,-1,-1,-1,-1,-1,-1,-1,-1],"split_conditions":[3.5333332E1,1.9333334E1,5.5666668E1,9.333333E0,2.6405453E1,1.1570515E1,7.3E1,-1.7856856E-1,-9.423688E-2,-2.5108833E-2,-1.02204524E-1,9.694595E-2,1.6062127E-2,9.982145E-2,1.8319814E-1],"split_indices":[0,0,0,0,3,3,0,0,0,0,0,0,0,0,0],"split_type":[0,0,0,0,0,0,0,0,0,0,0,0,0,0,0],"sum_hessian":[1.153E3,5.75E2,5.78E2,1.27E2,4.48E2,4.23E2,1.55E2,1.6E1,1.11E2,3.99E2,4.9E1,5.7E1,3.66E2,1.37E2,1.8E1],"tree_param":{"num_deleted":"0","num_feature":"5","num_nodes":"15","size_leaf_vector":"1"}},{"base_weights":[2.4684945E-3,-2.8762045E0,8.471799E0,-8.758249E0,-9.078925E-1,9.632025E0,6.6591555E-1,-1.458495E-1,-7.350562E-2,5.651177E-3,-3.976324E-2,7.894784E-2,1.526769E-1,-1.1286986E-2,1.6675964E-1],"categories":[],"categories_nodes":[],"categories_segments":[],"categories_sizes":[],"default_left":[0,0,0,0,0,0,0,0,0,0,0,0,0,0,0],"id":60,"left_children":[1,3,5,7,9,11,13,-1,-1,-1,-1,-1,-1,-1,-1],"loss_changes":[2.8159941E4,9.97106E3,2.6461387E3,1.6622676E3,2.926919E3,2.3737266E3,1.1409193E3,0E0,0E0,0E0,0E0,0E0,0E0,0E0,0E0],"parents":[2147483647,0,0,1,1,2,2,3,3,4,4,5,5,6,6],"right_children":[2,4,6,8,10,12,14,-1,-1,-1,-1,-1,-1,-1,-1],"split_conditions":[4.6666668E1,2.3E1,2.4344624E1,1.3666667E1,2.0316889E1,6.4E1,7.2666664E1,-1.458495E-1,-7.350562E-2,5.651177E-3,-3.976324E-2,7.894784E-2,1.526769E-1,-1.1286986E-2,1.6675964E-1],"split_indices":[0,0,3,0,3,0,0,0,0,0,0,0,0,0,0],"split_type":[0,0,0,0,0,0,0,0,0,0,0,0,0,0,0],"sum_hessian":[1.153E3,8.61E2,2.92E2,2.15E2,6.46E2,2.54E2,3.8E1,4E1,1.75E2,4.37E2,2.09E2,1.96E2,5.8E1,3.5E1,3E0],"tree_param":{"num_deleted":"0","num_feature":"5","num_nodes":"15","size_leaf_vector":"1"}},{"base_weights":[2.5593778E-3,-5.2131534E0,4.598322E0,-3.2273805E0,-9.602237E0,1.1660507E0,8.504547E0,-7.340235E-2,-1.8002786E-2,-1.0971693E-1,-4.8732376E-3,1.4756931E-1,4.2146402E-3,9.690394E-2,4.7648293E-3],"categories":[],"categories_nodes":[],"categories_segments":[],"categories_sizes":[],"default_left":[0,0,0,0,0,0,0,0,0,0,0,0,0,0,0],"id":61,"left_children":[1,3,5,7,9,11,13,-1,-1,-1,-1,-1,-1,-1,-1],"loss_changes":[2.7685494E4,4.6829316E3,8.22115E3,2.1810503E3,2.0905664E3,3.311488E3,2.726623E3,0E0,0E0,0E0,0E0,0E0,0E0,0E0,0E0],"parents":[2147483647,0,0,1,1,2,2,3,3,4,4,5,5,6,6],"right_children":[2,4,6,8,10,12,14,-1,-1,-1,-1,-1,-1,-1,-1],"split_conditions":[3.4333332E1,2.1868332E1,4.7E1,2.1333334E1,1.7690332E1,1.0086427E1,2.4344624E1,-7.340235E-2,-1.8002786E-2,-1.0971693E-1,-4.8732376E-3,1.4756931E-1,4.2146402E-3,9.690394E-2,4.7648293E-3],"split_indices":[0,3,0,0,1,3,3,0,0,0,0,0,0,0,0],"split_type":[0,0,0,0,0,0,0,0,0,0,0,0,0,0,0],"sum_hessian":[1.153E3,5.4E2,6.13E2,3.73E2,1.67E2,3.27E2,2.86E2,9.5E1,2.78E2,1.45E2,2.2E1,1.6E1,3.11E2,2.49E2,3.7E1],"tree_param":{"num_deleted":"0","num_feature":"5","num_nodes":"15","size_leaf_vector":"1"}},{"base_weights":[2.5734187E-3,-5.161409E0,4.552756E0,-3.1953547E0,-9.506902E0,2.430724E0,1.0766601E1,-6.903147E-2,-1.6438356E-2,-1.0862728E-1,-4.826637E-3,9.497426E-2,1.3643918E-2,9.7026736E-2,1.7922139E-1],"categories":[],"categories_nodes":[],"categories_segments":[],"categories_sizes":[],"default_left":[0,0,0,0,0,0,0,0,0,0,0,0,0,0,0],"id":62,"left_children":[1,3,5,7,9,11,13,-1,-1,-1,-1,-1,-1,-1,-1],"loss_changes":[2.7139047E4,4.590372E3,8.068699E3,2.1393118E3,2.0491514E3,3.4447273E3,1.01096875E3,0E0,0E0,0E0,0E0,0E0,0E0,0E0,0E0],"parents":[2147483647,0,0,1,1,2,2,3,3,4,4,5,5,6,6],"right_children":[2,4,6,8,10,12,14,-1,-1,-1,-1,-1,-1,-1,-1],"split_conditions":[3.4333332E1,2.1868332E1,5.5666668E1,2.2E1,1.7690332E1,1.1542478E1,7.3E1,-6.903147E-2,-1.6438356E-2,-1.0862728E-1,-4.826637E-3,9.497426E-2,1.3643918E-2,9.7026736E-2,1.7922139E-1],"split_indices":[0,3,0,0,1,3,0,0,0,0,0,0,0,0,0],"split_type":[0,0,0,0,0,0,0,0,0,0,0,0,0,0,0],"sum_hessian":[1.153E3,5.4E2,6.13E2,3.73E2,1.67E2,4.58E2,1.55E2,1.09E2,2.64E2,1.45E2,2.2E1,5.9E1,3.99E2,1.37E2,1.8E1],"tree_param":{"num_deleted":"0","num_feature":"5","num_nodes":"15","size_leaf_vector":"1"}},{"base_weights":[2.7072206E-3,-2.7959995E0,8.236777E0,-7.407629E0,-4.2037955E-1,9.371333E0,6.047637E-1,-5.42299E-2,-1.16836004E-1,5.4803256E-2,-1.1515291E-2,7.665646E-2,1.4906059E-1,-1.1657176E-2,1.6412905E-1],"categories":[],"categories_nodes":[],"categories_segments":[],"categories_sizes":[],"default_left":[0,0,0,0,0,0,0,0,0,0,0,0,0,0,0],"id":63,"left_children":[1,3,5,7,9,11,13,-1,-1,-1,-1,-1,-1,-1,-1],"loss_changes":[2.6617215E4,9.439725E3,2.5304043E3,2.4214033E3,2.465028E3,2.2908086E3,1.1121902E3,0E0,0E0,0E0,0E0,0E0,0E0,0E0,0E0],"parents":[2147483647,0,0,1,1,2,2,3,3,4,4,5,5,6,6],"right_children":[2,4,6,8,10,12,14,-1,-1,-1,-1,-1,-1,-1,-1],"split_conditions":[4.6666668E1,2.6333334E1,2.4344624E1,2.3499481E1,1.1542478E1,6.4E1,7.2666664E1,-5.42299E-2,-1.16836004E-1,5.4803256E-2,-1.1515291E-2,7.665646E-2,1.4906059E-1,-1.1657176E-2,1.6412905E-1],"split_indices":[0,0,3,3,3,0,0,0,0,0,0,0,0,0,0],"split_type":[0,0,0,0,0,0,0,0,0,0,0,0,0,0,0],"sum_hessian":[1.153E3,8.61E2,2.92E2,2.92E2,5.69E2,2.54E2,3.8E1,2.01E2,9.1E1,6.2E1,5.07E2,1.96E2,5.8E1,3.5E1,3E0],"tree_param":{"num_deleted":"0","num_feature":"5","num_nodes":"15","size_leaf_vector":"1"}},{"base_weights":[2.8970332E-3,-5.0680304E0,4.4710875E0,-3.1363027E0,-9.337662E0,1.1342841E0,8.268649E0,-1.06354356E-1,-2.379098E-2,-1.06746405E-1,-4.404217E-3,1.4477079E-1,4.033169E-3,9.429016E-2,4.1443366E-3],"categories":[],"categories_nodes":[],"categories_segments":[],"categories_sizes":[],"default_left":[0,0,0,0,0,0,0,0,0,0,0,0,0,0,0],"id":64,"left_children":[1,3,5,7,9,11,13,-1,-1,-1,-1,-1,-1,-1,-1],"loss_changes":[2.616978E4,4.431509E3,7.770115E3,2.0971096E3,1.9926172E3,3.191705E3,2.6107598E3,0E0,0E0,0E0,0E0,0E0,0E0,0E0,0E0],"parents":[2147483647,0,0,1,1,2,2,3,3,4,4,5,5,6,6],"right_children":[2,4,6,8,10,12,14,-1,-1,-1,-1,-1,-1,-1,-1],"split_conditions":[3.4333332E1,2.1868332E1,4.7E1,1.5666667E1,1.7690332E1,1.0086427E1,2.4344624E1,-1.06354356E-1,-2.379098E-2,-1.06746405E-1,-4.404217E-3,1.4477079E-1,4.033169E-3,9.429016E-2,4.1443366E-3],"split_indices":[0,3,0,0,1,3,3,0,0,0,0,0,0,0,0],"split_type":[0,0,0,0,0,0,0,0,0,0,0,0,0,0,0],"sum_hessian":[1.153E3,5.4E2,6.13E2,3.73E2,1.67E2,3.27E2,2.86E2,3.3E1,3.4E2,1.45E2,2.2E1,1.6E1,3.11E2,2.49E2,3.7E1],"tree_param":{"num_deleted":"0","num_feature":"5","num_nodes":"15","size_leaf_vector":"1"}},{"base_weights":[2.8726805E-3,-4.722904E0,4.7043314E0,-1.008528E1,-3.1834679E0,2.5684085E0,1.0478864E1,-1.71883E-1,-8.916203E-2,-2.3577115E-2,-9.723848E-2,4.488786E-2,-1.2358919E-2,9.430892E-2,1.7533663E-1],"categories":[],"categories_nodes":[],"categories_segments":[],"categories_sizes":[],"default_left":[0,0,0,0,0,0,0,0,0,0,0,0,0,0,0],"id":65,"left_children":[1,3,5,7,9,11,13,-1,-1,-1,-1,-1,-1,-1,-1],"loss_changes":[2.5661842E4,4.721468E3,7.1131396E3,9.070449E2,2.4008076E3,3.1034873E3,9.8528906E2,0E0,0E0,0E0,0E0,0E0,0E0,0E0,0E0],"parents":[2147483647,0,0,1,1,2,2,3,3,4,4,5,5,6,6],"right_children":[2,4,6,8,10,12,14,-1,-1,-1,-1,-1,-1,-1,-1],"split_conditions":[3.5333332E1,1.9333334E1,5.5666668E1,9.333333E0,2.6405453E1,2.0316889E1,7.3E1,-1.71883E-1,-8.916203E-2,-2.3577115E-2,-9.723848E-2,4.488786E-2,-1.2358919E-2,9.430892E-2,1.7533663E-1],"split_indices":[0,0,0,0,3,3,0,0,0,0,0,0,0,0,0],"split_type":[0,0,0,0,0,0,0,0,0,0,0,0,0,0,0],"sum_hessian":[1.153E3,5.75E2,5.78E2,1.27E2,4.48E2,4.23E2,1.55E2,1.6E1,1.11E2,3.99E2,4.9E1,2.81E2,1.42E2,1.37E2,1.8E1],"tree_param":{"num_deleted":"0","num_feature":"5","num_nodes":"15","size_leaf_vector":"1"}},{"base_weights":[2.7728323E-3,-4.9701605E0,4.38462E0,-3.0681717E0,-9.1741705E0,1.1040813E0,8.118181E0,-1.0431072E-1,-2.32475E-2,-1.2044653E-1,-4.981998E-2,1.430663E-1,3.8085233E-3,9.262861E-2,3.711238E-3],"categories":[],"categories_nodes":[],"categories_segments":[],"categories_sizes":[],"default_left":[0,0,0,0,0,0,0,0,0,0,0,0,0,0,0],"id":66,"left_children":[1,3,5,7,9,11,13,-1,-1,-1,-1,-1,-1,-1,-1],"loss_changes":[2.5168123E4,4.296452E3,7.5104434E3,2.0216536E3,1.9599277E3,3.1249792E3,2.5406875E3,0E0,0E0,0E0,0E0,0E0,0E0,0E0,0E0],"parents":[2147483647,0,0,1,1,2,2,3,3,4,4,5,5,6,6],"right_children":[2,4,6,8,10,12,14,-1,-1,-1,-1,-1,-1,-1,-1],"split_conditions":[3.4333332E1,2.1868332E1,4.7E1,1.5666667E1,1.08695E1,1.0086427E1,2.4344624E1,-1.0431072E-1,-2.32475E-2,-1.2044653E-1,-4.981998E-2,1.430663E-1,3.8085233E-3,9.262861E-2,3.711238E-3],"split_indices":[0,3,0,0,1,3,3,0,0,0,0,0,0,0,0],"split_type":[0,0,0,0,0,0,0,0,0,0,0,0,0,0,0],"sum_hessian":[1.153E3,5.4E2,6.13E2,3.73E2,1.67E2,3.27E2,2.86E2,3.3E1,3.4E2,9.8E1,6.9E1,1.6E1,3.11E2,2.49E2,3.7E1],"tree_param":{"num_deleted":"0","num_feature":"5","num_nodes":"15","size_leaf_vector":"1"}},{"base_weights":[2.6971367E-3,-4.9210153E0,4.3411756E0,-3.2206128E0,-9.541973E0,2.3086936E0,1.0292893E1,-1.05546586E-1,-2.3690257E-2,-1.1910064E-1,-2.3051102E-2,9.1578685E-2,1.2752957E-2,9.253684E-2,1.7293842E-1],"categories":[],"categories_nodes":[],"categories_segments":[],"categories_sizes":[],"default_left":[0,0,0,0,0,0,0,0,0,0,0,0,0,0,0],"id":67,"left_children":[1,3,5,7,9,11,13,-1,-1,-1,-1,-1,-1,-1,-1],"loss_changes":[2.4672383E4,4.2188936E3,7.402385E3,2.4531978E3,2.4560693E3,3.236044E3,9.7228516E2,0E0,0E0,0E0,0E0,0E0,0E0,0E0,0E0],"parents":[2147483647,0,0,1,1,2,2,3,3,4,4,5,5,6,6],"right_children":[2,4,6,8,10,12,14,-1,-1,-1,-1,-1,-1,-1,-1],"split_conditions":[3.4333332E1,2.2682856E1,5.5666668E1,1.5666667E1,1.3461169E1,1.1542478E1,7.3E1,-1.05546586E-1,-2.3690257E-2,-1.1910064E-1,-2.3051102E-2,9.1578685E-2,1.2752957E-2,9.253684E-2,1.7293842E-1],"split_indices":[0,3,0,0,1,3,0,0,0,0,0,0,0,0,0],"split_type":[0,0,0,0,0,0,0,0,0,0,0,0,0,0,0],"sum_hessian":[1.153E3,5.4E2,6.13E2,3.96E2,1.44E2,4.58E2,1.55E2,4E1,3.56E2,1.08E2,3.6E1,5.9E1,3.99E2,1.37E2,1.8E1],"tree_param":{"num_deleted":"0","num_feature":"5","num_nodes":"15","size_leaf_vector":"1"}},{"base_weights":[2.7545092E-3,-2.6689978E0,7.8633265E0,-8.163601E0,-8.303526E-1,8.957389E0,5.056533E-1,-1.3746963E-1,-6.815979E-2,5.6571723E-3,-3.7386775E-2,7.296051E-2,1.4351054E-1,-1.2297325E-2,1.6022712E-1],"categories":[],"categories_nodes":[],"categories_segments":[],"categories_sizes":[],"default_left":[0,0,0,0,0,0,0,0,0,0,0,0,0,0,0],"id":68,"left_children":[1,3,5,7,9,11,13,-1,-1,-1,-1,-1,-1,-1,-1],"loss_changes":[2.4257242E4,8.700785E3,2.3531035E3,1.5294863E3,2.6293977E3,2.1781074E3,1.0713783E3,0E0,0E0,0E0,0E0,0E0,0E0,0E0,0E0],"parents":[2147483647,0,0,1,1,2,2,3,3,4,4,5,5,6,6],"right_children":[2,4,6,8,10,12,14,-1,-1,-1,-1,-1,-1,-1,-1],"split_conditions":[4.6666668E1,2.3E1,2.4344624E1,1.3666667E1,2.0316889E1,6.4E1,7.2666664E1,-1.3746963E-1,-6.815979E-2,5.6571723E-3,-3.7386775E-2,7.296051E-2,1.4351054E-1,-1.2297325E-2,1.6022712E-1],"split_indices":[0,0,3,0,3,0,0,0,0,0,0,0,0,0,0],"split_type":[0,0,0,0,0,0,0,0,0,0,0,0,0,0,0],"sum_hessian":[1.153E3,8.61E2,2.92E2,2.15E2,6.46E2,2.54E2,3.8E1,4E1,1.75E2,4.37E2,2.09E2,1.96E2,5.8E1,3.5E1,3E0],"tree_param":{"num_deleted":"0","num_feature":"5","num_nodes":"15","size_leaf_vector":"1"}},{"base_weights":[2.8364921E-3,-4.551314E0,4.533558E0,-9.734857E0,-3.063241E0,2.4751964E0,1.0098377E1,-1.6691272E-1,-8.591161E-2,-2.2630258E-2,-9.401697E-2,4.349882E-2,-1.2383456E-2,9.075435E-2,1.699141E-1],"categories":[],"categories_nodes":[],"categories_segments":[],"categories_sizes":[],"default_left":[0,0,0,0,0,0,0,0,0,0,0,0,0,0,0],"id":69,"left_children":[1,3,5,7,9,11,13,-1,-1,-1,-1,-1,-1,-1,-1],"loss_changes":[2.3831791E4,4.411871E3,6.6058525E3,8.724453E2,2.2549424E3,2.9574683E3,9.431719E2,0E0,0E0,0E0,0E0,0E0,0E0,0E0,0E0],"parents":[2147483647,0,0,1,1,2,2,3,3,4,4,5,5,6,6],"right_children":[2,4,6,8,10,12,14,-1,-1,-1,-1,-1,-1,-1,-1],"split_conditions":[3.5333332E1,1.9333334E1,5.5666668E1,9.333333E0,2.6405453E1,2.0316889E1,7.3E1,-1.6691272E-1,-8.591161E-2,-2.2630258E-2,-9.401697E-2,4.349882E-2,-1.2383456E-2,9.075435E-2,1.699141E-1],"split_indices":[0,0,0,0,3,3,0,0,0,0,0,0,0,0,0],"split_type":[0,0,0,0,0,0,0,0,0,0,0,0,0,0,0],"sum_hessian":[1.153E3,5.75E2,5.78E2,1.27E2,4.48E2,4.23E2,1.55E2,1.6E1,1.11E2,3.99E2,4.9E1,2.81E2,1.42E2,1.37E2,1.8E1],"tree_param":{"num_deleted":"0","num_feature":"5","num_nodes":"15","size_leaf_vector":"1"}},{"base_weights":[2.737406E-3,-2.6208134E0,7.721502E0,-7.5423155E0,-6.4300203E-1,8.800184E0,4.680281E-1,-5.1560897E-2,-1.0615357E-1,4.879846E-2,-1.3374062E-2,7.1675606E-2,1.4100635E-1,-1.2429812E-2,1.5775105E-1],"categories":[],"categories_nodes":[],"categories_segments":[],"categories_sizes":[],"default_left":[0,0,0,0,0,0,0,0,0,0,0,0,0,0,0],"id":70,"left_children":[1,3,5,7,9,11,13,-1,-1,-1,-1,-1,-1,-1,-1],"loss_changes":[2.3389906E4,8.38487E3,2.2874434E3,1.7549316E3,2.3685872E3,2.1034844E3,1.0424929E3,0E0,0E0,0E0,0E0,0E0,0E0,0E0,0E0],"parents":[2147483647,0,0,1,1,2,2,3,3,4,4,5,5,6,6],"right_children":[2,4,6,8,10,12,14,-1,-1,-1,-1,-1,-1,-1,-1],"split_conditions":[4.6666668E1,2.4E1,2.4344624E1,2.0929596E1,1.1542478E1,6.4E1,7.2666664E1,-5.1560897E-2,-1.0615357E-1,4.879846E-2,-1.3374062E-2,7.1675606E-2,1.4100635E-1,-1.2429812E-2,1.5775105E-1],"split_indices":[0,0,3,3,3,0,0,0,0,0,0,0,0,0,0],"split_type":[0,0,0,0,0,0,0,0,0,0,0,0,0,0,0],"sum_hessian":[1.153E3,8.61E2,2.92E2,2.46E2,6.15E2,2.54E2,3.8E1,1.4E2,1.06E2,6.8E1,5.47E2,1.96E2,5.8E1,3.5E1,3E0],"tree_param":{"num_deleted":"0","num_feature":"5","num_nodes":"15","size_leaf_vector":"1"}},{"base_weights":[2.9137365E-3,-4.7515926E0,4.192303E0,-3.097508E0,-9.246903E0,2.240555E0,9.907431E0,-1.0185403E-1,-2.2745354E-2,-1.15703285E-1,-2.1495964E-2,8.944339E-2,1.2291361E-2,8.900502E-2,1.6694209E-1],"categories":[],"categories_nodes":[],"categories_segments":[],"categories_sizes":[],"default_left":[0,0,0,0,0,0,0,0,0,0,0,0,0,0,0],"id":71,"left_children":[1,3,5,7,9,11,13,-1,-1,-1,-1,-1,-1,-1,-1],"loss_changes":[2.3005787E4,3.992795E3,6.8254424E3,2.291345E3,2.3648174E3,3.1001624E3,9.149287E2,0E0,0E0,0E0,0E0,0E0,0E0,0E0,0E0],"parents":[2147483647,0,0,1,1,2,2,3,3,4,4,5,5,6,6],"right_children":[2,4,6,8,10,12,14,-1,-1,-1,-1,-1,-1,-1,-1],"split_conditions":[3.4333332E1,2.2682856E1,5.5666668E1,1.5666667E1,1.3461169E1,1.1542478E1,7.3E1,-1.0185403E-1,-2.2745354E-2,-1.15703285E-1,-2.1495964E-2,8.944339E-2,1.2291361E-2,8.900502E-2,1.6694209E-1],"split_indices":[0,3,0,0,1,3,0,0,0,0,0,0,0,0,0],"split_type":[0,0,0,0,0,0,0,0,0,0,0,0,0,0,0],"sum_hessian":[1.153E3,5.4E2,6.13E2,3.96E2,1.44E2,4.58E2,1.55E2,4E1,3.56E2,1.08E2,3.6E1,5.9E1,3.99E2,1.37E2,1.8E1],"tree_param":{"num_deleted":"0","num_feature":"5","num_nodes":"15","size_leaf_vector":"1"}},{"base_weights":[2.9674612E-3,-3.4523673E0,5.659525E0,-7.8720083E0,-1.5436128E0,3.7038164E0,1.0810453E1,-3.86223E-3,-8.805198E-2,-8.168338E-3,-7.0914246E-2,6.844093E-2,5.7892352E-3,9.818114E-2,2.3463443E-1],"categories":[],"categories_nodes":[],"categories_segments":[],"categories_sizes":[],"default_left":[0,0,0,0,0,0,0,0,0,0,0,0,0,0,0],"id":72,"left_children":[1,3,5,7,9,11,13,-1,-1,-1,-1,-1,-1,-1,-1],"loss_changes":[2.2575037E4,6.0355264E3,4.370796E3,1.504584E3,2.0174974E3,3.1256514E3,1.2730332E3,0E0,0E0,0E0,0E0,0E0,0E0,0E0,0E0],"parents":[2147483647,0,0,1,1,2,2,3,3,4,4,5,5,6,6],"right_children":[2,4,6,8,10,12,14,-1,-1,-1,-1,-1,-1,-1,-1],"split_conditions":[4.0333332E1,2.3E1,5.8E1,1.1726277E1,2.5661207E1,1.7309975E1,2.4344498E1,-3.86223E-3,-8.805198E-2,-8.168338E-3,-7.0914246E-2,6.844093E-2,5.7892352E-3,9.818114E-2,2.3463443E-1],"split_indices":[0,0,0,3,3,3,1,0,0,0,0,0,0,0,0],"split_type":[0,0,0,0,0,0,0,0,0,0,0,0,0,0,0],"sum_hessian":[1.153E3,7.16E2,4.37E2,2.15E2,5.01E2,3.18E2,1.19E2,2.4E1,1.91E2,4.44E2,5.7E1,1.58E2,1.6E2,1.12E2,7E0],"tree_param":{"num_deleted":"0","num_feature":"5","num_nodes":"15","size_leaf_vector":"1"}},{"base_weights":[3.1409953E-3,-4.664109E0,4.115648E0,-3.0360222E0,-9.088843E0,1.0358278E0,7.6207533E0,-1.0014501E-1,-2.2257878E-2,-1.1382529E-1,-2.0834183E-2,1.3897844E-1,3.3137235E-3,8.7198175E-2,1.868861E-3],"categories":[],"categories_nodes":[],"categories_segments":[],"categories_sizes":[],"default_left":[0,0,0,0,0,0,0,0,0,0,0,0,0,0,0],"id":73,"left_children":[1,3,5,7,9,11,13,-1,-1,-1,-1,-1,-1,-1,-1],"loss_changes":[2.2169129E4,3.8684766E3,6.6194297E3,2.2212056E3,2.304835E3,2.9658867E3,2.3423574E3,0E0,0E0,0E0,0E0,0E0,0E0,0E0,0E0],"parents":[2147483647,0,0,1,1,2,2,3,3,4,4,5,5,6,6],"right_children":[2,4,6,8,10,12,14,-1,-1,-1,-1,-1,-1,-1,-1],"split_conditions":[3.4333332E1,2.2682856E1,4.7E1,1.5666667E1,1.3461169E1,1.0086427E1,2.4344624E1,-1.0014501E-1,-2.2257878E-2,-1.1382529E-1,-2.0834183E-2,1.3897844E-1,3.3137235E-3,8.7198175E-2,1.868861E-3],"split_indices":[0,3,0,0,1,3,3,0,0,0,0,0,0,0,0],"split_type":[0,0,0,0,0,0,0,0,0,0,0,0,0,0,0],"sum_hessian":[1.153E3,5.4E2,6.13E2,3.96E2,1.44E2,3.27E2,2.86E2,4E1,3.56E2,1.08E2,3.6E1,1.6E1,3.11E2,2.49E2,3.7E1],"tree_param":{"num_deleted":"0","num_feature":"5","num_nodes":"15","size_leaf_vector":"1"}},{"base_weights":[3.0867911E-3,-4.34602E0,4.329827E0,-9.323538E0,-2.9171376E0,2.3642604E0,9.64374E0,-1.6167715E-1,-8.200551E-2,-2.147859E-2,-9.011021E-2,4.6706084E-2,-5.2760397E-3,8.593358E-2,1.5982218E-1],"categories":[],"categories_nodes":[],"categories_segments":[],"categories_sizes":[],"default_left":[0,0,0,0,0,0,0,0,0,0,0,0,0,0,0],"id":74,"left_children":[1,3,5,7,9,11,13,-1,-1,-1,-1,-1,-1,-1,-1],"loss_changes":[2.173416E4,4.0682559E3,6.0235654E3,8.4877734E2,2.084394E3,2.8308088E3,8.9882227E2,0E0,0E0,0E0,0E0,0E0,0E0,0E0,0E0],"parents":[2147483647,0,0,1,1,2,2,3,3,4,4,5,5,6,6],"right_children":[2,4,6,8,10,12,14,-1,-1,-1,-1,-1,-1,-1,-1],"split_conditions":[3.5333332E1,1.9333334E1,5.5666668E1,9.333333E0,2.6405453E1,2.5659912E2,7.2666664E1,-1.6167715E-1,-8.200551E-2,-2.147859E-2,-9.011021E-2,4.6706084E-2,-5.2760397E-3,8.593358E-2,1.5982218E-1],"split_indices":[0,0,0,0,3,4,0,0,0,0,0,0,0,0,0],"split_type":[0,0,0,0,0,0,0,0,0,0,0,0,0,0,0],"sum_hessian":[1.153E3,5.75E2,5.78E2,1.27E2,4.48E2,4.23E2,1.55E2,1.6E1,1.11E2,3.99E2,4.9E1,2.35E2,1.88E2,1.35E2,2E1],"tree_param":{"num_deleted":"0","num_feature":"5","num_nodes":"15","size_leaf_vector":"1"}},{"base_weights":[2.9936451E-3,-2.5045853E0,7.380571E0,-7.662551E0,-7.785804E-1,8.429454E0,3.3068043E-1,-2.8405848E-3,-8.5828625E-2,1.4525639E-2,-2.4531197E-2,6.8496674E-2,1.3559766E-1,-1.3430608E-2,1.5336682E-1],"categories":[],"categories_nodes":[],"categories_segments":[],"categories_sizes":[],"default_left":[0,0,0,0,0,0,0,0,0,0,0,0,0,0,0],"id":75,"left_children":[1,3,5,7,9,11,13,-1,-1,-1,-1,-1,-1,-1,-1],"loss_changes":[2.1367809E4,7.6672954E3,2.1629258E3,1.4634258E3,2.420945E3,1.9718047E3,1.00152783E3,0E0,0E0,0E0,0E0,0E0,0E0,0E0,0E0],"parents":[2147483647,0,0,1,1,2,2,3,3,4,4,5,5,6,6],"right_children":[2,4,6,8,10,12,14,-1,-1,-1,-1,-1,-1,-1,-1],"split_conditions":[4.6666668E1,2.3E1,2.4344624E1,1.1726277E1,1.662249E1,6.4E1,7.2666664E1,-2.8405848E-3,-8.5828625E-2,1.4525639E-2,-2.4531197E-2,6.8496674E-2,1.3559766E-1,-1.3430608E-2,1.5336682E-1],"split_indices":[0,0,3,3,3,0,0,0,0,0,0,0,0,0,0],"split_type":[0,0,0,0,0,0,0,0,0,0,0,0,0,0,0],"sum_hessian":[1.153E3,8.61E2,2.92E2,2.15E2,6.46E2,2.54E2,3.8E1,2.4E1,1.91E2,2.77E2,3.69E2,1.96E2,5.8E1,3.5E1,3E0],"tree_param":{"num_deleted":"0","num_feature":"5","num_nodes":"15","size_leaf_vector":"1"}},{"base_weights":[3.1756284E-3,-4.538474E0,4.005015E0,-2.943478E0,-8.873474E0,1.0142196E0,7.408764E0,-9.7536236E-2,-2.1528354E-2,-1.1130997E-1,-1.9804101E-2,1.3738836E-1,3.1731995E-3,8.484351E-2,1.3493192E-3],"categories":[],"categories_nodes":[],"categories_segments":[],"categories_sizes":[],"default_left":[0,0,0,0,0,0,0,0,0,0,0,0,0,0,0],"id":76,"left_children":[1,3,5,7,9,11,13,-1,-1,-1,-1,-1,-1,-1,-1],"loss_changes":[2.099202E4,3.7133408E3,6.2421123E3,2.1154155E3,2.2330254E3,2.9028672E3,2.243379E3,0E0,0E0,0E0,0E0,0E0,0E0,0E0,0E0],"parents":[2147483647,0,0,1,1,2,2,3,3,4,4,5,5,6,6],"right_children":[2,4,6,8,10,12,14,-1,-1,-1,-1,-1,-1,-1,-1],"split_conditions":[3.4333332E1,2.2682856E1,4.7E1,1.5666667E1,1.3461169E1,1.0086427E1,2.4344624E1,-9.7536236E-2,-2.1528354E-2,-1.1130997E-1,-1.9804101E-2,1.3738836E-1,3.1731995E-3,8.484351E-2,1.3493192E-3],"split_indices":[0,3,0,0,1,3,3,0,0,0,0,0,0,0,0],"split_type":[0,0,0,0,0,0,0,0,0,0,0,0,0,0,0],"sum_hessian":[1.153E3,5.4E2,6.13E2,3.96E2,1.44E2,3.27E2,2.86E2,4E1,3.56E2,1.08E2,3.6E1,1.6E1,3.11E2,2.49E2,3.7E1],"tree_param":{"num_deleted":"0","num_feature":"5","num_nodes":"15","size_leaf_vector":"1"}},{"base_weights":[3.1230126E-3,-3.2965376E0,5.4048433E0,-7.5234914E0,-1.4710026E0,3.5237176E0,1.0359629E1,-2.393821E-3,-8.432238E-2,-7.6951366E-3,-6.826029E-2,6.594118E-2,4.6895114E-3,9.377209E-2,2.2928844E-1],"categories":[],"categories_nodes":[],"categories_segments":[],"categories_sizes":[],"default_left":[0,0,0,0,0,0,0,0,0,0,0,0,0,0,0],"id":77,"left_children":[1,3,5,7,9,11,13,-1,-1,-1,-1,-1,-1,-1,-1],"loss_changes":[2.0586742E4,5.5207305E3,4.0445186E3,1.4269053E3,1.8797468E3,2.9882163E3,1.2635488E3,0E0,0E0,0E0,0E0,0E0,0E0,0E0,0E0],"parents":[2147483647,0,0,1,1,2,2,3,3,4,4,5,5,6,6],"right_children":[2,4,6,8,10,12,14,-1,-1,-1,-1,-1,-1,-1,-1],"split_conditions":[4.0333332E1,2.3E1,5.8E1,1.1726277E1,2.5661207E1,1.7309975E1,2.4344498E1,-2.393821E-3,-8.432238E-2,-7.6951366E-3,-6.826029E-2,6.594118E-2,4.6895114E-3,9.377209E-2,2.2928844E-1],"split_indices":[0,0,0,3,3,3,1,0,0,0,0,0,0,0,0],"split_type":[0,0,0,0,0,0,0,0,0,0,0,0,0,0,0],"sum_hessian":[1.153E3,7.16E2,4.37E2,2.15E2,5.01E2,3.18E2,1.19E2,2.4E1,1.91E2,4.44E2,5.7E1,1.58E2,1.6E2,1.12E2,7E0],"tree_param":{"num_deleted":"0","num_feature":"5","num_nodes":"15","size_leaf_vector":"1"}},{"base_weights":[3.2908444E-3,-4.454916E0,3.931608E0,-2.884986E0,-8.721864E0,2.0980167E0,9.300754E0,-9.5901884E-2,-2.1065593E-2,-1.0950573E-1,-1.9177776E-2,8.58928E-2,1.1188321E-2,8.323136E-2,1.5906568E-1],"categories":[],"categories_nodes":[],"categories_segments":[],"categories_sizes":[],"default_left":[0,0,0,0,0,0,0,0,0,0,0,0,0,0,0],"id":78,"left_children":[1,3,5,7,9,11,13,-1,-1,-1,-1,-1,-1,-1,-1],"loss_changes":[2.0227754E4,3.5977334E3,6.0240664E3,2.0507732E3,2.176539E3,2.9068904E3,8.72626E2,0E0,0E0,0E0,0E0,0E0,0E0,0E0,0E0],"parents":[2147483647,0,0,1,1,2,2,3,3,4,4,5,5,6,6],"right_children":[2,4,6,8,10,12,14,-1,-1,-1,-1,-1,-1,-1,-1],"split_conditions":[3.4333332E1,2.2682856E1,5.5666668E1,1.5666667E1,1.3461169E1,1.1542478E1,7.3E1,-9.5901884E-2,-2.1065593E-2,-1.0950573E-1,-1.9177776E-2,8.58928E-2,1.1188321E-2,8.323136E-2,1.5906568E-1],"split_indices":[0,3,0,0,1,3,0,0,0,0,0,0,0,0,0],"split_type":[0,0,0,0,0,0,0,0,0,0,0,0,0,0,0],"sum_hessian":[1.153E3,5.4E2,6.13E2,3.96E2,1.44E2,4.58E2,1.55E2,4E1,3.56E2,1.08E2,3.6E1,5.9E1,3.99E2,1.37E2,1.8E1],"tree_param":{"num_deleted":"0","num_feature":"5","num_nodes":"15","size_leaf_vector":"1"}},{"base_weights":[3.3378853E-3,-2.4135327E0,7.1140513E0,-6.9563913E0,-5.878839E-1,8.135707E0,2.4901998E-1,-1.2666826E-1,-5.7912502E-2,4.67624E-2,-1.2498121E-2,6.594289E-2,1.3142885E-1,-1.3975634E-2,1.5031016E-1],"categories":[],"categories_nodes":[],"categories_segments":[],"categories_sizes":[],"default_left":[0,0,0,0,0,0,0,0,0,0,0,0,0,0,0],"id":79,"left_children":[1,3,5,7,9,11,13,-1,-1,-1,-1,-1,-1,-1,-1],"loss_changes":[1.9849908E4,7.1442954E3,2.0521484E3,1.5682031E3,2.1519365E3,1.8794883E3,9.7162195E2,0E0,0E0,0E0,0E0,0E0,0E0,0E0,0E0],"parents":[2147483647,0,0,1,1,2,2,3,3,4,4,5,5,6,6],"right_children":[2,4,6,8,10,12,14,-1,-1,-1,-1,-1,-1,-1,-1],"split_conditions":[4.6666668E1,2.4E1,2.4344624E1,1.3666667E1,1.1542478E1,6.4E1,7.2666664E1,-1.2666826E-1,-5.7912502E-2,4.67624E-2,-1.2498121E-2,6.594289E-2,1.3142885E-1,-1.3975634E-2,1.5031016E-1],"split_indices":[0,0,3,0,3,0,0,0,0,0,0,0,0,0,0],"split_type":[0,0,0,0,0,0,0,0,0,0,0,0,0,0,0],"sum_hessian":[1.153E3,8.61E2,2.92E2,2.46E2,6.15E2,2.54E2,3.8E1,4E1,2.06E2,6.8E1,5.47E2,1.96E2,5.8E1,3.5E1,3E0],"tree_param":{"num_deleted":"0","num_feature":"5","num_nodes":"15","size_leaf_vector":"1"}},{"base_weights":[3.4619852E-3,-4.3759046E0,3.8623118E0,-2.8261042E0,-8.588283E0,9.811326E-1,7.141282E0,-9.4032325E-2,-2.0625513E-2,-1.0788965E-1,-1.8703712E-2,1.346593E-1,2.97406E-3,8.1898876E-2,5.1999703E-4],"categories":[],"categories_nodes":[],"categories_segments":[],"categories_sizes":[],"default_left":[0,0,0,0,0,0,0,0,0,0,0,0,0,0,0],"id":80,"left_children":[1,3,5,7,9,11,13,-1,-1,-1,-1,-1,-1,-1,-1],"loss_changes":[1.9518662E4,3.5064219E3,5.7928223E3,1.973187E3,2.1222344E3,2.7944888E3,2.1322686E3,0E0,0E0,0E0,0E0,0E0,0E0,0E0,0E0],"parents":[2147483647,0,0,1,1,2,2,3,3,4,4,5,5,6,6],"right_children":[2,4,6,8,10,12,14,-1,-1,-1,-1,-1,-1,-1,-1],"split_conditions":[3.4333332E1,2.2682856E1,4.7E1,1.5666667E1,1.3461169E1,1.0086427E1,2.4344624E1,-9.4032325E-2,-2.0625513E-2,-1.0788965E-1,-1.8703712E-2,1.346593E-1,2.97406E-3,8.1898876E-2,5.1999703E-4],"split_indices":[0,3,0,0,1,3,3,0,0,0,0,0,0,0,0],"split_type":[0,0,0,0,0,0,0,0,0,0,0,0,0,0,0],"sum_hessian":[1.153E3,5.4E2,6.13E2,3.96E2,1.44E2,3.27E2,2.86E2,4E1,3.56E2,1.08E2,3.6E1,1.6E1,3.11E2,2.49E2,3.7E1],"tree_param":{"num_deleted":"0","num_feature":"5","num_nodes":"15","size_leaf_vector":"1"}},{"base_weights":[3.4081794E-3,-3.1778657E0,5.211331E0,-7.2558417E0,-1.4166694E0,3.393329E0,9.999925E0,-9.170587E-4,-8.15036E-2,-7.332873E-3,-6.63371E-2,6.40671E-2,3.9568255E-3,9.026822E-2,2.2482508E-1],"categories":[],"categories_nodes":[],"categories_segments":[],"categories_sizes":[],"default_left":[0,0,0,0,0,0,0,0,0,0,0,0,0,0,0],"id":81,"left_children":[1,3,5,7,9,11,13,-1,-1,-1,-1,-1,-1,-1,-1],"loss_changes":[1.9136037E4,5.138432E3,3.7778125E3,1.3826533E3,1.784145E3,2.8783286E3,1.2515244E3,0E0,0E0,0E0,0E0,0E0,0E0,0E0,0E0],"parents":[2147483647,0,0,1,1,2,2,3,3,4,4,5,5,6,6],"right_children":[2,4,6,8,10,12,14,-1,-1,-1,-1,-1,-1,-1,-1],"split_conditions":[4.0333332E1,2.3E1,5.8E1,1.1726277E1,2.5661207E1,1.7309975E1,2.4344498E1,-9.170587E-4,-8.15036E-2,-7.332873E-3,-6.63371E-2,6.40671E-2,3.9568255E-3,9.026822E-2,2.2482508E-1],"split_indices":[0,0,0,3,3,3,1,0,0,0,0,0,0,0,0],"split_type":[0,0,0,0,0,0,0,0,0,0,0,0,0,0,0],"sum_hessian":[1.153E3,7.16E2,4.37E2,2.15E2,5.01E2,3.18E2,1.19E2,2.4E1,1.91E2,4.44E2,5.7E1,1.58E2,1.6E2,1.12E2,7E0],"tree_param":{"num_deleted":"0","num_feature":"5","num_nodes":"15","size_leaf_vector":"1"}},{"base_weights":[3.5696165E-3,-4.295341E0,3.7915292E0,-2.7699099E0,-8.441554E0,2.0230956E0,8.969859E0,-9.245737E-2,-2.0181485E-2,-1.0614191E-1,-1.8102305E-2,8.947597E-3,7.521828E-2,8.01002E-2,1.5463965E-1],"categories":[],"categories_nodes":[],"categories_segments":[],"categories_sizes":[],"default_left":[0,0,0,0,0,0,0,0,0,0,0,0,0,0,0],"id":82,"left_children":[1,3,5,7,9,11,13,-1,-1,-1,-1,-1,-1,-1,-1],"loss_changes":[1.8808086E4,3.3971953E3,5.6034795E3,1.9129202E3,2.068626E3,2.8402559E3,8.4618066E2,0E0,0E0,0E0,0E0,0E0,0E0,0E0,0E0],"parents":[2147483647,0,0,1,1,2,2,3,3,4,4,5,5,6,6],"right_children":[2,4,6,8,10,12,14,-1,-1,-1,-1,-1,-1,-1,-1],"split_conditions":[3.4333332E1,2.2682856E1,5.5666668E1,1.5666667E1,1.3461169E1,2.1257E1,7.3E1,-9.245737E-2,-2.0181485E-2,-1.0614191E-1,-1.8102305E-2,8.947597E-3,7.521828E-2,8.01002E-2,1.5463965E-1],"split_indices":[0,3,0,0,1,1,0,0,0,0,0,0,0,0,0],"split_type":[0,0,0,0,0,0,0,0,0,0,0,0,0,0,0],"sum_hessian":[1.153E3,5.4E2,6.13E2,3.96E2,1.44E2,4.58E2,1.55E2,4E1,3.56E2,1.08E2,3.6E1,3.81E2,7.7E1,1.37E2,1.8E1],"tree_param":{"num_deleted":"0","num_feature":"5","num_nodes":"15","size_leaf_vector":"1"}},{"base_weights":[3.603043E-3,-2.3263495E0,6.858605E0,-6.1981897E0,-3.3183107E-1,7.854835E0,1.6636693E-1,-4.478666E-2,-9.9052064E-2,4.976532E-2,-9.896954E-3,6.351414E-2,1.2739903E-1,-1.4541262E-2,1.4734213E-1],"categories":[],"categories_nodes":[],"categories_segments":[],"categories_sizes":[],"default_left":[0,0,0,0,0,0,0,0,0,0,0,0,0,0,0],"id":83,"left_children":[1,3,5,7,9,11,13,-1,-1,-1,-1,-1,-1,-1,-1],"loss_changes":[1.8447898E4,6.654048E3,1.9513242E3,1.8218701E3,1.9950707E3,1.7899746E3,9.434301E2,0E0,0E0,0E0,0E0,0E0,0E0,0E0,0E0],"parents":[2147483647,0,0,1,1,2,2,3,3,4,4,5,5,6,6],"right_children":[2,4,6,8,10,12,14,-1,-1,-1,-1,-1,-1,-1,-1],"split_conditions":[4.6666668E1,2.6333334E1,2.4344624E1,2.3499481E1,1.1542478E1,6.4E1,7.2666664E1,-4.478666E-2,-9.9052064E-2,4.976532E-2,-9.896954E-3,6.351414E-2,1.2739903E-1,-1.4541262E-2,1.4734213E-1],"split_indices":[0,0,3,3,3,0,0,0,0,0,0,0,0,0,0],"split_type":[0,0,0,0,0,0,0,0,0,0,0,0,0,0,0],"sum_hessian":[1.153E3,8.61E2,2.92E2,2.92E2,5.69E2,2.54E2,3.8E1,2.01E2,9.1E1,6.2E1,5.07E2,1.96E2,5.8E1,3.5E1,3E0],"tree_param":{"num_deleted":"0","num_feature":"5","num_nodes":"15","size_leaf_vector":"1"}},{"base_weights":[3.7558111E-3,-3.9699738E0,3.9570622E0,-8.563039E0,-2.6515276E0,2.4442174E0,9.722492E0,-1.5216386E-1,-7.475807E-2,-1.9365631E-2,-8.316214E-2,8.554072E-2,1.4528449E-2,8.758042E-2,2.211753E-1],"categories":[],"categories_nodes":[],"categories_segments":[],"categories_sizes":[],"default_left":[0,0,0,0,0,0,0,0,0,0,0,0,0,0,0],"id":84,"left_children":[1,3,5,7,9,11,13,-1,-1,-1,-1,-1,-1,-1,-1],"loss_changes":[1.8144322E4,3.4642617E3,5.025174E3,8.0989355E2,1.8013423E3,2.7728577E3,1.2377334E3,0E0,0E0,0E0,0E0,0E0,0E0,