{"learner":{"attributes":{"scikit_learn":"{\"_estimator_type\": \"regressor\"}"},"feature_names":["rolling_mean","temperature_2m_mean","precipitation_sum","wind_speed_10m_max","wind_direction_10m_dominant"],"feature_types":["float","float","float","float","float"],"gradient_booster":{"model":{"gbtree_model_param":{"num_parallel_tree":"1","num_trees":"400"},"iteration_indptr":[0,1,2,3,4,5,6,7,8,9,10,11,12,13,14,15,16,17,18,19,20,21,22,23,24,25,26,27,28,29,30,31,32,33,34,35,36,37,38,39,40,41,42,43,44,45,46,47,48,49,50,51,52,53,54,55,56,57,58,59,60,61,62,63,64,65,66,67,68,69,70,71,72,73,74,75,76,77,78,79,80,81,82,83,84,85,86,87,88,89,90,91,92,93,94,95,96,97,98,99,100,101,102,103,104,105,106,107,108,109,110,111,112,113,114,115,116,117,118,119,120,121,122,123,124,125,126,127,128,129,130,131,132,133,134,135,136,137,138,139,140,141,142,143,144,145,146,147,148,149,150,151,152,153,154,155,156,157,158,159,160,161,162,163,164,165,166,167,168,169,170,171,172,173,174,175,176,177,178,179,180,181,182,183,184,185,186,187,188,189,190,191,192,193,194,195,196,197,198,199,200,201,202,203,204,205,206,207,208,209,210,211,212,213,214,215,216,217,218,219,220,221,222,223,224,225,226,227,228,229,230,231,232,233,234,235,236,237,238,239,240,241,242,243,244,245,246,247,248,249,250,251,252,253,254,255,256,257,258,259,260,261,262,263,264,265,266,267,268,269,270,271,272,273,274,275,276,277,278,279,280,281,282,283,284,285,286,287,288,289,290,291,292,293,294,295,296,297,298,299,300,301,302,303,304,305,306,307,308,309,310,311,312,313,314,315,316,317,318,319,320,321,322,323,324,325,326,327,328,329,330,331,332,333,334,335,336,337,338,339,340,341,342,343,344,345,346,347,348,349,350,351,352,353,354,355,356,357,358,359,360,361,362,363,364,365,366,367,368,369,370,371,372,373,374,375,376,377,378,379,380,381,382,383,384,385,386,387,388,389,390,391,392,393,394,395,396,397,398,399,400],"tree_info":[0,0,0,0,0,0,0,0,0,0,0,0,0,0,0,0,0,0,0,0,0,0,0,0,0,0,0,0,0,0,0,0,0,0,0,0,0,0,0,0,0,0,0,0,0,0,0,0,0,0,0,0,0,0,0,0,0,0,0,0,0,0,0,0,0,0,0,0,0,0,0,0,0,0,0,0,0,0,0,0,0,0,0,0,0,0,0,0,0,0,0,0,0,0,0,0,0,0,0,0,0,0,0,0,0,0,0,0,0,0,0,0,0,0,0,0,0,0,0,0,0,0,0,0,0,0,0,0,0,0,0,0,0,0,0,0,0,0,0,0,0,0,0,0,0,0,0,0,0,0,0,0,0,0,0,0,0,0,0,0,0,0,0,0,0,0,0,0,0,0,0,0,0,0,0,0,0,0,0,0,0,0,0,0,0,0,0,0,0,0,0,0,0,0,0,0,0,0,0,0,0,0,0,0,0,0,0,0,0,0,0,0,0,0,0,0,0,0,0,0,0,0,0,0,0,0,0,0,0,0,0,0,0,0,0,0,0,0,0,0,0,0,0,0,0,0,0,0,0,0,0,0,0,0,0,0,0,0,0,0,0,0,0,0,0,0,0,0,0,0,0,0,0,0,0,0,0,0,0,0,0,0,0,0,0,0,0,0,0,0,0,0,0,0,0,0,0,0,0,0,0,0,0,0,0,0,0,0,0,0,0,0,0,0,0,0,0,0,0,0,0,0,0,0,0,0,0,0,0,0,0,0,0,0,0,0,0,0,0,0,0,0,0,0,0,0,0,0,0,0,0,0,0,0,0,0,0,0,0,0,0,0,0,0,0,0,0,0,0,0,0,0,0,0,0,0,0,0,0,0,0,0,0,0,0,0,0,0,0,0,0,0,0,0,0,0,0,0,0,0],"trees":[{"base_weights":[-0E0,-8.941296E0,8.589755E0,-1.6594503E1,-5.579715E0,4.2895026E0,1.9237467E1,-1.2475969E-1,-2.1122135E-1,-4.2016685E-2,-1.6110383E-1,7.225716E-2,-1.591876E-2,2.0486309E-1,6.9338545E-2],"categories":[],"categories_nodes":[],"categories_segments":[],"categories_sizes":[],"default_left":[0,0,0,0,0,0,0,0,0,0,0,0,0,0,0],"id":0,"left_children":[1,3,5,7,9,11,13,-1,-1,-1,-1,-1,-1,-1,-1],"loss_changes":[8.809366E4,1.4363699E4,2.670102E4,2.921793E3,5.618883E3,7.2305005E3,2.4365781E3,0E0,0E0,0E0,0E0,0E0,0E0,0E0,0E0],"parents":[2147483647,0,0,1,1,2,2,3,3,4,4,5,5,6,6],"right_children":[2,4,6,8,10,12,14,-1,-1,-1,-1,-1,-1,-1,-1],"split_conditions":[3.5333332E1,2.1666666E1,5.5E1,2.0892412E1,2.6064596E1,2.0316889E1,2.4087738E1,-1.2475969E-1,-2.1122135E-1,-4.2016685E-2,-1.6110383E-1,7.225716E-2,-1.591876E-2,2.0486309E-1,6.9338545E-2],"split_indices":[0,0,0,3,3,3,3,0,0,0,0,0,0,0,0],"split_type":[0,0,0,0,0,0,0,0,0,0,0,0,0,0,0],"sum_hessian":[1.145E3,5.61E2,5.84E2,1.7E2,3.91E2,4.17E2,1.67E2,9.1E1,7.9E1,3.47E2,4.4E1,2.78E2,1.39E2,1.51E2,1.6E1],"tree_param":{"num_deleted":"0","num_feature":"5","num_nodes":"15","size_leaf_vector":"1"}},{"base_weights":[-9.883461E-5,-8.852849E0,8.504423E0,-1.5865069E1,-5.2569375E0,4.2467394E0,1.904673E1,-1.1925331E-1,-2.0489573E-1,-3.852084E-2,-1.5946463E-1,7.153717E-2,-1.5760709E-2,2.0282793E-1,6.8685934E-2],"categories":[],"categories_nodes":[],"categories_segments":[],"categories_sizes":[],"default_left":[0,0,0,0,0,0,0,0,0,0,0,0,0,0,0],"id":1,"left_children":[1,3,5,7,9,11,13,-1,-1,-1,-1,-1,-1,-1,-1],"loss_changes":[8.635584E4,1.4085492E4,2.617498E4,3.2140938E3,5.5380166E3,7.0872256E3,2.3868594E3,0E0,0E0,0E0,0E0,0E0,0E0,0E0,0E0],"parents":[2147483647,0,0,1,1,2,2,3,3,4,4,5,5,6,6],"right_children":[2,4,6,8,10,12,14,-1,-1,-1,-1,-1,-1,-1,-1],"split_conditions":[3.5333332E1,2.2333334E1,5.5E1,2.0892412E1,2.6064596E1,2.0316889E1,2.4087738E1,-1.1925331E-1,-2.0489573E-1,-3.852084E-2,-1.5946463E-1,7.153717E-2,-1.5760709E-2,2.0282793E-1,6.8685934E-2],"split_indices":[0,0,0,3,3,3,3,0,0,0,0,0,0,0,0],"split_type":[0,0,0,0,0,0,0,0,0,0,0,0,0,0,0],"sum_hessian":[1.145E3,5.61E2,5.84E2,1.89E2,3.72E2,4.17E2,1.67E2,1.04E2,8.5E1,3.3E2,4.2E1,2.78E2,1.39E2,1.51E2,1.6E1],"tree_param":{"num_deleted":"0","num_feature":"5","num_nodes":"15","size_leaf_vector":"1"}},{"base_weights":[-2.6833234E-4,-8.765254E0,8.419941E0,-1.6272408E1,-5.467835E0,4.204404E0,1.8857885E1,-1.22346066E-1,-2.0711221E-1,-4.116436E-2,-1.5794921E-1,7.082436E-2,-1.5604211E-2,2.0081298E-1,6.803946E-2],"categories":[],"categories_nodes":[],"categories_segments":[],"categories_sizes":[],"default_left":[0,0,0,0,0,0,0,0,0,0,0,0,0,0,0],"id":2,"left_children":[1,3,5,7,9,11,13,-1,-1,-1,-1,-1,-1,-1,-1],"loss_changes":[8.465209E4,1.3820727E4,2.5659312E4,2.8081523E3,5.403746E3,6.94679E3,2.3381602E3,0E0,0E0,0E0,0E0,0E0,0E0,0E0,0E0],"parents":[2147483647,0,0,1,1,2,2,3,3,4,4,5,5,6,6],"right_children":[2,4,6,8,10,12,14,-1,-1,-1,-1,-1,-1,-1,-1],"split_conditions":[3.5333332E1,2.1666666E1,5.5E1,2.0892412E1,2.6064596E1,2.0316889E1,2.4087738E1,-1.22346066E-1,-2.0711221E-1,-4.116436E-2,-1.5794921E-1,7.082436E-2,-1.5604211E-2,2.0081298E-1,6.803946E-2],"split_indices":[0,0,0,3,3,3,3,0,0,0,0,0,0,0,0],"split_type":[0,0,0,0,0,0,0,0,0,0,0,0,0,0,0],"sum_hessian":[1.145E3,5.61E2,5.84E2,1.7E2,3.91E2,4.17E2,1.67E2,9.1E1,7.9E1,3.47E2,4.4E1,2.78E2,1.39E2,1.51E2,1.6E1],"tree_param":{"num_deleted":"0","num_feature":"5","num_nodes":"15","size_leaf_vector":"1"}},{"base_weights":[-4.44817E-4,-8.678548E0,8.336298E0,-1.5145827E1,-4.9221387E0,4.1624904E0,1.8670912E1,-1.1251178E-1,-1.9848424E-1,-3.5630688E-2,-1.5601188E-1,7.0118666E-2,-1.5449266E-2,1.9881807E-1,6.739909E-2],"categories":[],"categories_nodes":[],"categories_segments":[],"categories_sizes":[],"default_left":[0,0,0,0,0,0,0,0,0,0,0,0,0,0,0],"id":3,"left_children":[1,3,5,7,9,11,13,-1,-1,-1,-1,-1,-1,-1,-1],"loss_changes":[8.298217E4,1.3576535E4,2.5153797E4,3.546457E3,5.123841E3,6.809136E3,2.2904648E3,0E0,0E0,0E0,0E0,0E0,0E0,0E0,0E0],"parents":[2147483647,0,0,1,1,2,2,3,3,4,4,5,5,6,6],"right_children":[2,4,6,8,10,12,14,-1,-1,-1,-1,-1,-1,-1,-1],"split_conditions":[3.5333332E1,2.3E1,5.5E1,2.0945072E1,2.6064596E1,2.0316889E1,2.4087738E1,-1.1251178E-1,-1.9848424E-1,-3.5630688E-2,-1.5601188E-1,7.0118666E-2,-1.5449266E-2,1.9881807E-1,6.739909E-2],"split_indices":[0,0,0,3,3,3,3,0,0,0,0,0,0,0,0],"split_type":[0,0,0,0,0,0,0,0,0,0,0,0,0,0,0],"sum_hessian":[1.145E3,5.61E2,5.84E2,2.05E2,3.56E2,4.17E2,1.67E2,1.14E2,9.1E1,3.17E2,3.9E1,2.78E2,1.39E2,1.51E2,1.6E1],"tree_param":{"num_deleted":"0","num_feature":"5","num_nodes":"15","size_leaf_vector":"1"}},{"base_weights":[-6.002243E-4,-5.460592E0,1.3012892E1,-1.3049608E1,-1.2548386E0,7.5910287E0,1.8485794E1,-9.8925464E-2,-1.9666907E-1,6.949281E-2,-2.2778647E-2,1.2848058E-1,2.1834401E-2,1.9684297E-1,6.6764764E-2],"categories":[],"categories_nodes":[],"categories_segments":[],"categories_sizes":[],"default_left":[0,0,0,0,0,0,0,0,0,0,0,0,0,0,0],"id":4,"left_children":[1,3,5,7,9,11,13,-1,-1,-1,-1,-1,-1,-1,-1],"loss_changes":[8.149767E4,2.5771559E4,9.916324E3,5.81916E3,4.38813E3,4.860034E3,2.2437305E3,0E0,0E0,0E0,0E0,0E0,0E0,0E0,0E0],"parents":[2147483647,0,0,1,1,2,2,3,3,4,4,5,5,6,6],"right_children":[2,4,6,8,10,12,14,-1,-1,-1,-1,-1,-1,-1,-1],"split_conditions":[4.4333332E1,2.6333334E1,5.5E1,2.3499481E1,1.1542478E1,1.7309975E1,2.4087738E1,-9.8925464E-2,-1.9666907E-1,6.949281E-2,-2.2778647E-2,1.2848058E-1,2.1834401E-2,1.9684297E-1,6.6764764E-2],"split_indices":[0,0,0,3,3,3,3,0,0,0,0,0,0,0,0],"split_type":[0,0,0,0,0,0,0,0,0,0,0,0,0,0,0],"sum_hessian":[1.145E3,8.07E2,3.38E2,2.87E2,5.2E2,1.71E2,1.67E2,1.96E2,9.1E1,5.7E1,4.63E2,8.6E1,8.5E1,1.51E2,1.6E1],"tree_param":{"num_deleted":"0","num_feature":"5","num_nodes":"15","size_leaf_vector":"1"}},{"base_weights":[-4.4754986E-4,-8.518824E0,8.182848E0,-1.5829619E1,-5.307689E0,4.0958E0,1.8302511E1,-1.1904453E-1,-2.0144439E-1,-3.9907217E-2,-1.5372068E-1,6.9018595E-2,-1.5248178E-2,1.948875E-1,6.613639E-2],"categories":[],"categories_nodes":[],"categories_segments":[],"categories_sizes":[],"default_left":[0,0,0,0,0,0,0,0,0,0,0,0,0,0,0],"id":5,"left_children":[1,3,5,7,9,11,13,-1,-1,-1,-1,-1,-1,-1,-1],"loss_changes":[7.995556E4,1.3107352E4,2.4118137E4,2.6531094E3,5.132467E3,6.6036704E3,2.1979453E3,0E0,0E0,0E0,0E0,0E0,0E0,0E0,0E0],"parents":[2147483647,0,0,1,1,2,2,3,3,4,4,5,5,6,6],"right_children":[2,4,6,8,10,12,14,-1,-1,-1,-1,-1,-1,-1,-1],"split_conditions":[3.5333332E1,2.1666666E1,5.5E1,2.0892412E1,2.6064596E1,2.0316889E1,2.4087738E1,-1.1904453E-1,-2.0144439E-1,-3.9907217E-2,-1.5372068E-1,6.9018595E-2,-1.5248178E-2,1.948875E-1,6.613639E-2],"split_indices":[0,0,0,3,3,3,3,0,0,0,0,0,0,0,0],"split_type":[0,0,0,0,0,0,0,0,0,0,0,0,0,0,0],"sum_hessian":[1.145E3,5.61E2,5.84E2,1.7E2,3.91E2,4.17E2,1.67E2,9.1E1,7.9E1,3.47E2,4.4E1,2.78E2,1.39E2,1.51E2,1.6E1],"tree_param":{"num_deleted":"0","num_feature":"5","num_nodes":"15","size_leaf_vector":"1"}},{"base_weights":[-6.18905E-4,-5.360041E0,1.2773168E1,-1.2801968E1,-1.2357895E0,7.4748163E0,1.8121044E1,-9.699822E-2,-1.9304366E-1,6.9339335E-2,-2.234797E-2,1.265283E-1,2.1485133E-2,1.9295143E-1,6.551394E-2],"categories":[],"categories_nodes":[],"categories_segments":[],"categories_sizes":[],"default_left":[0,0,0,0,0,0,0,0,0,0,0,0,0,0,0],"id":6,"left_children":[1,3,5,7,9,11,13,-1,-1,-1,-1,-1,-1,-1,-1],"loss_changes":[7.8523016E4,2.4782219E4,9.467527E3,5.619211E3,4.267227E3,4.715039E3,2.1531055E3,0E0,0E0,0E0,0E0,0E0,0E0,0E0,0E0],"parents":[2147483647,0,0,1,1,2,2,3,3,4,4,5,5,6,6],"right_children":[2,4,6,8,10,12,14,-1,-1,-1,-1,-1,-1,-1,-1],"split_conditions":[4.4333332E1,2.6333334E1,5.5E1,2.3499481E1,1.1525623E1,1.7309975E1,2.4087738E1,-9.699822E-2,-1.9304366E-1,6.9339335E-2,-2.234797E-2,1.265283E-1,2.1485133E-2,1.9295143E-1,6.551394E-2],"split_indices":[0,0,0,3,3,3,3,0,0,0,0,0,0,0,0],"split_type":[0,0,0,0,0,0,0,0,0,0,0,0,0,0,0],"sum_hessian":[1.145E3,8.07E2,3.38E2,2.87E2,5.2E2,1.71E2,1.67E2,1.96E2,9.1E1,5.6E1,4.64E2,8.6E1,8.5E1,1.51E2,1.6E1],"tree_param":{"num_deleted":"0","num_feature":"5","num_nodes":"15","size_leaf_vector":"1"}},{"base_weights":[-4.678716E-4,-8.3621645E0,8.032308E0,-1.5544757E1,-5.2073545E0,4.0302596E0,1.7941378E1,-1.10146396E-1,-1.9137356E-1,-3.9112438E-2,-1.5112668E-1,6.793735E-2,-1.5050247E-2,1.9103462E-1,6.4897336E-2],"categories":[],"categories_nodes":[],"categories_segments":[],"categories_sizes":[],"default_left":[0,0,0,0,0,0,0,0,0,0,0,0,0,0,0],"id":7,"left_children":[1,3,5,7,9,11,13,-1,-1,-1,-1,-1,-1,-1,-1],"loss_changes":[7.704131E4,1.2651734E4,2.3124594E4,2.5691992E3,4.971635E3,6.404741E3,2.109168E3,0E0,0E0,0E0,0E0,0E0,0E0,0E0,0E0],"parents":[2147483647,0,0,1,1,2,2,3,3,4,4,5,5,6,6],"right_children":[2,4,6,8,10,12,14,-1,-1,-1,-1,-1,-1,-1,-1],"split_conditions":[3.5333332E1,2.1666666E1,5.5E1,1.9008547E1,2.6064596E1,2.0316889E1,2.4087738E1,-1.10146396E-1,-1.9137356E-1,-3.9112438E-2,-1.5112668E-1,6.793735E-2,-1.5050247E-2,1.9103462E-1,6.4897336E-2],"split_indices":[0,0,0,3,3,3,3,0,0,0,0,0,0,0,0],"split_type":[0,0,0,0,0,0,0,0,0,0,0,0,0,0,0],"sum_hessian":[1.145E3,5.61E2,5.84E2,1.7E2,3.91E2,4.17E2,1.67E2,7.7E1,9.3E1,3.47E2,4.4E1,2.78E2,1.39E2,1.51E2,1.6E1],"tree_param":{"num_deleted":"0","num_feature":"5","num_nodes":"15","size_leaf_vector":"1"}},{"base_weights":[-6.239846E-4,-5.261352E0,1.2537928E1,-1.2558877E1,-1.2171134E0,7.3604116E0,1.7763493E1,-9.5088124E-2,-1.8952397E-1,6.840383E-2,-2.202404E-2,1.24606E-1,2.1141695E-2,1.891368E-1,6.428655E-2],"categories":[],"categories_nodes":[],"categories_segments":[],"categories_sizes":[],"default_left":[0,0,0,0,0,0,0,0,0,0,0,0,0,0,0],"id":8,"left_children":[1,3,5,7,9,11,13,-1,-1,-1,-1,-1,-1,-1,-1],"loss_changes":[7.565759E4,2.3829791E4,9.038531E3,5.433125E3,4.1508086E3,4.574372E3,2.066129E3,0E0,0E0,0E0,0E0,0E0,0E0,0E0,0E0],"parents":[2147483647,0,0,1,1,2,2,3,3,4,4,5,5,6,6],"right_children":[2,4,6,8,10,12,14,-1,-1,-1,-1,-1,-1,-1,-1],"split_conditions":[4.4333332E1,2.6333334E1,5.5E1,2.3499481E1,1.1525623E1,1.7309975E1,2.4087738E1,-9.5088124E-2,-1.8952397E-1,6.840383E-2,-2.202404E-2,1.24606E-1,2.1141695E-2,1.891368E-1,6.428655E-2],"split_indices":[0,0,0,3,3,3,3,0,0,0,0,0,0,0,0],"split_type":[0,0,0,0,0,0,0,0,0,0,0,0,0,0,0],"sum_hessian":[1.145E3,8.07E2,3.38E2,2.87E2,5.2E2,1.71E2,1.67E2,1.96E2,9.1E1,5.6E1,4.64E2,8.6E1,8.5E1,1.51E2,1.6E1],"tree_param":{"num_deleted":"0","num_feature":"5","num_nodes":"15","size_leaf_vector":"1"}},{"base_weights":[-4.751881E-4,-8.208376E0,7.8845515E0,-1.5265067E1,-5.108879E0,3.965751E0,1.7587372E1,-1.0812036E-1,-1.8796676E-1,-3.83328E-2,-1.4857754E-1,6.687281E-2,-1.4854837E-2,1.872579E-1,6.368151E-2],"categories":[],"categories_nodes":[],"categories_segments":[],"categories_sizes":[],"default_left":[0,0,0,0,0,0,0,0,0,0,0,0,0,0,0],"id":9,"left_children":[1,3,5,7,9,11,13,-1,-1,-1,-1,-1,-1,-1,-1],"loss_changes":[7.423331E4,1.2212148E4,2.21718E4,2.4830195E3,4.815952E3,6.2117773E3,2.0239609E3,0E0,0E0,0E0,0E0,0E0,0E0,0E0,0E0],"parents":[2147483647,0,0,1,1,2,2,3,3,4,4,5,5,6,6],"right_children":[2,4,6,8,10,12,14,-1,-1,-1,-1,-1,-1,-1,-1],"split_conditions":[3.5333332E1,2.1666666E1,5.5E1,1.9008547E1,2.6064596E1,2.0316889E1,2.4087738E1,-1.0812036E-1,-1.8796676E-1,-3.83328E-2,-1.4857754E-1,6.687281E-2,-1.4854837E-2,1.872579E-1,6.368151E-2],"split_indices":[0,0,0,3,3,3,3,0,0,0,0,0,0,0,0],"split_type":[0,0,0,0,0,0,0,0,0,0,0,0,0,0,0],"sum_hessian":[1.145E3,5.61E2,5.84E2,1.7E2,3.91E2,4.17E2,1.67E2,7.7E1,9.3E1,3.47E2,4.4E1,2.78E2,1.39E2,1.51E2,1.6E1],"tree_param":{"num_deleted":"0","num_feature":"5","num_nodes":"15","size_leaf_vector":"1"}},{"base_weights":[-6.281888E-4,-5.1645083E0,1.2307088E1,-1.2320297E1,-1.1988041E0,7.247786E0,1.7412996E1,-9.321446E-2,-1.8606746E-1,6.7480855E-2,-2.1705758E-2,1.2271322E-1,2.0803971E-2,1.8539762E-1,6.308215E-2],"categories":[],"categories_nodes":[],"categories_segments":[],"categories_sizes":[],"default_left":[0,0,0,0,0,0,0,0,0,0,0,0,0,0,0],"id":10,"left_children":[1,3,5,7,9,11,13,-1,-1,-1,-1,-1,-1,-1,-1],"loss_changes":[7.289752E4,2.2913096E4,8.628492E3,5.253176E3,4.0376453E3,4.437909E3,1.9826602E3,0E0,0E0,0E0,0E0,0E0,0E0,0E0,0E0],"parents":[2147483647,0,0,1,1,2,2,3,3,4,4,5,5,6,6],"right_children":[2,4,6,8,10,12,14,-1,-1,-1,-1,-1,-1,-1,-1],"split_conditions":[4.4333332E1,2.6333334E1,5.5E1,2.3499481E1,1.1525623E1,1.7309975E1,2.4087738E1,-9.321446E-2,-1.8606746E-1,6.7480855E-2,-2.1705758E-2,1.2271322E-1,2.0803971E-2,1.8539762E-1,6.308215E-2],"split_indices":[0,0,0,3,3,3,3,0,0,0,0,0,0,0,0],"split_type":[0,0,0,0,0,0,0,0,0,0,0,0,0,0,0],"sum_hessian":[1.145E3,8.07E2,3.38E2,2.87E2,5.2E2,1.71E2,1.67E2,1.96E2,9.1E1,5.6E1,4.64E2,8.6E1,8.5E1,1.51E2,1.6E1],"tree_param":{"num_deleted":"0","num_feature":"5","num_nodes":"15","size_leaf_vector":"1"}},{"base_weights":[-4.8130628E-4,-8.057427E0,7.739526E0,-1.4990535E1,-5.0122266E0,3.9022574E0,1.724035E1,-1.0613282E-1,-1.8462184E-1,-3.7568007E-2,-1.4607248E-1,6.582473E-2,-1.4661892E-2,1.8355583E-1,6.2488426E-2],"categories":[],"categories_nodes":[],"categories_segments":[],"categories_sizes":[],"default_left":[0,0,0,0,0,0,0,0,0,0,0,0,0,0,0],"id":11,"left_children":[1,3,5,7,9,11,13,-1,-1,-1,-1,-1,-1,-1,-1],"loss_changes":[7.152789E4,1.1788203E4,2.1258082E4,2.3997148E3,4.665256E3,6.0245957E3,1.9421953E3,0E0,0E0,0E0,0E0,0E0,0E0,0E0,0E0],"parents":[2147483647,0,0,1,1,2,2,3,3,4,4,5,5,6,6],"right_children":[2,4,6,8,10,12,14,-1,-1,-1,-1,-1,-1,-1,-1],"split_conditions":[3.5333332E1,2.1666666E1,5.5E1,1.9008547E1,2.6064596E1,2.0316889E1,2.4087738E1,-1.0613282E-1,-1.8462184E-1,-3.7568007E-2,-1.4607248E-1,6.582473E-2,-1.4661892E-2,1.8355583E-1,6.2488426E-2],"split_indices":[0,0,0,3,3,3,3,0,0,0,0,0,0,0,0],"split_type":[0,0,0,0,0,0,0,0,0,0,0,0,0,0,0],"sum_hessian":[1.145E3,5.61E2,5.84E2,1.7E2,3.91E2,4.17E2,1.67E2,7.7E1,9.3E1,3.47E2,4.4E1,2.78E2,1.39E2,1.51E2,1.6E1],"tree_param":{"num_deleted":"0","num_feature":"5","num_nodes":"15","size_leaf_vector":"1"}},{"base_weights":[-6.322831E-4,-5.069474E0,1.2080563E1,-1.2759575E1,-1.5204759E0,7.136909E0,1.7069418E1,-8.975503E-2,-1.7509992E-1,6.815015E-2,-2.5091318E-2,1.20849475E-1,2.0471849E-2,1.8173234E-1,6.1900295E-2],"categories":[],"categories_nodes":[],"categories_segments":[],"categories_sizes":[],"default_left":[0,0,0,0,0,0,0,0,0,0,0,0,0,0,0],"id":12,"left_children":[1,3,5,7,9,11,13,-1,-1,-1,-1,-1,-1,-1,-1],"loss_changes":[7.023891E4,2.2031236E4,8.236574E3,4.424047E3,4.582147E3,4.3055205E3,1.9025586E3,0E0,0E0,0E0,0E0,0E0,0E0,0E0,0E0],"parents":[2147483647,0,0,1,1,2,2,3,3,4,4,5,5,6,6],"right_children":[2,4,6,8,10,12,14,-1,-1,-1,-1,-1,-1,-1,-1],"split_conditions":[4.4333332E1,2.4666666E1,5.5E1,2.0945072E1,1.1542478E1,1.7309975E1,2.4087738E1,-8.975503E-2,-1.7509992E-1,6.815015E-2,-2.5091318E-2,1.20849475E-1,2.0471849E-2,1.8173234E-1,6.1900295E-2],"split_indices":[0,0,0,3,3,3,3,0,0,0,0,0,0,0,0],"split_type":[0,0,0,0,0,0,0,0,0,0,0,0,0,0,0],"sum_hessian":[1.145E3,8.07E2,3.38E2,2.54E2,5.53E2,1.71E2,1.67E2,1.43E2,1.11E2,5.8E1,4.95E2,8.6E1,8.5E1,1.51E2,1.6E1],"tree_param":{"num_deleted":"0","num_feature":"5","num_nodes":"15","size_leaf_vector":"1"}},{"base_weights":[-4.8032432E-4,-7.91039E0,7.598271E0,-1.4714175E1,-4.921977E0,3.8412876E0,1.690018E1,-1.1893465E-1,-2.000291E-1,-3.68411E-2,-1.4383218E-1,6.4804666E-2,-1.4449431E-2,1.7992698E-1,6.1317693E-2],"categories":[],"categories_nodes":[],"categories_segments":[],"categories_sizes":[],"default_left":[0,0,0,0,0,0,0,0,0,0,0,0,0,0,0],"id":13,"left_children":[1,3,5,7,9,11,13,-1,-1,-1,-1,-1,-1,-1,-1],"loss_changes":[6.894097E4,1.1352488E4,2.0377074E4,2.3098828E3,4.536213E3,5.8415156E3,1.8637227E3,0E0,0E0,0E0,0E0,0E0,0E0,0E0,0E0],"parents":[2147483647,0,0,1,1,2,2,3,3,4,4,5,5,6,6],"right_children":[2,4,6,8,10,12,14,-1,-1,-1,-1,-1,-1,-1,-1],"split_conditions":[3.5333332E1,2.1666666E1,5.5E1,2.3499481E1,2.6064596E1,2.0316889E1,2.4087738E1,-1.1893465E-1,-2.000291E-1,-3.68411E-2,-1.4383218E-1,6.4804666E-2,-1.4449431E-2,1.7992698E-1,6.1317693E-2],"split_indices":[0,0,0,3,3,3,3,0,0,0,0,0,0,0,0],"split_type":[0,0,0,0,0,0,0,0,0,0,0,0,0,0,0],"sum_hessian":[1.145E3,5.61E2,5.84E2,1.7E2,3.91E2,4.17E2,1.67E2,1.13E2,5.7E1,3.47E2,4.4E1,2.78E2,1.39E2,1.51E2,1.6E1],"tree_param":{"num_deleted":"0","num_feature":"5","num_nodes":"15","size_leaf_vector":"1"}},{"base_weights":[-6.5747806E-4,-4.9762444E0,1.1858265E1,-1.1861777E1,-1.1602949E0,7.027743E0,1.673262E1,-8.961921E-2,-1.794123E-1,6.565633E-2,-2.105064E-2,1.1901428E-1,2.0145062E-2,1.7813955E-1,6.0740594E-2],"categories":[],"categories_nodes":[],"categories_segments":[],"categories_sizes":[],"default_left":[0,0,0,0,0,0,0,0,0,0,0,0,0,0,0],"id":14,"left_children":[1,3,5,7,9,11,13,-1,-1,-1,-1,-1,-1,-1,-1],"loss_changes":[6.7678164E4,2.121501E4,7.8620156E3,4.913828E3,3.8162676E3,4.1770977E3,1.8256914E3,0E0,0E0,0E0,0E0,0E0,0E0,0E0,0E0],"parents":[2147483647,0,0,1,1,2,2,3,3,4,4,5,5,6,6],"right_children":[2,4,6,8,10,12,14,-1,-1,-1,-1,-1,-1,-1,-1],"split_conditions":[4.4333332E1,2.6333334E1,5.5E1,2.3499481E1,1.1525623E1,1.7309975E1,2.4087738E1,-8.961921E-2,-1.794123E-1,6.565633E-2,-2.105064E-2,1.1901428E-1,2.0145062E-2,1.7813955E-1,6.0740594E-2],"split_indices":[0,0,0,3,3,3,3,0,0,0,0,0,0,0,0],"split_type":[0,0,0,0,0,0,0,0,0,0,0,0,0,0,0],"sum_hessian":[1.145E3,8.07E2,3.38E2,2.87E2,5.2E2,1.71E2,1.67E2,1.96E2,9.1E1,5.6E1,4.64E2,8.6E1,8.5E1,1.51E2,1.6E1],"tree_param":{"num_deleted":"0","num_feature":"5","num_nodes":"15","size_leaf_vector":"1"}},{"base_weights":[-5.1463995E-4,-7.765005E0,7.458535E0,-1.4449879E1,-4.828836E0,3.779746E0,1.6566723E1,-1.02140255E-1,-1.780995E-1,-3.610506E-2,-1.4141057E-1,6.3788466E-2,-1.426175E-2,1.7636988E-1,6.0168907E-2],"categories":[],"categories_nodes":[],"categories_segments":[],"categories_sizes":[],"default_left":[0,0,0,0,0,0,0,0,0,0,0,0,0,0,0],"id":15,"left_children":[1,3,5,7,9,11,13,-1,-1,-1,-1,-1,-1,-1,-1],"loss_changes":[6.642937E4,1.0959195E4,1.9537002E4,2.2490898E3,4.394549E3,5.6654316E3,1.7884219E3,0E0,0E0,0E0,0E0,0E0,0E0,0E0,0E0],"parents":[2147483647,0,0,1,1,2,2,3,3,4,4,5,5,6,6],"right_children":[2,4,6,8,10,12,14,-1,-1,-1,-1,-1,-1,-1,-1],"split_conditions":[3.5333332E1,2.1666666E1,5.5E1,1.9008547E1,2.6064596E1,2.0316889E1,2.4087738E1,-1.02140255E-1,-1.780995E-1,-3.610506E-2,-1.4141057E-1,6.3788466E-2,-1.426175E-2,1.7636988E-1,6.0168907E-2],"split_indices":[0,0,0,3,3,3,3,0,0,0,0,0,0,0,0],"split_type":[0,0,0,0,0,0,0,0,0,0,0,0,0,0,0],"sum_hessian":[1.145E3,5.61E2,5.84E2,1.7E2,3.91E2,4.17E2,1.67E2,7.7E1,9.3E1,3.47E2,4.4E1,2.78E2,1.39E2,1.51E2,1.6E1],"tree_param":{"num_deleted":"0","num_feature":"5","num_nodes":"15","size_leaf_vector":"1"}},{"base_weights":[-6.597815E-4,-4.8847256E0,1.1640124E1,-1.16362E1,-1.143057E0,7.9841194E0,1.7834532E1,-8.785077E-2,-1.7613754E-1,6.4770155E-2,-2.0748872E-2,1.2670854E-1,3.3092137E-2,1.9080661E-1,6.5844536E-2],"categories":[],"categories_nodes":[],"categories_segments":[],"categories_sizes":[],"default_left":[0,0,0,0,0,0,0,0,0,0,0,0,0,0,0],"id":16,"left_children":[1,3,5,7,9,11,13,-1,-1,-1,-1,-1,-1,-1,-1],"loss_changes":[6.5211273E4,2.0396936E4,7.532285E3,4.7509336E3,3.7124197E3,4.66713E3,1.6241797E3,0E0,0E0,0E0,0E0,0E0,0E0,0E0,0E0],"parents":[2147483647,0,0,1,1,2,2,3,3,4,4,5,5,6,6],"right_children":[2,4,6,8,10,12,14,-1,-1,-1,-1,-1,-1,-1,-1],"split_conditions":[4.4333332E1,2.6333334E1,5.8E1,2.3499481E1,1.1525623E1,1.7566378E1,2.4087738E1,-8.785077E-2,-1.7613754E-1,6.4770155E-2,-2.0748872E-2,1.2670854E-1,3.3092137E-2,1.9080661E-1,6.5844536E-2],"split_indices":[0,0,0,3,3,3,3,0,0,0,0,0,0,0,0],"split_type":[0,0,0,0,0,0,0,0,0,0,0,0,0,0,0],"sum_hessian":[1.145E3,8.07E2,3.38E2,2.87E2,5.2E2,2.14E2,1.24E2,1.96E2,9.1E1,5.6E1,4.64E2,1.06E2,1.08E2,1.11E2,1.3E1],"tree_param":{"num_deleted":"0","num_feature":"5","num_nodes":"15","size_leaf_vector":"1"}},{"base_weights":[-4.793723E-4,-7.622247E0,7.3214593E0,-1.3699684E1,-4.505799E0,3.7145205E0,1.625169E1,-2.0495404E-1,-1.163201E-1,-3.2677375E-2,-1.392888E-1,6.274489E-2,-1.41295E-2,1.7301413E-1,5.9040688E-2],"categories":[],"categories_nodes":[],"categories_segments":[],"categories_sizes":[],"default_left":[0,0,0,0,0,0,0,0,0,0,0,0,0,0,0],"id":17,"left_children":[1,3,5,7,9,11,13,-1,-1,-1,-1,-1,-1,-1,-1],"loss_changes":[6.400965E4,1.0580742E4,1.8780951E4,2.4281367E3,4.304315E3,5.496089E3,1.7203711E3,0E0,0E0,0E0,0E0,0E0,0E0,0E0,0E0],"parents":[2147483647,0,0,1,1,2,2,3,3,4,4,5,5,6,6],"right_children":[2,4,6,8,10,12,14,-1,-1,-1,-1,-1,-1,-1,-1],"split_conditions":[3.5333332E1,2.2333334E1,5.5E1,1.3666667E1,2.6064596E1,2.0316889E1,2.4087738E1,-2.0495404E-1,-1.163201E-1,-3.2677375E-2,-1.392888E-1,6.274489E-2,-1.41295E-2,1.7301413E-1,5.9040688E-2],"split_indices":[0,0,0,0,3,3,3,0,0,0,0,0,0,0,0],"split_type":[0,0,0,0,0,0,0,0,0,0,0,0,0,0,0],"sum_hessian":[1.145E3,5.61E2,5.84E2,1.89E2,3.72E2,4.17E2,1.67E2,4.2E1,1.47E2,3.3E2,4.2E1,2.78E2,1.39E2,1.51E2,1.6E1],"tree_param":{"num_deleted":"0","num_feature":"5","num_nodes":"15","size_leaf_vector":"1"}},{"base_weights":[-6.609632E-4,-4.794956E0,1.1426156E1,-1.20507765E1,-1.4463472E0,7.842132E0,1.7498468E1,-8.431238E-2,-1.659598E-1,6.634625E-2,-2.3866894E-2,1.2462559E-1,3.2336198E-2,1.8720086E-1,6.468488E-2],"categories":[],"categories_nodes":[],"categories_segments":[],"categories_sizes":[],"default_left":[0,0,0,0,0,0,0,0,0,0,0,0,0,0,0],"id":18,"left_children":[1,3,5,7,9,11,13,-1,-1,-1,-1,-1,-1,-1,-1],"loss_changes":[6.2836055E4,1.9613121E4,7.238004E3,4.0527188E3,4.22519E3,4.5361895E3,1.5606914E3,0E0,0E0,0E0,0E0,0E0,0E0,0E0,0E0],"parents":[2147483647,0,0,1,1,2,2,3,3,4,4,5,5,6,6],"right_children":[2,4,6,8,10,12,14,-1,-1,-1,-1,-1,-1,-1,-1],"split_conditions":[4.4333332E1,2.4666666E1,5.8E1,2.0945072E1,1.1525623E1,1.7566378E1,2.4087738E1,-8.431238E-2,-1.659598E-1,6.634625E-2,-2.3866894E-2,1.2462559E-1,3.2336198E-2,1.8720086E-1,6.468488E-2],"split_indices":[0,0,0,3,3,3,3,0,0,0,0,0,0,0,0],"split_type":[0,0,0,0,0,0,0,0,0,0,0,0,0,0,0],"sum_hessian":[1.145E3,8.07E2,3.38E2,2.54E2,5.53E2,2.14E2,1.24E2,1.43E2,1.11E2,5.7E1,4.96E2,1.06E2,1.08E2,1.11E2,1.3E1],"tree_param":{"num_deleted":"0","num_feature":"5","num_nodes":"15","size_leaf_vector":"1"}},{"base_weights":[-4.7596038E-4,-7.48333E0,7.18801E0,-1.3931787E1,-4.65101E0,3.6519823E0,1.5942603E1,-9.8136365E-2,-1.7199701E-1,-3.4684073E-2,-1.369089E-1,6.1731447E-2,-1.3977055E-2,1.6972175E-1,5.7933297E-2],"categories":[],"categories_nodes":[],"categories_segments":[],"categories_sizes":[],"default_left":[0,0,0,0,0,0,0,0,0,0,0,0,0,0,0],"id":19,"left_children":[1,3,5,7,9,11,13,-1,-1,-1,-1,-1,-1,-1,-1],"loss_changes":[6.1697613E4,1.0197766E4,1.8049363E4,2.1297852E3,4.141509E3,5.330698E3,1.6548984E3,0E0,0E0,0E0,0E0,0E0,0E0,0E0,0E0],"parents":[2147483647,0,0,1,1,2,2,3,3,4,4,5,5,6,6],"right_children":[2,4,6,8,10,12,14,-1,-1,-1,-1,-1,-1,-1,-1],"split_conditions":[3.5333332E1,2.1666666E1,5.5E1,1.9008547E1,2.6064596E1,2.0316889E1,2.4087738E1,-9.8136365E-2,-1.7199701E-1,-3.4684073E-2,-1.369089E-1,6.1731447E-2,-1.3977055E-2,1.6972175E-1,5.7933297E-2],"split_indices":[0,0,0,3,3,3,3,0,0,0,0,0,0,0,0],"split_type":[0,0,0,0,0,0,0,0,0,0,0,0,0,0,0],"sum_hessian":[1.145E3,5.61E2,5.84E2,1.7E2,3.91E2,4.17E2,1.67E2,7.7E1,9.3E1,3.47E2,4.4E1,2.78E2,1.39E2,1.51E2,1.6E1],"tree_param":{"num_deleted":"0","num_feature":"5","num_nodes":"15","size_leaf_vector":"1"}},{"base_weights":[-6.180695E-4,-4.706783E0,1.1216142E1,-1.1200322E1,-1.1080378E0,7.7026806E0,1.7168766E1,-8.4298216E-2,-1.7009975E-1,6.29995E-2,-2.013946E-2,1.2257756E-1,3.1595994E-2,1.8366347E-1,6.354628E-2],"categories":[],"categories_nodes":[],"categories_segments":[],"categories_sizes":[],"default_left":[0,0,0,0,0,0,0,0,0,0,0,0,0,0,0],"id":20,"left_children":[1,3,5,7,9,11,13,-1,-1,-1,-1,-1,-1,-1,-1],"loss_changes":[6.0547094E4,1.8868182E4,6.9552188E3,4.4896055E3,3.5086675E3,4.408957E3,1.4996719E3,0E0,0E0,0E0,0E0,0E0,0E0,0E0,0E0],"parents":[2147483647,0,0,1,1,2,2,3,3,4,4,5,5,6,6],"right_children":[2,4,6,8,10,12,14,-1,-1,-1,-1,-1,-1,-1,-1],"split_conditions":[4.4333332E1,2.6333334E1,5.8E1,2.3499481E1,1.1525623E1,1.7566378E1,2.4087738E1,-8.4298216E-2,-1.7009975E-1,6.29995E-2,-2.013946E-2,1.2257756E-1,3.1595994E-2,1.8366347E-1,6.354628E-2],"split_indices":[0,0,0,3,3,3,3,0,0,0,0,0,0,0,0],"split_type":[0,0,0,0,0,0,0,0,0,0,0,0,0,0,0],"sum_hessian":[1.145E3,8.07E2,3.38E2,2.87E2,5.2E2,2.14E2,1.24E2,1.96E2,9.1E1,5.6E1,4.64E2,1.06E2,1.08E2,1.11E2,1.3E1],"tree_param":{"num_deleted":"0","num_feature":"5","num_nodes":"15","size_leaf_vector":"1"}},{"base_weights":[-4.4436762E-4,-7.3457828E0,7.0559325E0,-1.3681649E1,-4.5629287E0,3.5890176E0,1.5639353E1,-1.9901475E-1,-1.1501538E-1,-3.398957E-2,-1.3460687E-1,6.0721982E-2,-1.3845284E-2,1.664916E-1,5.684634E-2],"categories":[],"categories_nodes":[],"categories_segments":[],"categories_sizes":[],"default_left":[0,0,0,0,0,0,0,0,0,0,0,0,0,0,0],"id":21,"left_children":[1,3,5,7,9,11,13,-1,-1,-1,-1,-1,-1,-1,-1],"loss_changes":[5.9450734E4,9.844814E3,1.735037E4,2.086709E3,4.0124019E3,5.1712656E3,1.591918E3,0E0,0E0,0E0,0E0,0E0,0E0,0E0,0E0],"parents":[2147483647,0,0,1,1,2,2,3,3,4,4,5,5,6,6],"right_children":[2,4,6,8,10,12,14,-1,-1,-1,-1,-1,-1,-1,-1],"split_conditions":[3.5333332E1,2.1666666E1,5.5E1,1.3666667E1,2.6064596E1,2.0316889E1,2.4087738E1,-1.9901475E-1,-1.1501538E-1,-3.398957E-2,-1.3460687E-1,6.0721982E-2,-1.3845284E-2,1.664916E-1,5.684634E-2],"split_indices":[0,0,0,0,3,3,3,0,0,0,0,0,0,0,0],"split_type":[0,0,0,0,0,0,0,0,0,0,0,0,0,0,0],"sum_hessian":[1.145E3,5.61E2,5.84E2,1.7E2,3.91E2,4.17E2,1.67E2,4.2E1,1.28E2,3.47E2,4.4E1,2.78E2,1.39E2,1.51E2,1.6E1],"tree_param":{"num_deleted":"0","num_feature":"5","num_nodes":"15","size_leaf_vector":"1"}},{"base_weights":[-6.265644E-4,-4.6203146E0,1.1010017E1,-1.1600004E1,-1.3991208E0,7.5657325E0,1.6845308E1,-8.085685E-2,-1.601395E-1,6.4654976E-2,-2.3143092E-2,1.2056399E-1,3.0871352E-2,1.8019319E-1,6.2428355E-2],"categories":[],"categories_nodes":[],"categories_segments":[],"categories_sizes":[],"default_left":[0,0,0,0,0,0,0,0,0,0,0,0,0,0,0],"id":22,"left_children":[1,3,5,7,9,11,13,-1,-1,-1,-1,-1,-1,-1,-1],"loss_changes":[5.8342367E4,1.8148682E4,6.683465E3,3.823668E3,4.0020244E3,4.2853223E3,1.4410117E3,0E0,0E0,0E0,0E0,0E0,0E0,0E0,0E0],"parents":[2147483647,0,0,1,1,2,2,3,3,4,4,5,5,6,6],"right_children":[2,4,6,8,10,12,14,-1,-1,-1,-1,-1,-1,-1,-1],"split_conditions":[4.4333332E1,2.4666666E1,5.8E1,2.0945072E1,1.1525623E1,1.7566378E1,2.4087738E1,-8.085685E-2,-1.601395E-1,6.4654976E-2,-2.3143092E-2,1.2056399E-1,3.0871352E-2,1.8019319E-1,6.2428355E-2],"split_indices":[0,0,0,3,3,3,3,0,0,0,0,0,0,0,0],"split_type":[0,0,0,0,0,0,0,0,0,0,0,0,0,0,0],"sum_hessian":[1.145E3,8.07E2,3.38E2,2.54E2,5.53E2,2.14E2,1.24E2,1.43E2,1.11E2,5.7E1,4.96E2,1.06E2,1.08E2,1.11E2,1.3E1],"tree_param":{"num_deleted":"0","num_feature":"5","num_nodes":"15","size_leaf_vector":"1"}},{"base_weights":[-4.4774625E-4,-7.2119365E0,6.9273424E0,-1.3430124E1,-4.4807577E0,3.5286324E0,1.5341826E1,-1.9582015E-1,-1.1274609E-1,-3.3330347E-2,-1.3254689E-1,5.9741434E-2,-1.3694117E-2,1.6332248E-1,5.5779446E-2],"categories":[],"categories_nodes":[],"categories_segments":[],"categories_sizes":[],"default_left":[0,0,0,0,0,0,0,0,0,0,0,0,0,0,0],"id":23,"left_children":[1,3,5,7,9,11,13,-1,-1,-1,-1,-1,-1,-1,-1],"loss_changes":[5.730378E4,9.482471E3,1.6674037E4,2.0436816E3,3.90162E3,5.0155376E3,1.531332E3,0E0,0E0,0E0,0E0,0E0,0E0,0E0,0E0],"parents":[2147483647,0,0,1,1,2,2,3,3,4,4,5,5,6,6],"right_children":[2,4,6,8,10,12,14,-1,-1,-1,-1,-1,-1,-1,-1],"split_conditions":[3.5333332E1,2.1666666E1,5.5E1,1.3666667E1,2.6064596E1,2.0316889E1,2.4087738E1,-1.9582015E-1,-1.1274609E-1,-3.3330347E-2,-1.3254689E-1,5.9741434E-2,-1.3694117E-2,1.6332248E-1,5.5779446E-2],"split_indices":[0,0,0,0,3,3,3,0,0,0,0,0,0,0,0],"split_type":[0,0,0,0,0,0,0,0,0,0,0,0,0,0,0],"sum_hessian":[1.145E3,5.61E2,5.84E2,1.7E2,3.91E2,4.17E2,1.67E2,4.2E1,1.28E2,3.47E2,4.4E1,2.78E2,1.39E2,1.51E2,1.6E1],"tree_param":{"num_deleted":"0","num_feature":"5","num_nodes":"15","size_leaf_vector":"1"}},{"base_weights":[-6.2715355E-4,-4.5354333E0,1.0807703E1,-1.0782874E1,-1.073056E0,7.431232E0,1.6527971E1,-8.0833405E-2,-1.6445106E-1,6.128661E-2,-1.9537546E-2,1.1858418E-1,3.0161848E-2,1.7678869E-1,6.133072E-2],"categories":[],"categories_nodes":[],"categories_segments":[],"categories_sizes":[],"default_left":[0,0,0,0,0,0,0,0,0,0,0,0,0,0,0],"id":24,"left_children":[1,3,5,7,9,11,13,-1,-1,-1,-1,-1,-1,-1,-1],"loss_changes":[5.6218066E4,1.7465094E4,6.422336E3,4.2668047E3,3.3160205E3,4.1651865E3,1.3846289E3,0E0,0E0,0E0,0E0,0E0,0E0,0E0,0E0],"parents":[2147483647,0,0,1,1,2,2,3,3,4,4,5,5,6,6],"right_children":[2,4,6,8,10,12,14,-1,-1,-1,-1,-1,-1,-1,-1],"split_conditions":[4.4333332E1,2.6333334E1,5.8E1,2.3499481E1,1.1525623E1,1.7566378E1,2.4087738E1,-8.0833405E-2,-1.6445106E-1,6.128661E-2,-1.9537546E-2,1.1858418E-1,3.0161848E-2,1.7678869E-1,6.133072E-2],"split_indices":[0,0,0,3,3,3,3,0,0,0,0,0,0,0,0],"split_type":[0,0,0,0,0,0,0,0,0,0,0,0,0,0,0],"sum_hessian":[1.145E3,8.07E2,3.38E2,2.87E2,5.2E2,2.14E2,1.24E2,1.96E2,9.1E1,5.6E1,4.64E2,1.06E2,1.08E2,1.11E2,1.3E1],"tree_param":{"num_deleted":"0","num_feature":"5","num_nodes":"15","size_leaf_vector":"1"}},{"base_weights":[-4.5770576E-4,-7.079486E0,6.80008E0,-1.31894E1,-4.3958774E0,3.467847E0,1.504992E1,-1.9276793E-1,-1.1057249E-1,-3.2662287E-2,-1.3031916E-1,5.8764927E-2,-1.3562961E-2,1.6021326E-1,5.473226E-2],"categories":[],"categories_nodes":[],"categories_segments":[],"categories_sizes":[],"default_left":[0,0,0,0,0,0,0,0,0,0,0,0,0,0,0],"id":25,"left_children":[1,3,5,7,9,11,13,-1,-1,-1,-1,-1,-1,-1,-1],"loss_changes":[5.5217984E4,9.15516E3,1.6027832E4,2.0032676E3,3.7800347E3,4.865438E3,1.4730391E3,0E0,0E0,0E0,0E0,0E0,0E0,0E0,0E0],"parents":[2147483647,0,0,1,1,2,2,3,3,4,4,5,5,6,6],"right_children":[2,4,6,8,10,12,14,-1,-1,-1,-1,-1,-1,-1,-1],"split_conditions":[3.5333332E1,2.1666666E1,5.5E1,1.3666667E1,2.6064596E1,2.0316889E1,2.4087738E1,-1.9276793E-1,-1.1057249E-1,-3.2662287E-2,-1.3031916E-1,5.8764927E-2,-1.3562961E-2,1.6021326E-1,5.473226E-2],"split_indices":[0,0,0,0,3,3,3,0,0,0,0,0,0,0,0],"split_type":[0,0,0,0,0,0,0,0,0,0,0,0,0,0,0],"sum_hessian":[1.145E3,5.61E2,5.84E2,1.7E2,3.91E2,4.17E2,1.67E2,4.2E1,1.28E2,3.47E2,4.4E1,2.78E2,1.39E2,1.51E2,1.6E1],"tree_param":{"num_deleted":"0","num_feature":"5","num_nodes":"15","size_leaf_vector":"1"}},{"base_weights":[-6.3454994E-4,-4.452133E0,1.0609134E1,-1.2257173E1,-1.7781861E0,7.2991447E0,1.6216642E1,-9.0060584E-2,-1.6186747E-1,-7.2039845E-3,-9.214072E-2,1.1663764E-1,2.9467277E-2,1.7344877E-1,6.0253005E-2],"categories":[],"categories_nodes":[],"categories_segments":[],"categories_sizes":[],"default_left":[0,0,0,0,0,0,0,0,0,0,0,0,0,0,0],"id":26,"left_children":[1,3,5,7,9,11,13,-1,-1,-1,-1,-1,-1,-1,-1],"loss_changes":[5.417148E4,1.6839973E4,6.1713867E3,2.483455E3,4.735318E3,4.0484482E3,1.3304336E3,0E0,0E0,0E0,0E0,0E0,0E0,0E0,0E0],"parents":[2147483647,0,0,1,1,2,2,3,3,4,4,5,5,6,6],"right_children":[2,4,6,8,10,12,14,-1,-1,-1,-1,-1,-1,-1,-1],"split_conditions":[4.4333332E1,2.3E1,5.8E1,2.0945072E1,2.5671938E1,1.7566378E1,2.4087738E1,-9.0060584E-2,-1.6186747E-1,-7.2039845E-3,-9.214072E-2,1.1663764E-1,2.9467277E-2,1.7344877E-1,6.0253005E-2],"split_indices":[0,0,0,3,3,3,3,0,0,0,0,0,0,0,0],"split_type":[0,0,0,0,0,0,0,0,0,0,0,0,0,0,0],"sum_hessian":[1.145E3,8.07E2,3.38E2,2.05E2,6.02E2,2.14E2,1.24E2,1.14E2,9.1E1,5.28E2,7.4E1,1.06E2,1.08E2,1.11E2,1.3E1],"tree_param":{"num_deleted":"0","num_feature":"5","num_nodes":"15","size_leaf_vector":"1"}},{"base_weights":[-6.0345983E-4,-6.9541383E0,6.6793747E0,-1.2936996E1,-4.326274E0,3.4140248E0,1.4763522E1,-1.8958794E-1,-1.08286686E-1,-3.2169536E-2,-1.2806654E-1,5.78313E-2,-1.3309348E-2,1.5716277E-1,5.3704362E-2],"categories":[],"categories_nodes":[],"categories_segments":[],"categories_sizes":[],"default_left":[0,0,0,0,0,0,0,0,0,0,0,0,0,0,0],"id":27,"left_children":[1,3,5,7,9,11,13,-1,-1,-1,-1,-1,-1,-1,-1],"loss_changes":[5.327756E4,8.778146E3,1.5390357E4,1.9627246E3,3.6449224E3,4.7070083E3,1.4169766E3,0E0,0E0,0E0,0E0,0E0,0E0,0E0,0E0],"parents":[2147483647,0,0,1,1,2,2,3,3,4,4,5,5,6,6],"right_children":[2,4,6,8,10,12,14,-1,-1,-1,-1,-1,-1,-1,-1],"split_conditions":[3.5333332E1,2.1666666E1,5.5E1,1.3666667E1,2.6064596E1,2.0316889E1,2.4087738E1,-1.8958794E-1,-1.08286686E-1,-3.2169536E-2,-1.2806654E-1,5.78313E-2,-1.3309348E-2,1.5716277E-1,5.3704362E-2],"split_indices":[0,0,0,0,3,3,3,0,0,0,0,0,0,0,0],"split_type":[0,0,0,0,0,0,0,0,0,0,0,0,0,0,0],"sum_hessian":[1.145E3,5.61E2,5.84E2,1.7E2,3.91E2,4.17E2,1.67E2,4.2E1,1.28E2,3.47E2,4.4E1,2.78E2,1.39E2,1.51E2,1.6E1],"tree_param":{"num_deleted":"0","num_feature":"5","num_nodes":"15","size_leaf_vector":"1"}},{"base_weights":[-7.748682E-4,-6.8854175E0,6.6130195E0,-1.2368619E1,-4.0736375E0,3.3799891E0,1.4617149E1,-1.8773617E-1,-1.04234606E-1,-2.9371496E-2,-1.272489E-1,5.7255063E-2,-1.3177205E-2,1.556015E-1,5.3198915E-2],"categories":[],"categories_nodes":[],"categories_segments":[],"categories_sizes":[],"default_left":[0,0,0,0,0,0,0,0,0,0,0,0,0,0,0],"id":28,"left_children":[1,3,5,7,9,11,13,-1,-1,-1,-1,-1,-1,-1,-1],"loss_changes":[5.222708E4,8.612635E3,1.5087184E4,2.1685547E3,3.6284106E3,4.6137427E3,1.3880469E3,0E0,0E0,0E0,0E0,0E0,0E0,0E0,0E0],"parents":[2147483647,0,0,1,1,2,2,3,3,4,4,5,5,6,6],"right_children":[2,4,6,8,10,12,14,-1,-1,-1,-1,-1,-1,-1,-1],"split_conditions":[3.5333332E1,2.2333334E1,5.5E1,1.3666667E1,2.6064596E1,2.0316889E1,2.4087738E1,-1.8773617E-1,-1.04234606E-1,-2.9371496E-2,-1.272489E-1,5.7255063E-2,-1.3177205E-2,1.556015E-1,5.3198915E-2],"split_indices":[0,0,0,0,3,3,3,0,0,0,0,0,0,0,0],"split_type":[0,0,0,0,0,0,0,0,0,0,0,0,0,0,0],"sum_hessian":[1.145E3,5.61E2,5.84E2,1.89E2,3.72E2,4.17E2,1.67E2,4.2E1,1.47E2,3.3E2,4.2E1,2.78E2,1.39E2,1.51E2,1.6E1],"tree_param":{"num_deleted":"0","num_feature":"5","num_nodes":"15","size_leaf_vector":"1"}},{"base_weights":[-9.3853404E-4,-4.333416E0,1.0325147E1,-1.0289207E1,-1.0326457E0,7.1124973E0,1.5767501E1,-7.671266E-2,-1.578209E-1,6.008184E-2,-1.8937094E-2,1.1397257E-1,2.8401874E-2,1.6863005E-1,5.870084E-2],"categories":[],"categories_nodes":[],"categories_segments":[],"categories_sizes":[],"default_left":[0,0,0,0,0,0,0,0,0,0,0,0,0,0,0],"id":29,"left_children":[1,3,5,7,9,11,13,-1,-1,-1,-1,-1,-1,-1,-1],"loss_changes":[5.1313355E4,1.5872473E4,5.8127656E3,4.018037E3,3.1695828E3,3.901958E3,1.2540723E3,0E0,0E0,0E0,0E0,0E0,0E0,0E0,0E0],"parents":[2147483647,0,0,1,1,2,2,3,3,4,4,5,5,6,6],"right_children":[2,4,6,8,10,12,14,-1,-1,-1,-1,-1,-1,-1,-1],"split_conditions":[4.4333332E1,2.6333334E1,5.8E1,2.3499481E1,1.1525623E1,1.7566378E1,2.4087738E1,-7.671266E-2,-1.578209E-1,6.008184E-2,-1.8937094E-2,1.1397257E-1,2.8401874E-2,1.6863005E-1,5.870084E-2],"split_indices":[0,0,0,3,3,3,3,0,0,0,0,0,0,0,0],"split_type":[0,0,0,0,0,0,0,0,0,0,0,0,0,0,0],"sum_hessian":[1.145E3,8.07E2,3.38E2,2.87E2,5.2E2,2.14E2,1.24E2,1.96E2,9.1E1,5.6E1,4.64E2,1.06E2,1.08E2,1.11E2,1.3E1],"tree_param":{"num_deleted":"0","num_feature":"5","num_nodes":"15","size_leaf_vector":"1"}},{"base_weights":[-7.724782E-4,-6.758918E0,6.4914985E0,-1.258194E1,-4.2012763E0,3.3217852E0,1.4338813E1,-8.696481E-2,-1.567113E-1,-3.1198744E-2,-1.24685325E-1,1.1431301E-1,1.9832205E-2,1.5263696E-1,5.2199204E-2],"categories":[],"categories_nodes":[],"categories_segments":[],"categories_sizes":[],"default_left":[0,0,0,0,0,0,0,0,0,0,0,0,0,0,0],"id":30,"left_children":[1,3,5,7,9,11,13,-1,-1,-1,-1,-1,-1,-1,-1],"loss_changes":[5.032547E4,8.315443E3,1.450174E4,1.9137793E3,3.4641094E3,4.5134243E3,1.3351758E3,0E0,0E0,0E0,0E0,0E0,0E0,0E0,0E0],"parents":[2147483647,0,0,1,1,2,2,3,3,4,4,5,5,6,6],"right_children":[2,4,6,8,10,12,14,-1,-1,-1,-1,-1,-1,-1,-1],"split_conditions":[3.5333332E1,2.1666666E1,5.5E1,1.9008547E1,2.6064596E1,1.1542478E1,2.4087738E1,-8.696481E-2,-1.567113E-1,-3.1198744E-2,-1.24685325E-1,1.1431301E-1,1.9832205E-2,1.5263696E-1,5.2199204E-2],"split_indices":[0,0,0,3,3,3,3,0,0,0,0,0,0,0,0],"split_type":[0,0,0,0,0,0,0,0,0,0,0,0,0,0,0],"sum_hessian":[1.145E3,5.61E2,5.84E2,1.7E2,3.91E2,4.17E2,1.67E2,7.7E1,9.3E1,3.47E2,4.4E1,5.8E1,3.59E2,1.51E2,1.6E1],"tree_param":{"num_deleted":"0","num_feature":"5","num_nodes":"15","size_leaf_vector":"1"}},{"base_weights":[-8.163439E-4,-4.2539396E0,1.0136128E1,-1.1691006E1,-1.7060299E0,6.987034E0,1.5470683E1,-8.541483E-2,-1.5499745E-1,-6.873564E-3,-8.8669926E-2,1.1219571E-1,2.7671384E-2,1.6544604E-1,5.7671044E-2],"categories":[],"categories_nodes":[],"categories_segments":[],"categories_sizes":[],"default_left":[0,0,0,0,0,0,0,0,0,0,0,0,0,0,0],"id":31,"left_children":[1,3,5,7,9,11,13,-1,-1,-1,-1,-1,-1,-1,-1],"loss_changes":[4.9450805E4,1.5289483E4,5.5845273E3,2.3363242E3,4.391644E3,3.8076426E3,1.2049668E3,0E0,0E0,0E0,0E0,0E0,0E0,0E0,0E0],"parents":[2147483647,0,0,1,1,2,2,3,3,4,4,5,5,6,6],"right_children":[2,4,6,8,10,12,14,-1,-1,-1,-1,-1,-1,-1,-1],"split_conditions":[4.4333332E1,2.3E1,5.8E1,2.0945072E1,2.5671938E1,1.7566378E1,2.4087738E1,-8.541483E-2,-1.5499745E-1,-6.873564E-3,-8.8669926E-2,1.1219571E-1,2.7671384E-2,1.6544604E-1,5.7671044E-2],"split_indices":[0,0,0,3,3,3,3,0,0,0,0,0,0,0,0],"split_type":[0,0,0,0,0,0,0,0,0,0,0,0,0,0,0],"sum_hessian":[1.145E3,8.07E2,3.38E2,2.05E2,6.02E2,2.14E2,1.24E2,1.14E2,9.1E1,5.28E2,7.4E1,1.06E2,1.08E2,1.11E2,1.3E1],"tree_param":{"num_deleted":"0","num_feature":"5","num_nodes":"15","size_leaf_vector":"1"}},{"base_weights":[-7.8353117E-4,-6.6391535E0,6.376421E0,-1.2340897E1,-4.1347218E0,3.2704878E0,1.4065728E1,-1.82255E-1,-1.028292E-1,-3.0728336E-2,-1.22525476E-1,1.1279269E-1,1.948575E-2,1.4972839E-1,5.1218066E-2],"categories":[],"categories_nodes":[],"categories_segments":[],"categories_sizes":[],"default_left":[0,0,0,0,0,0,0,0,0,0,0,0,0,0,0],"id":32,"left_children":[1,3,5,7,9,11,13,-1,-1,-1,-1,-1,-1,-1,-1],"loss_changes":[4.85574E4,7.9724785E3,1.3923512E4,1.8806113E3,3.3399434E3,4.4020273E3,1.2843125E3,0E0,0E0,0E0,0E0,0E0,0E0,0E0,0E0],"parents":[2147483647,0,0,1,1,2,2,3,3,4,4,5,5,6,6],"right_children":[2,4,6,8,10,12,14,-1,-1,-1,-1,-1,-1,-1,-1],"split_conditions":[3.5333332E1,2.1666666E1,5.5E1,1.3666667E1,2.6064596E1,1.1542478E1,2.4087738E1,-1.82255E-1,-1.028292E-1,-3.0728336E-2,-1.22525476E-1,1.1279269E-1,1.948575E-2,1.4972839E-1,5.1218066E-2],"split_indices":[0,0,0,0,3,3,3,0,0,0,0,0,0,0,0],"split_type":[0,0,0,0,0,0,0,0,0,0,0,0,0,0,0],"sum_hessian":[1.145E3,5.61E2,5.84E2,1.7E2,3.91E2,4.17E2,1.67E2,4.2E1,1.28E2,3.47E2,4.4E1,5.8E1,3.59E2,1.51E2,1.6E1],"tree_param":{"num_deleted":"0","num_feature":"5","num_nodes":"15","size_leaf_vector":"1"}},{"base_weights":[-8.666656E-4,-4.1761622E0,9.950578E0,-9.911187E0,-9.977297E-1,6.8637686E0,1.5179483E1,-7.369484E-2,-1.5244928E-1,5.8443464E-2,-1.8345052E-2,1.1044721E-1,2.6956426E-2,1.6232246E-1,5.6659922E-2],"categories":[],"categories_nodes":[],"categories_segments":[],"categories_sizes":[],"default_left":[0,0,0,0,0,0,0,0,0,0,0,0,0,0,0],"id":33,"left_children":[1,3,5,7,9,11,13,-1,-1,-1,-1,-1,-1,-1,-1],"loss_changes":[4.7657527E4,1.4717558E4,5.3652812E3,3.789746E3,2.993192E3,3.7156025E3,1.1577695E3,0E0,0E0,0E0,0E0,0E0,0E0,0E0,0E0],"parents":[2147483647,0,0,1,1,2,2,3,3,4,4,5,5,6,6],"right_children":[2,4,6,8,10,12,14,-1,-1,-1,-1,-1,-1,-1,-1],"split_conditions":[4.4333332E1,2.6333334E1,5.8E1,2.3499481E1,1.1525623E1,1.7566378E1,2.4087738E1,-7.369484E-2,-1.5244928E-1,5.8443464E-2,-1.8345052E-2,1.1044721E-1,2.6956426E-2,1.6232246E-1,5.6659922E-2],"split_indices":[0,0,0,3,3,3,3,0,0,0,0,0,0,0,0],"split_type":[0,0,0,0,0,0,0,0,0,0,0,0,0,0,0],"sum_hessian":[1.145E3,8.07E2,3.38E2,2.87E2,5.2E2,2.14E2,1.24E2,1.96E2,9.1E1,5.6E1,4.64E2,1.06E2,1.08E2,1.11E2,1.3E1],"tree_param":{"num_deleted":"0","num_feature":"5","num_nodes":"15","size_leaf_vector":"1"}},{"base_weights":[-7.065332E-4,-6.5172234E0,6.2594357E0,-1.2119645E1,-4.056429E0,3.2144475E0,1.3797802E1,-1.7942534E-1,-1.00839555E-1,-3.203631E-2,-1.3880831E-1,5.4846626E-2,-1.3320129E-2,1.468748E-1,5.025515E-2],"categories":[],"categories_nodes":[],"categories_segments":[],"categories_sizes":[],"default_left":[0,0,0,0,0,0,0,0,0,0,0,0,0,0,0],"id":34,"left_children":[1,3,5,7,9,11,13,-1,-1,-1,-1,-1,-1,-1,-1],"loss_changes":[4.679111E4,7.6971797E3,1.3382174E4,1.8432305E3,3.2380889E3,4.322084E3,1.235377E3,0E0,0E0,0E0,0E0,0E0,0E0,0E0,0E0],"parents":[2147483647,0,0,1,1,2,2,3,3,4,4,5,5,6,6],"right_children":[2,4,6,8,10,12,14,-1,-1,-1,-1,-1,-1,-1,-1],"split_conditions":[3.5333332E1,2.1666666E1,5.5E1,1.3666667E1,2.7959742E1,2.0316889E1,2.4087738E1,-1.7942534E-1,-1.00839555E-1,-3.203631E-2,-1.3880831E-1,5.4846626E-2,-1.3320129E-2,1.468748E-1,5.025515E-2],"split_indices":[0,0,0,0,3,3,3,0,0,0,0,0,0,0,0],"split_type":[0,0,0,0,0,0,0,0,0,0,0,0,0,0,0],"sum_hessian":[1.145E3,5.61E2,5.84E2,1.7E2,3.91E2,4.17E2,1.67E2,4.2E1,1.28E2,3.61E2,3E1,2.78E2,1.39E2,1.51E2,1.6E1],"tree_param":{"num_deleted":"0","num_feature":"5","num_nodes":"15","size_leaf_vector":"1"}},{"base_weights":[-8.8598375E-4,-4.0995603E0,9.767933E0,-1.1260948E1,-1.646085E0,6.741882E0,1.4893798E1,-8.185456E-2,-1.4981824E-1,-6.555883E-3,-8.609107E-2,1.08637705E-1,2.6328541E-2,1.3915934E-1,2.7443057E-1],"categories":[],"categories_nodes":[],"categories_segments":[],"categories_sizes":[],"default_left":[0,0,0,0,0,0,0,0,0,0,0,0,0,0,0],"id":35,"left_children":[1,3,5,7,9,11,13,-1,-1,-1,-1,-1,-1,-1,-1],"loss_changes":[4.592441E4,1.4176967E4,5.1556953E3,2.232416E3,4.152231E3,3.6114932E3,1.1479004E3,0E0,0E0,0E0,0E0,0E0,0E0,0E0,0E0],"parents":[2147483647,0,0,1,1,2,2,3,3,4,4,5,5,6,6],"right_children":[2,4,6,8,10,12,14,-1,-1,-1,-1,-1,-1,-1,-1],"split_conditions":[4.4333332E1,2.3E1,5.8E1,2.0945072E1,2.5671938E1,1.7566378E1,2.4384085E1,-8.185456E-2,-1.4981824E-1,-6.555883E-3,-8.609107E-2,1.08637705E-1,2.6328541E-2,1.3915934E-1,2.7443057E-1],"split_indices":[0,0,0,3,3,3,1,0,0,0,0,0,0,0,0],"split_type":[0,0,0,0,0,0,0,0,0,0,0,0,0,0,0],"sum_hessian":[1.145E3,8.07E2,3.38E2,2.05E2,6.02E2,2.14E2,1.24E2,1.14E2,9.1E1,5.28E2,7.4E1,1.06E2,1.08E2,1.17E2,7E0],"tree_param":{"num_deleted":"0","num_feature":"5","num_nodes":"15","size_leaf_vector":"1"}},{"base_weights":[-6.799834E-4,-6.401899E0,6.1486974E0,-1.1887716E1,-3.9922643E0,3.1646416E0,1.3536118E1,-1.7647818E-1,-9.8747544E-2,-3.153139E-2,-1.3659075E-1,1.0999584E-1,1.8715132E-2,1.2340375E-1,2.0906027E-1],"categories":[],"categories_nodes":[],"categories_segments":[],"categories_sizes":[],"default_left":[0,0,0,0,0,0,0,0,0,0,0,0,0,0,0],"id":36,"left_children":[1,3,5,7,9,11,13,-1,-1,-1,-1,-1,-1,-1,-1],"loss_changes":[4.514997E4,7.3799277E3,1.2851508E4,1.8057012E3,3.1350225E3,4.213131E3,1.2191914E3,0E0,0E0,0E0,0E0,0E0,0E0,0E0,0E0],"parents":[2147483647,0,0,1,1,2,2,3,3,4,4,5,5,6,6],"right_children":[2,4,6,8,10,12,14,-1,-1,-1,-1,-1,-1,-1,-1],"split_conditions":[3.5333332E1,2.1666666E1,5.5E1,1.3666667E1,2.7959742E1,1.1542478E1,7.2666664E1,-1.7647818E-1,-9.8747544E-2,-3.153139E-2,-1.3659075E-1,1.0999584E-1,1.8715132E-2,1.2340375E-1,2.0906027E-1],"split_indices":[0,0,0,0,3,3,0,0,0,0,0,0,0,0,0],"split_type":[0,0,0,0,0,0,0,0,0,0,0,0,0,0,0],"sum_hessian":[1.145E3,5.61E2,5.84E2,1.7E2,3.91E2,4.17E2,1.67E2,4.2E1,1.28E2,3.61E2,3E1,5.8E1,3.59E2,1.46E2,2.1E1],"tree_param":{"num_deleted":"0","num_feature":"5","num_nodes":"15","size_leaf_vector":"1"}},{"base_weights":[-6.567341E-4,-4.0246444E0,9.590148E0,-9.549556E0,-9.6265006E-1,6.6257634E0,1.4611368E1,-7.070483E-2,-1.4753117E-1,5.7195757E-2,-1.7799065E-2,1.06984176E-1,2.5661329E-2,1.3641803E-1,2.7073538E-1],"categories":[],"categories_nodes":[],"categories_segments":[],"categories_sizes":[],"default_left":[0,0,0,0,0,0,0,0,0,0,0,0,0,0,0],"id":37,"left_children":[1,3,5,7,9,11,13,-1,-1,-1,-1,-1,-1,-1,-1],"loss_changes":[4.426594E4,1.3658893E4,4.9470195E3,3.608709E3,2.8550154E3,3.525917E3,1.136959E3,0E0,0E0,0E0,0E0,0E0,0E0,0E0,0E0],"parents":[2147483647,0,0,1,1,2,2,3,3,4,4,5,5,6,6],"right_children":[2,4,6,8,10,12,14,-1,-1,-1,-1,-1,-1,-1,-1],"split_conditions":[4.4333332E1,2.6333334E1,5.8E1,2.3499481E1,1.1525623E1,1.7566378E1,2.4384085E1,-7.070483E-2,-1.4753117E-1,5.7195757E-2,-1.7799065E-2,1.06984176E-1,2.5661329E-2,1.3641803E-1,2.7073538E-1],"split_indices":[0,0,0,3,3,3,1,0,0,0,0,0,0,0,0],"split_type":[0,0,0,0,0,0,0,0,0,0,0,0,0,0,0],"sum_hessian":[1.145E3,8.07E2,3.38E2,2.87E2,5.2E2,2.14E2,1.24E2,1.96E2,9.1E1,5.6E1,4.64E2,1.06E2,1.08E2,1.17E2,7E0],"tree_param":{"num_deleted":"0","num_feature":"5","num_nodes":"15","size_leaf_vector":"1"}},{"base_weights":[-3.3230506E-4,-6.2843843E0,6.036484E0,-1.2698046E1,-4.2857766E0,3.1104515E0,1.3280205E1,-1.7374222E-1,-1.0347785E-1,-2.7074575E-2,-9.466154E-2,5.3256094E-2,-1.3255456E-2,1.4159964E-1,4.6270438E-2],"categories":[],"categories_nodes":[],"categories_segments":[],"categories_sizes":[],"default_left":[0,0,0,0,0,0,0,0,0,0,0,0,0,0,0],"id":38,"left_children":[1,3,5,7,9,11,13,-1,-1,-1,-1,-1,-1,-1,-1],"loss_changes":[4.3512234E4,7.1478184E3,1.2356338E4,1.2791426E3,3.488957E3,4.1149097E3,1.2115391E3,0E0,0E0,0E0,0E0,0E0,0E0,0E0,0E0],"parents":[2147483647,0,0,1,1,2,2,3,3,4,4,5,5,6,6],"right_children":[2,4,6,8,10,12,14,-1,-1,-1,-1,-1,-1,-1,-1],"split_conditions":[3.5333332E1,1.9333334E1,5.5E1,1.3666667E1,2.2682856E1,2.0316889E1,2.4087738E1,-1.7374222E-1,-1.0347785E-1,-2.7074575E-2,-9.466154E-2,5.3256094E-2,-1.3255456E-2,1.4159964E-1,4.6270438E-2],"split_indices":[0,0,0,0,3,3,3,0,0,0,0,0,0,0,0],"split_type":[0,0,0,0,0,0,0,0,0,0,0,0,0,0,0],"sum_hessian":[1.145E3,5.61E2,5.84E2,1.32E2,4.29E2,4.17E2,1.67E2,4.2E1,9E1,3.3E2,9.9E1,2.78E2,1.39E2,1.51E2,1.6E1],"tree_param":{"num_deleted":"0","num_feature":"5","num_nodes":"15","size_leaf_vector":"1"}},{"base_weights":[-4.795837E-4,-3.95079E0,9.414716E0,-1.0851184E1,-1.5867237E0,6.508105E0,1.4337969E1,-7.85397E-2,-1.4478667E-1,-6.2211985E-3,-8.3679065E-2,1.0523163E-1,2.5060931E-2,1.3376644E-1,2.6712745E-1],"categories":[],"categories_nodes":[],"categories_segments":[],"categories_sizes":[],"default_left":[0,0,0,0,0,0,0,0,0,0,0,0,0,0,0],"id":39,"left_children":[1,3,5,7,9,11,13,-1,-1,-1,-1,-1,-1,-1,-1],"loss_changes":[4.265976E4,1.3162435E4,4.7556855E3,2.123754E3,3.9382114E3,3.4270117E3,1.1256875E3,0E0,0E0,0E0,0E0,0E0,0E0,0E0,0E0],"parents":[2147483647,0,0,1,1,2,2,3,3,4,4,5,5,6,6],"right_children":[2,4,6,8,10,12,14,-1,-1,-1,-1,-1,-1,-1,-1],"split_conditions":[4.4333332E1,2.3E1,5.8E1,2.0945072E1,2.5671938E1,1.7566378E1,2.4384085E1,-7.85397E-2,-1.4478667E-1,-6.2211985E-3,-8.3679065E-2,1.0523163E-1,2.5060931E-2,1.3376644E-1,2.6712745E-1],"split_indices":[0,0,0,3,3,3,1,0,0,0,0,0,0,0,0],"split_type":[0,0,0,0,0,0,0,0,0,0,0,0,0,0,0],"sum_hessian":[1.145E3,8.07E2,3.38E2,2.05E2,6.02E2,2.14E2,1.24E2,1.14E2,9.1E1,5.28E2,7.4E1,1.06E2,1.08E2,1.17E2,7E0],"tree_param":{"num_deleted":"0","num_feature":"5","num_nodes":"15","size_leaf_vector":"1"}},{"base_weights":[-2.835079E-4,-6.173151E0,5.9297194E0,-1.2464325E1,-4.2126875E0,3.0622842E0,1.302828E1,-1.7089292E-1,-1.0140832E-1,-2.6625568E-2,-9.300492E-2,1.07274E-1,1.7972726E-2,1.1850378E-1,2.0302068E-1],"categories":[],"categories_nodes":[],"categories_segments":[],"categories_sizes":[],"default_left":[0,0,0,0,0,0,0,0,0,0,0,0,0,0,0],"id":40,"left_children":[1,3,5,7,9,11,13,-1,-1,-1,-1,-1,-1,-1,-1],"loss_changes":[4.1986098E4,6.8773184E3,1.1865975E4,1.253207E3,3.3653477E3,4.0325884E3,1.1955898E3,0E0,0E0,0E0,0E0,0E0,0E0,0E0,0E0],"parents":[2147483647,0,0,1,1,2,2,3,3,4,4,5,5,6,6],"right_children":[2,4,6,8,10,12,14,-1,-1,-1,-1,-1,-1,-1,-1],"split_conditions":[3.5333332E1,1.9333334E1,5.5E1,1.3666667E1,2.2682856E1,1.1542478E1,7.2666664E1,-1.7089292E-1,-1.0140832E-1,-2.6625568E-2,-9.300492E-2,1.07274E-1,1.7972726E-2,1.1850378E-1,2.0302068E-1],"split_indices":[0,0,0,0,3,3,0,0,0,0,0,0,0,0,0],"split_type":[0,0,0,0,0,0,0,0,0,0,0,0,0,0,0],"sum_hessian":[1.145E3,5.61E2,5.84E2,1.32E2,4.29E2,4.17E2,1.67E2,4.2E1,9E1,3.3E2,9.9E1,5.8E1,3.59E2,1.46E2,2.1E1],"tree_param":{"num_deleted":"0","num_feature":"5","num_nodes":"15","size_leaf_vector":"1"}},{"base_weights":[-2.3096261E-4,-6.112121E0,5.8711925E0,-1.2341736E1,-4.1708403E0,3.031965E0,1.2899918E1,-1.6922373E-1,-1.0040537E-1,-2.6360108E-2,-9.208417E-2,5.204665E-2,-1.31885875E-2,1.3770595E-1,4.350331E-2],"categories":[],"categories_nodes":[],"categories_segments":[],"categories_sizes":[],"default_left":[0,0,0,0,0,0,0,0,0,0,0,0,0,0,0],"id":41,"left_children":[1,3,5,7,9,11,13,-1,-1,-1,-1,-1,-1,-1,-1],"loss_changes":[4.1160688E4,6.743385E3,1.1633643E4,1.2293398E3,3.2992246E3,3.9586216E3,1.1888652E3,0E0,0E0,0E0,0E0,0E0,0E0,0E0,0E0],"parents":[2147483647,0,0,1,1,2,2,3,3,4,4,5,5,6,6],"right_children":[2,4,6,8,10,12,14,-1,-1,-1,-1,-1,-1,-1,-1],"split_conditions":[3.5333332E1,1.9333334E1,5.5E1,1.3666667E1,2.2682856E1,2.0316889E1,2.4087738E1,-1.6922373E-1,-1.0040537E-1,-2.6360108E-2,-9.208417E-2,5.204665E-2,-1.31885875E-2,1.3770595E-1,4.350331E-2],"split_indices":[0,0,0,0,3,3,3,0,0,0,0,0,0,0,0],"split_type":[0,0,0,0,0,0,0,0,0,0,0,0,0,0,0],"sum_hessian":[1.145E3,5.61E2,5.84E2,1.32E2,4.29E2,4.17E2,1.67E2,4.2E1,9E1,3.3E2,9.9E1,2.78E2,1.39E2,1.51E2,1.6E1],"tree_param":{"num_deleted":"0","num_feature":"5","num_nodes":"15","size_leaf_vector":"1"}},{"base_weights":[-3.7679155E-4,-3.8456805E0,9.164537E0,-9.123273E0,-9.2074305E-1,6.3454547E0,1.3939242E1,-6.7291304E-2,-1.4149609E-1,5.5735935E-2,-1.7150579E-2,1.1365813E-1,3.225195E-2,1.2986742E-1,2.6233694E-1],"categories":[],"categories_nodes":[],"categories_segments":[],"categories_sizes":[],"default_left":[0,0,0,0,0,0,0,0,0,0,0,0,0,0,0],"id":42,"left_children":[1,3,5,7,9,11,13,-1,-1,-1,-1,-1,-1,-1,-1],"loss_changes":[4.0421906E4,1.2463393E4,4.4725586E3,3.3684219E3,2.6967769E3,3.3298203E3,1.1191953E3,0E0,0E0,0E0,0E0,0E0,0E0,0E0,0E0],"parents":[2147483647,0,0,1,1,2,2,3,3,4,4,5,5,6,6],"right_children":[2,4,6,8,10,12,14,-1,-1,-1,-1,-1,-1,-1,-1],"split_conditions":[4.4333332E1,2.6333334E1,5.8E1,2.3499481E1,1.1525623E1,1.5530151E1,2.4384085E1,-6.7291304E-2,-1.4149609E-1,5.5735935E-2,-1.7150579E-2,1.1365813E-1,3.225195E-2,1.2986742E-1,2.6233694E-1],"split_indices":[0,0,0,3,3,3,1,0,0,0,0,0,0,0,0],"split_type":[0,0,0,0,0,0,0,0,0,0,0,0,0,0,0],"sum_hessian":[1.145E3,8.07E2,3.38E2,2.87E2,5.2E2,2.14E2,1.24E2,1.96E2,9.1E1,5.6E1,4.64E2,8.1E1,1.33E2,1.17E2,7E0],"tree_param":{"num_deleted":"0","num_feature":"5","num_nodes":"15","size_leaf_vector":"1"}},{"base_weights":[-4.9479884E-5,-5.9998083E0,5.7636504E0,-1.2126787E1,-4.0905337E0,2.9798517E0,1.2655105E1,-1.6660295E-1,-9.85022E-2,-3.0891858E-2,-1.1636994E-1,1.0494644E-1,1.7397055E-2,1.1490999E-1,1.9853666E-1],"categories":[],"categories_nodes":[],"categories_segments":[],"categories_sizes":[],"default_left":[0,0,0,0,0,0,0,0,0,0,0,0,0,0,0],"id":43,"left_children":[1,3,5,7,9,11,13,-1,-1,-1,-1,-1,-1,-1,-1],"loss_changes":[3.966421E4,6.5230957E3,1.1183611E4,1.2059121E3,3.2119302E3,3.8760452E3,1.1765488E3,0E0,0E0,0E0,0E0,0E0,0E0,0E0,0E0],"parents":[2147483647,0,0,1,1,2,2,3,3,4,4,5,5,6,6],"right_children":[2,4,6,8,10,12,14,-1,-1,-1,-1,-1,-1,-1,-1],"split_conditions":[3.5333332E1,1.9333334E1,5.5E1,1.3666667E1,2.6064596E1,1.1542478E1,7.2666664E1,-1.6660295E-1,-9.85022E-2,-3.0891858E-2,-1.1636994E-1,1.0494644E-1,1.7397055E-2,1.1490999E-1,1.9853666E-1],"split_indices":[0,0,0,0,3,3,0,0,0,0,0,0,0,0,0],"split_type":[0,0,0,0,0,0,0,0,0,0,0,0,0,0,0],"sum_hessian":[1.145E3,5.61E2,5.84E2,1.32E2,4.29E2,4.17E2,1.67E2,4.2E1,9E1,3.8E2,4.9E1,5.8E1,3.59E2,1.46E2,2.1E1],"tree_param":{"num_deleted":"0","num_feature":"5","num_nodes":"15","size_leaf_vector":"1"}},{"base_weights":[-2.8279355E-5,-3.7753077E0,8.997983E0,-1.0367798E1,-1.51672E0,6.236497E0,1.3674955E1,-7.463998E-2,-1.3883767E-1,-5.827673E-3,-8.082645E-2,1.0147694E-1,2.3389317E-2,1.2730575E-1,2.5882697E-1],"categories":[],"categories_nodes":[],"categories_segments":[],"categories_sizes":[],"default_left":[0,0,0,0,0,0,0,0,0,0,0,0,0,0,0],"id":44,"left_children":[1,3,5,7,9,11,13,-1,-1,-1,-1,-1,-1,-1,-1],"loss_changes":[3.896308E4,1.2013977E4,4.291045E3,1.9974297E3,3.6921777E3,3.2525078E3,1.1077305E3,0E0,0E0,0E0,0E0,0E0,0E0,0E0,0E0],"parents":[2147483647,0,0,1,1,2,2,3,3,4,4,5,5,6,6],"right_children":[2,4,6,8,10,12,14,-1,-1,-1,-1,-1,-1,-1,-1],"split_conditions":[4.4333332E1,2.3E1,5.8E1,2.0945072E1,2.5671938E1,1.7566378E1,2.4384085E1,-7.463998E-2,-1.3883767E-1,-5.827673E-3,-8.082645E-2,1.0147694E-1,2.3389317E-2,1.2730575E-1,2.5882697E-1],"split_indices":[0,0,0,3,3,3,1,0,0,0,0,0,0,0,0],"split_type":[0,0,0,0,0,0,0,0,0,0,0,0,0,0,0],"sum_hessian":[1.145E3,8.07E2,3.38E2,2.05E2,6.02E2,2.14E2,1.24E2,1.14E2,9.1E1,5.28E2,7.4E1,1.06E2,1.08E2,1.17E2,7E0],"tree_param":{"num_deleted":"0","num_feature":"5","num_nodes":"15","size_leaf_vector":"1"}},{"base_weights":[-0E0,-5.8936315E0,5.662053E0,-1.1903515E1,-4.0208216E0,2.9338841E0,1.24157E1,-1.6387339E-1,-9.6528776E-2,-3.0373918E-2,-1.1432139E-1,1.0355374E-1,1.709157E-2,1.3276826E-1,3.9799996E-2],"categories":[],"categories_nodes":[],"categories_segments":[],"categories_sizes":[],"default_left":[0,0,0,0,0,0,0,0,0,0,0,0,0,0,0],"id":45,"left_children":[1,3,5,7,9,11,13,-1,-1,-1,-1,-1,-1,-1,-1],"loss_changes":[3.8275434E4,6.2760605E3,1.0740715E4,1.181375E3,3.0978882E3,3.7804226E3,1.1658203E3,0E0,0E0,0E0,0E0,0E0,0E0,0E0,0E0],"parents":[2147483647,0,0,1,1,2,2,3,3,4,4,5,5,6,6],"right_children":[2,4,6,8,10,12,14,-1,-1,-1,-1,-1,-1,-1,-1],"split_conditions":[3.5333332E1,1.9333334E1,5.5E1,1.3666667E1,2.6064596E1,1.1542478E1,2.4087738E1,-1.6387339E-1,-9.6528776E-2,-3.0373918E-2,-1.1432139E-1,1.0355374E-1,1.709157E-2,1.3276826E-1,3.9799996E-2],"split_indices":[0,0,0,0,3,3,3,0,0,0,0,0,0,0,0],"split_type":[0,0,0,0,0,0,0,0,0,0,0,0,0,0,0],"sum_hessian":[1.145E3,5.61E2,5.84E2,1.32E2,4.29E2,4.17E2,1.67E2,4.2E1,9E1,3.8E2,4.9E1,5.8E1,3.59E2,1.51E2,1.6E1],"tree_param":{"num_deleted":"0","num_feature":"5","num_nodes":"15","size_leaf_vector":"1"}},{"base_weights":[-0E0,-3.7063906E0,8.834017E0,-8.794423E0,-8.8650626E-1,6.5833263E0,1.438024E1,-6.467892E-2,-1.3679555E-1,6.4000584E-2,-1.5555907E-2,1.1180633E-1,3.5042644E-2,1.3072234E-1,3.5813108E-1],"categories":[],"categories_nodes":[],"categories_segments":[],"categories_sizes":[],"default_left":[0,0,0,0,0,0,0,0,0,0,0,0,0,0,0],"id":46,"left_children":[1,3,5,7,9,11,13,-1,-1,-1,-1,-1,-1,-1,-1],"loss_changes":[3.7555273E4,1.1584148E4,4.134914E3,3.1827441E3,2.5495168E3,3.3991113E3,2.2462852E3,0E0,0E0,0E0,0E0,0E0,0E0,0E0,0E0],"parents":[2147483647,0,0,1,1,2,2,3,3,4,4,5,5,6,6],"right_children":[2,4,6,8,10,12,14,-1,-1,-1,-1,-1,-1,-1,-1],"split_conditions":[4.4333332E1,2.6333334E1,6.0333332E1,2.3499481E1,1.0805998E1,1.5530151E1,2.4384085E1,-6.467892E-2,-1.3679555E-1,6.4000584E-2,-1.5555907E-2,1.1180633E-1,3.5042644E-2,1.3072234E-1,3.5813108E-1],"split_indices":[0,0,0,3,3,3,1,0,0,0,0,0,0,0,0],"split_type":[0,0,0,0,0,0,0,0,0,0,0,0,0,0,0],"sum_hessian":[1.145E3,8.07E2,3.38E2,2.87E2,5.2E2,2.42E2,9.6E1,1.96E2,9.1E1,4.3E1,4.77E2,9.6E1,1.46E2,9.2E1,4E0],"tree_param":{"num_deleted":"0","num_feature":"5","num_nodes":"15","size_leaf_vector":"1"}},{"base_weights":[3.0835668E-4,-5.7853956E0,5.5587106E0,-1.0762884E1,-3.5990796E0,2.8823986E0,1.2183948E1,-7.219839E-2,-1.3587295E-1,-2.8139831E-2,-1.2647656E-1,4.9893316E-2,-1.3362925E-2,1.1095562E-1,1.9678219E-1],"categories":[],"categories_nodes":[],"categories_segments":[],"categories_sizes":[],"default_left":[0,0,0,0,0,0,0,0,0,0,0,0,0,0,0],"id":47,"left_children":[1,3,5,7,9,11,13,-1,-1,-1,-1,-1,-1,-1,-1],"loss_changes":[3.688666E4,6.075717E3,1.0336125E4,1.6110195E3,2.7476338E3,3.7224258E3,1.1489004E3,0E0,0E0,0E0,0E0,0E0,0E0,0E0,0E0],"parents":[2147483647,0,0,1,1,2,2,3,3,4,4,5,5,6,6],"right_children":[2,4,6,8,10,12,14,-1,-1,-1,-1,-1,-1,-1,-1],"split_conditions":[3.5333332E1,2.1666666E1,5.5E1,1.9008547E1,2.7959742E1,2.0316889E1,7.3E1,-7.219839E-2,-1.3587295E-1,-2.8139831E-2,-1.2647656E-1,4.9893316E-2,-1.3362925E-2,1.1095562E-1,1.9678219E-1],"split_indices":[0,0,0,3,3,3,0,0,0,0,0,0,0,0,0],"split_type":[0,0,0,0,0,0,0,0,0,0,0,0,0,0,0],"sum_hessian":[1.145E3,5.61E2,5.84E2,1.7E2,3.91E2,4.17E2,1.67E2,7.7E1,9.3E1,3.61E2,3E1,2.78E2,1.39E2,1.48E2,1.9E1],"tree_param":{"num_deleted":"0","num_feature":"5","num_nodes":"15","size_leaf_vector":"1"}},{"base_weights":[2.873126E-4,-3.6384215E0,8.673374E0,-9.991807E0,-1.4617453E0,6.465152E0,1.4114866E1,-1.6020449E-1,-8.349591E-2,4.663168E-3,-4.4834185E-2,1.1001717E-1,3.4269743E-2,1.2817468E-1,3.540351E-1],"categories":[],"categories_nodes":[],"categories_segments":[],"categories_sizes":[],"default_left":[0,0,0,0,0,0,0,0,0,0,0,0,0,0,0],"id":48,"left_children":[1,3,5,7,9,11,13,-1,-1,-1,-1,-1,-1,-1,-1],"loss_changes":[3.6198492E4,1.1158293E4,3.9801172E3,1.9032695E3,3.5155547E3,3.3100967E3,2.2205215E3,0E0,0E0,0E0,0E0,0E0,0E0,0E0,0E0],"parents":[2147483647,0,0,1,1,2,2,3,3,4,4,5,5,6,6],"right_children":[2,4,6,8,10,12,14,-1,-1,-1,-1,-1,-1,-1,-1],"split_conditions":[4.4333332E1,2.3E1,6.0333332E1,1.3666667E1,1.9386593E1,1.5530151E1,2.4384085E1,-1.6020449E-1,-8.349591E-2,4.663168E-3,-4.4834185E-2,1.1001717E-1,3.4269743E-2,1.2817468E-1,3.540351E-1],"split_indices":[0,0,0,0,3,3,1,0,0,0,0,0,0,0,0],"split_type":[0,0,0,0,0,0,0,0,0,0,0,0,0,0,0],"sum_hessian":[1.145E3,8.07E2,3.38E2,2.05E2,6.02E2,2.42E2,9.6E1,4.2E1,1.63E2,3.68E2,2.34E2,9.6E1,1.46E2,9.2E1,4E0],"tree_param":{"num_deleted":"0","num_feature":"5","num_nodes":"15","size_leaf_vector":"1"}},{"base_weights":[5.847891E-4,-5.6826253E0,5.460522E0,-1.1482051E1,-3.8754015E0,2.8360677E0,1.1957317E1,-3.299799E-2,-1.2571934E-1,-2.4249667E-2,-8.636586E-2,1.0088113E-1,1.6393822E-2,1.2807524E-1,3.6462132E-2],"categories":[],"categories_nodes":[],"categories_segments":[],"categories_sizes":[],"default_left":[0,0,0,0,0,0,0,0,0,0,0,0,0,0,0],"id":49,"left_children":[1,3,5,7,9,11,13,-1,-1,-1,-1,-1,-1,-1,-1],"loss_changes":[3.5591355E4,5.844211E3,9.939176E3,1.1429805E3,2.947439E3,3.6098674E3,1.1387734E3,0E0,0E0,0E0,0E0,0E0,0E0,0E0,0E0],"parents":[2147483647,0,0,1,1,2,2,3,3,4,4,5,5,6,6],"right_children":[2,4,6,8,10,12,14,-1,-1,-1,-1,-1,-1,-1,-1],"split_conditions":[3.5333332E1,1.9333334E1,5.5E1,1.2673074E1,2.2682856E1,1.1542478E1,2.4087738E1,-3.299799E-2,-1.2571934E-1,-2.4249667E-2,-8.636586E-2,1.0088113E-1,1.6393822E-2,1.2807524E-1,3.6462132E-2],"split_indices":[0,0,0,3,3,3,3,0,0,0,0,0,0,0,0],"split_type":[0,0,0,0,0,0,0,0,0,0,0,0,0,0,0],"sum_hessian":[1.145E3,5.61E2,5.84E2,1.32E2,4.29E2,4.17E2,1.67E2,1.6E1,1.16E2,3.3E2,9.9E1,5.8E1,3.59E2,1.51E2,1.6E1],"tree_param":{"num_deleted":"0","num_feature":"5","num_nodes":"15","size_leaf_vector":"1"}},{"base_weights":[5.8866205E-4,-3.5718522E0,8.515726E0,-8.475319E0,-8.5425085E-1,6.346405E0,1.386139E1,-6.2066734E-2,-1.323997E-1,6.2594905E-2,-1.5074941E-2,1.08220376E-1,3.3492427E-2,1.2573825E-1,3.5017824E-1],"categories":[],"categories_nodes":[],"categories_segments":[],"categories_sizes":[],"default_left":[0,0,0,0,0,0,0,0,0,0,0,0,0,0,0],"id":50,"left_children":[1,3,5,7,9,11,13,-1,-1,-1,-1,-1,-1,-1,-1],"loss_changes":[3.489203E4,1.0758967E4,3.841211E3,3.028959E3,2.4300505E3,3.2219863E3,2.1972402E3,0E0,0E0,0E0,0E0,0E0,0E0,0E0,0E0],"parents":[2147483647,0,0,1,1,2,2,3,3,4,4,5,5,6,6],"right_children":[2,4,6,8,10,12,14,-1,-1,-1,-1,-1,-1,-1,-1],"split_conditions":[4.4333332E1,2.6333334E1,6.0333332E1,2.3499481E1,1.0805998E1,1.5530151E1,2.4384085E1,-6.2066734E-2,-1.323997E-1,6.2594905E-2,-1.5074941E-2,1.08220376E-1,3.3492427E-2,1.2573825E-1,3.5017824E-1],"split_indices":[0,0,0,3,3,3,1,0,0,0,0,0,0,0,0],"split_type":[0,0,0,0,0,0,0,0,0,0,0,0,0,0,0],"sum_hessian":[1.145E3,8.07E2,3.38E2,2.87E2,5.2E2,2.42E2,9.6E1,1.96E2,9.1E1,4.3E1,4.77E2,9.6E1,1.46E2,9.2E1,4E0],"tree_param":{"num_deleted":"0","num_feature":"5","num_nodes":"15","size_leaf_vector":"1"}},{"base_weights":[9.944014E-4,-5.5780606E0,5.3608713E0,-1.1281448E1,-3.8007848E0,2.7863433E0,1.1734036E1,-1.5659735E-1,-9.0875156E-2,-3.0219113E-2,-1.2501729E-1,4.8427105E-2,-1.3308913E-2,1.06662825E-1,1.9097099E-1],"categories":[],"categories_nodes":[],"categories_segments":[],"categories_sizes":[],"default_left":[0,0,0,0,0,0,0,0,0,0,0,0,0,0,0],"id":51,"left_children":[1,3,5,7,9,11,13,-1,-1,-1,-1,-1,-1,-1,-1],"loss_changes":[3.4298773E4,5.6523223E3,9.564469E3,1.1327695E3,2.874749E3,3.5458127E3,1.1141348E3,0E0,0E0,0E0,0E0,0E0,0E0,0E0,0E0],"parents":[2147483647,0,0,1,1,2,2,3,3,4,4,5,5,6,6],"right_children":[2,4,6,8,10,12,14,-1,-1,-1,-1,-1,-1,-1,-1],"split_conditions":[3.5333332E1,1.9333334E1,5.5E1,1.3666667E1,2.7959742E1,2.0316889E1,7.3E1,-1.5659735E-1,-9.0875156E-2,-3.0219113E-2,-1.2501729E-1,4.8427105E-2,-1.3308913E-2,1.06662825E-1,1.9097099E-1],"split_indices":[0,0,0,0,3,3,0,0,0,0,0,0,0,0,0],"split_type":[0,0,0,0,0,0,0,0,0,0,0,0,0,0,0],"sum_hessian":[1.145E3,5.61E2,5.84E2,1.32E2,4.29E2,4.17E2,1.67E2,4.2E1,9E1,3.95E2,3.4E1,2.78E2,1.39E2,1.48E2,1.9E1],"tree_param":{"num_deleted":"0","num_feature":"5","num_nodes":"15","size_leaf_vector":"1"}},{"base_weights":[9.2104834E-4,-3.5064228E0,8.3609E0,-9.633125E0,-1.4074059E0,6.232512E0,1.3605614E1,-6.868984E-2,-1.2982507E-1,-5.180436E-3,-7.660275E-2,1.0648994E-1,3.275156E-2,1.232851E-1,3.4618628E-1],"categories":[],"categories_nodes":[],"categories_segments":[],"categories_sizes":[],"default_left":[0,0,0,0,0,0,0,0,0,0,0,0,0,0,0],"id":52,"left_children":[1,3,5,7,9,11,13,-1,-1,-1,-1,-1,-1,-1,-1],"loss_changes":[3.363203E4,1.0376262E4,3.6974043E3,1.8160195E3,3.348537E3,3.137582E3,2.171582E3,0E0,0E0,0E0,0E0,0E0,0E0,0E0,0E0],"parents":[2147483647,0,0,1,1,2,2,3,3,4,4,5,5,6,6],"right_children":[2,4,6,8,10,12,14,-1,-1,-1,-1,-1,-1,-1,-1],"split_conditions":[4.4333332E1,2.3E1,6.0333332E1,2.0945072E1,2.5671938E1,1.5530151E1,2.4384085E1,-6.868984E-2,-1.2982507E-1,-5.180436E-3,-7.660275E-2,1.0648994E-1,3.275156E-2,1.232851E-1,3.4618628E-1],"split_indices":[0,0,0,3,3,3,1,0,0,0,0,0,0,0,0],"split_type":[0,0,0,0,0,0,0,0,0,0,0,0,0,0,0],"sum_hessian":[1.145E3,8.07E2,3.38E2,2.05E2,6.02E2,2.42E2,9.6E1,1.14E2,9.1E1,5.28E2,7.4E1,9.6E1,1.46E2,9.2E1,4E0],"tree_param":{"num_deleted":"0","num_feature":"5","num_nodes":"15","size_leaf_vector":"1"}},{"base_weights":[1.197509E-3,-5.479427E0,5.2665133E0,-1.1073829E1,-3.7360897E0,2.742036E0,1.1515709E1,-1.5404144E-1,-8.904847E-2,-2.9697793E-2,-1.22967444E-1,9.834107E-2,1.5718296E-2,1.23551585E-1,3.326765E-2],"categories":[],"categories_nodes":[],"categories_segments":[],"categories_sizes":[],"default_left":[0,0,0,0,0,0,0,0,0,0,0,0,0,0,0],"id":53,"left_children":[1,3,5,7,9,11,13,-1,-1,-1,-1,-1,-1,-1,-1],"loss_changes":[3.3099207E4,5.438293E3,9.19593E3,1.109584E3,2.7828066E3,3.452462E3,1.1121953E3,0E0,0E0,0E0,0E0,0E0,0E0,0E0,0E0],"parents":[2147483647,0,0,1,1,2,2,3,3,4,4,5,5,6,6],"right_children":[2,4,6,8,10,12,14,-1,-1,-1,-1,-1,-1,-1,-1],"split_conditions":[3.5333332E1,1.9333334E1,5.5E1,1.3666667E1,2.7959742E1,1.1542478E1,2.4087738E1,-1.5404144E-1,-8.904847E-2,-2.9697793E-2,-1.22967444E-1,9.834107E-2,1.5718296E-2,1.23551585E-1,3.326765E-2],"split_indices":[0,0,0,0,3,3,3,0,0,0,0,0,0,0,0],"split_type":[0,0,0,0,0,0,0,0,0,0,0,0,0,0,0],"sum_hessian":[1.145E3,5.61E2,5.84E2,1.32E2,4.29E2,4.17E2,1.67E2,4.2E1,9E1,3.95E2,3.4E1,5.8E1,3.59E2,1.51E2,1.6E1],"tree_param":{"num_deleted":"0","num_feature":"5","num_nodes":"15","size_leaf_vector":"1"}},{"base_weights":[1.0762126E-3,-5.425342E0,5.2143173E0,-9.741894E0,-3.2117493E0,2.7148921E0,1.1401492E1,-1.5253684E-1,-8.073995E-2,-2.4361348E-2,-1.1995068E-1,4.733702E-2,-1.326986E-2,1.0348335E-1,1.8672435E-1],"categories":[],"categories_nodes":[],"categories_segments":[],"categories_sizes":[],"default_left":[0,0,0,0,0,0,0,0,0,0,0,0,0,0,0],"id":54,"left_children":[1,3,5,7,9,11,13,-1,-1,-1,-1,-1,-1,-1,-1],"loss_changes":[3.2447723E4,5.337377E3,9.014297E3,1.6211992E3,2.510386E3,3.417412E3,1.0903203E3,0E0,0E0,0E0,0E0,0E0,0E0,0E0,0E0],"parents":[2147483647,0,0,1,1,2,2,3,3,4,4,5,5,6,6],"right_children":[2,4,6,8,10,12,14,-1,-1,-1,-1,-1,-1,-1,-1],"split_conditions":[3.5333332E1,2.2333334E1,5.5E1,1.3666667E1,2.7959742E1,2.0316889E1,7.3E1,-1.5253684E-1,-8.073995E-2,-2.4361348E-2,-1.1995068E-1,4.733702E-2,-1.326986E-2,1.0348335E-1,1.8672435E-1],"split_indices":[0,0,0,0,3,3,0,0,0,0,0,0,0,0,0],"split_type":[0,0,0,0,0,0,0,0,0,0,0,0,0,0,0],"sum_hessian":[1.145E3,5.61E2,5.84E2,1.89E2,3.72E2,4.17E2,1.67E2,4.2E1,1.47E2,3.43E2,2.9E1,2.78E2,1.39E2,1.48E2,1.9E1],"tree_param":{"num_deleted":"0","num_feature":"5","num_nodes":"15","size_leaf_vector":"1"}},{"base_weights":[1.015983E-3,-3.4133768E0,8.139447E0,-8.095507E0,-8.18431E-1,6.0684323E0,1.3242718E1,-5.8939785E-2,-1.2720564E-1,6.1149158E-2,-1.455144E-2,1.041089E-1,3.161039E-2,1.197645E-1,3.4126753E-1],"categories":[],"categories_nodes":[],"categories_segments":[],"categories_sizes":[],"default_left":[0,0,0,0,0,0,0,0,0,0,0,0,0,0,0],"id":55,"left_children":[1,3,5,7,9,11,13,-1,-1,-1,-1,-1,-1,-1,-1],"loss_changes":[3.1873074E4,9.80958E3,3.50058E3,2.8556348E3,2.308414E3,3.033665E3,2.1518164E3,0E0,0E0,0E0,0E0,0E0,0E0,0E0,0E0],"parents":[2147483647,0,0,1,1,2,2,3,3,4,4,5,5,6,6],"right_children":[2,4,6,8,10,12,14,-1,-1,-1,-1,-1,-1,-1,-1],"split_conditions":[4.4333332E1,2.6333334E1,6.0333332E1,2.3499481E1,1.0805998E1,1.5530151E1,2.4384085E1,-5.8939785E-2,-1.2720564E-1,6.1149158E-2,-1.455144E-2,1.041089E-1,3.161039E-2,1.197645E-1,3.4126753E-1],"split_indices":[0,0,0,3,3,3,1,0,0,0,0,0,0,0,0],"split_type":[0,0,0,0,0,0,0,0,0,0,0,0,0,0,0],"sum_hessian":[1.145E3,8.07E2,3.38E2,2.87E2,5.2E2,2.42E2,9.6E1,1.96E2,9.1E1,4.3E1,4.77E2,9.6E1,1.46E2,9.2E1,4E0],"tree_param":{"num_deleted":"0","num_feature":"5","num_nodes":"15","size_leaf_vector":"1"}},{"base_weights":[1.4062555E-3,-5.325674E0,5.119214E0,-1.0778987E1,-3.6263335E0,2.6671195E0,1.1189193E1,-2.7972255E-2,-1.18457474E-1,-2.2433512E-2,-8.166741E-2,9.624301E-2,1.5192281E-2,1.2019437E-1,3.1017603E-2],"categories":[],"categories_nodes":[],"categories_segments":[],"categories_sizes":[],"default_left":[0,0,0,0,0,0,0,0,0,0,0,0,0,0,0],"id":56,"left_children":[1,3,5,7,9,11,13,-1,-1,-1,-1,-1,-1,-1,-1],"loss_changes":[3.1270607E4,5.167545E3,8.676007E3,1.0978457E3,2.6807383E3,3.3224495E3,1.089248E3,0E0,0E0,0E0,0E0,0E0,0E0,0E0,0E0],"parents":[2147483647,0,0,1,1,2,2,3,3,4,4,5,5,6,6],"right_children":[2,4,6,8,10,12,14,-1,-1,-1,-1,-1,-1,-1,-1],"split_conditions":[3.5333332E1,1.9333334E1,5.5E1,1.2673074E1,2.2682856E1,1.1542478E1,2.4087738E1,-2.7972255E-2,-1.18457474E-1,-2.2433512E-2,-8.166741E-2,9.624301E-2,1.5192281E-2,1.2019437E-1,3.1017603E-2],"split_indices":[0,0,0,3,3,3,3,0,0,0,0,0,0,0,0],"split_type":[0,0,0,0,0,0,0,0,0,0,0,0,0,0,0],"sum_hessian":[1.145E3,5.61E2,5.84E2,1.32E2,4.29E2,4.17E2,1.67E2,1.6E1,1.16E2,3.3E2,9.9E1,5.8E1,3.59E2,1.51E2,1.6E1],"tree_param":{"num_deleted":"0","num_feature":"5","num_nodes":"15","size_leaf_vector":"1"}},{"base_weights":[1.4017118E-3,-3.3508236E0,7.9916573E0,-9.19756E0,-1.3477081E0,5.9570312E0,1.3005291E1,-6.512952E-2,-1.24522604E-1,4.8309895E-3,-4.2171553E-2,1.0241123E-1,3.0889088E-2,1.1748659E-1,3.3757585E-1],"categories":[],"categories_nodes":[],"categories_segments":[],"categories_sizes":[],"default_left":[0,0,0,0,0,0,0,0,0,0,0,0,0,0,0],"id":57,"left_children":[1,3,5,7,9,11,13,-1,-1,-1,-1,-1,-1,-1,-1],"loss_changes":[3.072301E4,9.449593E3,3.3787227E3,1.7169492E3,3.1702134E3,2.9528486E3,2.1284082E3,0E0,0E0,0E0,0E0,0E0,0E0,0E0,0E0],"parents":[2147483647,0,0,1,1,2,2,3,3,4,4,5,5,6,6],"right_children":[2,4,6,8,10,12,14,-1,-1,-1,-1,-1,-1,-1,-1],"split_conditions":[4.4333332E1,2.3E1,6.0333332E1,2.0945072E1,1.9386593E1,1.5530151E1,2.4384085E1,-6.512952E-2,-1.24522604E-1,4.8309895E-3,-4.2171553E-2,1.0241123E-1,3.0889088E-2,1.1748659E-1,3.3757585E-1],"split_indices":[0,0,0,3,3,3,1,0,0,0,0,0,0,0,0],"split_type":[0,0,0,0,0,0,0,0,0,0,0,0,0,0,0],"sum_hessian":[1.145E3,8.07E2,3.38E2,2.05E2,6.02E2,2.42E2,9.6E1,1.14E2,9.1E1,3.68E2,2.34E2,9.6E1,1.46E2,9.2E1,4E0],"tree_param":{"num_deleted":"0","num_feature":"5","num_nodes":"15","size_leaf_vector":"1"}},{"base_weights":[1.7049187E-3,-5.230844E0,5.028698E0,-1.0579978E1,-3.5639472E0,2.6245143E0,1.0980007E1,-2.7095987E-2,-1.16322555E-1,-2.8214686E-2,-1.1859878E-1,4.5949243E-2,-1.3202638E-2,1.18004456E-1,2.9925572E-2],"categories":[],"categories_nodes":[],"categories_segments":[],"categories_sizes":[],"default_left":[0,0,0,0,0,0,0,0,0,0,0,0,0,0,0],"id":58,"left_children":[1,3,5,7,9,11,13,-1,-1,-1,-1,-1,-1,-1,-1],"loss_changes":[3.0170652E4,4.971927E3,8.340024E3,1.0685293E3,2.6136763E3,3.255437E3,1.0641465E3,0E0,0E0,0E0,0E0,0E0,0E0,0E0,0E0],"parents":[2147483647,0,0,1,1,2,2,3,3,4,4,5,5,6,6],"right_children":[2,4,6,8,10,12,14,-1,-1,-1,-1,-1,-1,-1,-1],"split_conditions":[3.5333332E1,1.9333334E1,5.5E1,1.2673074E1,2.7959742E1,2.0316889E1,2.4087738E1,-2.7095987E-2,-1.16322555E-1,-2.8214686E-2,-1.1859878E-1,4.5949243E-2,-1.3202638E-2,1.18004456E-1,2.9925572E-2],"split_indices":[0,0,0,3,3,3,3,0,0,0,0,0,0,0,0],"split_type":[0,0,0,0,0,0,0,0,0,0,0,0,0,0,0],"sum_hessian":[1.145E3,5.61E2,5.84E2,1.32E2,4.29E2,4.17E2,1.67E2,1.6E1,1.16E2,3.95E2,3.4E1,2.78E2,1.39E2,1.51E2,1.6E1],"tree_param":{"num_deleted":"0","num_feature":"5","num_nodes":"15","size_leaf_vector":"1"}},{"base_weights":[1.5897554E-3,-3.2894902E0,7.846106E0,-7.8041067E0,-7.873807E-1,5.847009E0,1.2772234E1,-5.6649234E-2,-1.2298834E-1,5.9815988E-2,-1.4090287E-2,1.007201E-1,3.0186273E-2,1.1525173E-1,3.3393124E-1],"categories":[],"categories_nodes":[],"categories_segments":[],"categories_sizes":[],"default_left":[0,0,0,0,0,0,0,0,0,0,0,0,0,0,0],"id":59,"left_children":[1,3,5,7,9,11,13,-1,-1,-1,-1,-1,-1,-1,-1],"loss_changes":[2.961247E4,9.120216E3,3.2618652E3,2.697664E3,2.2002983E3,2.8721172E3,2.1050508E3,0E0,0E0,0E0,0E0,0E0,0E0,0E0,0E0],"parents":[2147483647,0,0,1,1,2,2,3,3,4,4,5,5,6,6],"right_children":[2,4,6,8,10,12,14,-1,-1,-1,-1,-1,-1,-1,-1],"split_conditions":[4.4333332E1,2.6333334E1,6.0333332E1,2.3499481E1,1.0805998E1,1.5530151E1,2.4384085E1,-5.6649234E-2,-1.2298834E-1,5.9815988E-2,-1.4090287E-2,1.007201E-1,3.0186273E-2,1.1525173E-1,3.3393124E-1],"split_indices":[0,0,0,3,3,3,1,0,0,0,0,0,0,0,0],"split_type":[0,0,0,0,0,0,0,0,0,0,0,0,0,0,0],"sum_hessian":[1.145E3,8.07E2,3.38E2,2.87E2,5.2E2,2.42E2,9.6E1,1.96E2,9.1E1,4.3E1,4.77E2,9.6E1,1.46E2,9.2E1,4E0],"tree_param":{"num_deleted":"0","num_feature":"5","num_nodes":"15","size_leaf_vector":"1"}},{"base_weights":[1.9645677E-3,-5.1346207E0,4.936766E0,-1.0395098E1,-3.4953694E0,2.5783794E0,1.0774676E1,-1.46247E-1,-8.281164E-2,-2.763345E-2,-1.1674975E-1,9.377006E-2,1.4567202E-2,9.746018E-2,1.7894441E-1],"categories":[],"categories_nodes":[],"categories_segments":[],"categories_sizes":[],"default_left":[0,0,0,0,0,0,0,0,0,0,0,0,0,0,0],"id":60,"left_children":[1,3,5,7,9,11,13,-1,-1,-1,-1,-1,-1,-1,-1],"loss_changes":[2.9074172E4,4.808539E3,8.0251943E3,1.0657666E3,2.5409927E3,3.1728179E3,1.0532344E3,0E0,0E0,0E0,0E0,0E0,0E0,0E0,0E0],"parents":[2147483647,0,0,1,1,2,2,3,3,4,4,5,5,6,6],"right_children":[2,4,6,8,10,12,14,-1,-1,-1,-1,-1,-1,-1,-1],"split_conditions":[3.5333332E1,1.9333334E1,5.5E1,1.3666667E1,2.7959742E1,1.1542478E1,7.3E1,-1.46247E-1,-8.281164E-2,-2.763345E-2,-1.1674975E-1,9.377006E-2,1.4567202E-2,9.746018E-2,1.7894441E-1],"split_indices":[0,0,0,0,3,3,0,0,0,0,0,0,0,0,0],"split_type":[0,0,0,0,0,0,0,0,0,0,0,0,0,0,0],"sum_hessian":[1.145E3,5.61E2,5.84E2,1.32E2,4.29E2,4.17E2,1.67E2,4.2E1,9E1,3.95E2,3.4E1,5.8E1,3.59E2,1.48E2,1.9E1],"tree_param":{"num_deleted":"0","num_feature":"5","num_nodes":"15","size_leaf_vector":"1"}},{"base_weights":[1.9534766E-3,-3.22938E0,7.704064E0,-8.86897E0,-1.2972323E0,5.742858E0,1.2536734E1,-1.4481853E-1,-7.342611E-2,4.8881806E-3,-4.0966168E-2,9.913494E-2,2.9510578E-2,1.129985E-1,3.3015418E-1],"categories":[],"categories_nodes":[],"categories_segments":[],"categories_sizes":[],"default_left":[0,0,0,0,0,0,0,0,0,0,0,0,0,0,0],"id":61,"left_children":[1,3,5,7,9,11,13,-1,-1,-1,-1,-1,-1,-1,-1],"loss_changes":[2.8547074E4,8.791867E3,3.13917E3,1.6563428E3,3.0172678E3,2.7988486E3,2.0794854E3,0E0,0E0,0E0,0E0,0E0,0E0,0E0,0E0],"parents":[2147483647,0,0,1,1,2,2,3,3,4,4,5,5,6,6],"right_children":[2,4,6,8,10,12,14,-1,-1,-1,-1,-1,-1,-1,-1],"split_conditions":[4.4333332E1,2.3E1,6.0333332E1,1.3666667E1,1.9386593E1,1.5530151E1,2.4384085E1,-1.4481853E-1,-7.342611E-2,4.8881806E-3,-4.0966168E-2,9.913494E-2,2.9510578E-2,1.129985E-1,3.3015418E-1],"split_indices":[0,0,0,0,3,3,1,0,0,0,0,0,0,0,0],"split_type":[0,0,0,0,0,0,0,0,0,0,0,0,0,0,0],"sum_hessian":[1.145E3,8.07E2,3.38E2,2.05E2,6.02E2,2.42E2,9.6E1,4.2E1,1.63E2,3.68E2,2.34E2,9.6E1,1.46E2,9.2E1,4E0],"tree_param":{"num_deleted":"0","num_feature":"5","num_nodes":"15","size_leaf_vector":"1"}},{"base_weights":[2.2120804E-3,-5.0434985E0,4.8497114E0,-2.9747956E0,-9.109908E0,2.537226E0,1.0573934E1,-9.9166304E-2,-2.1829128E-2,-1.0552992E-1,7.7484376E-3,4.4604316E-2,-1.3128568E-2,1.1384018E-1,2.702948E-2],"categories":[],"categories_nodes":[],"categories_segments":[],"categories_sizes":[],"default_left":[0,0,0,0,0,0,0,0,0,0,0,0,0,0,0],"id":62,"left_children":[1,3,5,7,9,11,13,-1,-1,-1,-1,-1,-1,-1,-1],"loss_changes":[2.8054545E4,4.6993438E3,7.7156113E3,2.0330659E3,2.7051514E3,3.1012524E3,1.0390156E3,0E0,0E0,0E0,0E0,0E0,0E0,0E0,0E0],"parents":[2147483647,0,0,1,1,2,2,3,3,4,4,5,5,6,6],"right_children":[2,4,6,8,10,12,14,-1,-1,-1,-1,-1,-1,-1,-1],"split_conditions":[3.5333332E1,2.1142147E1,5.5E1,1.6333334E1,1.7690332E1,2.0316889E1,2.4087738E1,-9.9166304E-2,-2.1829128E-2,-1.0552992E-1,7.7484376E-3,4.4604316E-2,-1.3128568E-2,1.1384018E-1,2.702948E-2],"split_indices":[0,3,0,0,1,3,3,0,0,0,0,0,0,0,0],"split_type":[0,0,0,0,0,0,0,0,0,0,0,0,0,0,0],"sum_hessian":[1.145E3,5.61E2,5.84E2,3.73E2,1.88E2,4.17E2,1.67E2,3.7E1,3.36E2,1.64E2,2.4E1,2.78E2,1.39E2,1.51E2,1.6E1],"tree_param":{"num_deleted":"0","num_feature":"5","num_nodes":"15","size_leaf_vector":"1"}},{"base_weights":[2.147938E-3,-3.1702437E0,7.5637717E0,-7.5269995E0,-7.55626E-1,5.6367598E0,1.2312226E1,-5.4396246E-2,-1.1913802E-1,5.8514427E-2,-1.3624365E-2,9.749821E-2,2.883673E-2,1.1084783E-1,3.266022E-1],"categories":[],"categories_nodes":[],"categories_segments":[],"categories_sizes":[],"default_left":[0,0,0,0,0,0,0,0,0,0,0,0,0,0,0],"id":63,"left_children":[1,3,5,7,9,11,13,-1,-1,-1,-1,-1,-1,-1,-1],"loss_changes":[2.7515162E4,8.493563E3,3.0307656E3,2.5706465E3,2.0963364E3,2.7222598E3,2.0562676E3,0E0,0E0,0E0,0E0,0E0,0E0,0E0,0E0],"parents":[2147483647,0,0,1,1,2,2,3,3,4,4,5,5,6,6],"right_children":[2,4,6,8,10,12,14,-1,-1,-1,-1,-1,-1,-1,-1],"split_conditions":[4.4333332E1,2.6333334E1,6.0333332E1,2.3499481E1,1.0805998E1,1.5530151E1,2.4384085E1,-5.4396246E-2,-1.1913802E-1,5.8514427E-2,-1.3624365E-2,9.749821E-2,2.883673E-2,1.1084783E-1,3.266022E-1],"split_indices":[0,0,0,3,3,3,1,0,0,0,0,0,0,0,0],"split_type":[0,0,0,0,0,0,0,0,0,0,0,0,0,0,0],"sum_hessian":[1.145E3,8.07E2,3.38E2,2.87E2,5.2E2,2.42E2,9.6E1,1.96E2,9.1E1,4.3E1,4.77E2,9.6E1,1.46E2,9.2E1,4E0],"tree_param":{"num_deleted":"0","num_feature":"5","num_nodes":"15","size_leaf_vector":"1"}},{"base_weights":[2.5079506E-3,-4.9506035E0,4.7610483E0,-2.9168844E0,-8.948277E0,2.492648E0,1.037611E1,-9.7671084E-2,-2.1355033E-2,-1.0372398E-1,8.048513E-3,9.1364935E-2,1.3965935E-2,9.366571E-2,1.7373371E-1],"categories":[],"categories_nodes":[],"categories_segments":[],"categories_sizes":[],"default_left":[0,0,0,0,0,0,0,0,0,0,0,0,0,0,0],"id":64,"left_children":[1,3,5,7,9,11,13,-1,-1,-1,-1,-1,-1,-1,-1],"loss_changes":[2.7034293E4,4.5418535E3,7.424116E3,1.9798384E3,2.6344463E3,3.0300688E3,1.02135156E3,0E0,0E0,0E0,0E0,0E0,0E0,0E0,0E0],"parents":[2147483647,0,0,1,1,2,2,3,3,4,4,5,5,6,6],"right_children":[2,4,6,8,10,12,14,-1,-1,-1,-1,-1,-1,-1,-1],"split_conditions":[3.5333332E1,2.1142147E1,5.5E1,1.6333334E1,1.7690332E1,1.1542478E1,7.3E1,-9.7671084E-2,-2.1355033E-2,-1.0372398E-1,8.048513E-3,9.1364935E-2,1.3965935E-2,9.366571E-2,1.7373371E-1],"split_indices":[0,3,0,0,1,3,0,0,0,0,0,0,0,0,0],"split_type":[0,0,0,0,0,0,0,0,0,0,0,0,0,0,0],"sum_hessian":[1.145E3,5.61E2,5.84E2,3.73E2,1.88E2,4.17E2,1.67E2,3.7E1,3.36E2,1.64E2,2.4E1,5.8E1,3.59E2,1.48E2,1.9E1],"tree_param":{"num_deleted":"0","num_feature":"5","num_nodes":"15","size_leaf_vector":"1"}},{"base_weights":[2.6215746E-3,-3.1121387E0,7.4268804E0,-8.565364E0,-1.2438525E0,5.536395E0,1.208524E1,-1.4060979E-1,-7.071603E-2,-4.1984324E-3,-7.0379466E-2,9.596502E-2,2.818934E-2,1.08678326E-1,3.2291976E-1],"categories":[],"categories_nodes":[],"categories_segments":[],"categories_sizes":[],"default_left":[0,0,0,0,0,0,0,0,0,0,0,0,0,0,0],"id":65,"left_children":[1,3,5,7,9,11,13,-1,-1,-1,-1,-1,-1,-1,-1],"loss_changes":[2.652455E4,8.220419E3,2.916752E3,1.5895352E3,2.875255E3,2.6527705E3,2.0309248E3,0E0,0E0,0E0,0E0,0E0,0E0,0E0,0E0],"parents":[2147483647,0,0,1,1,2,2,3,3,4,4,5,5,6,6],"right_children":[2,4,6,8,10,12,14,-1,-1,-1,-1,-1,-1,-1,-1],"split_conditions":[4.4333332E1,2.3E1,6.0333332E1,1.3666667E1,2.5671938E1,1.5530151E1,2.4384085E1,-1.4060979E-1,-7.071603E-2,-4.1984324E-3,-7.0379466E-2,9.596502E-2,2.818934E-2,1.08678326E-1,3.2291976E-1],"split_indices":[0,0,0,0,3,3,1,0,0,0,0,0,0,0,0],"split_type":[0,0,0,0,0,0,0,0,0,0,0,0,0,0,0],"sum_hessian":[1.145E3,8.07E2,3.38E2,2.05E2,6.02E2,2.42E2,9.6E1,4.2E1,1.63E2,5.28E2,7.4E1,9.6E1,1.46E2,9.2E1,4E0],"tree_param":{"num_deleted":"0","num_feature":"5","num_nodes":"15","size_leaf_vector":"1"}},{"base_weights":[2.8306837E-3,-4.862857E0,4.6773834E0,-2.8600311E0,-8.799862E0,2.4532802E0,1.0182728E1,-9.570044E-2,-2.094629E-2,-1.02042474E-1,8.170798E-3,4.333632E-2,-1.3108013E-2,1.0982612E-1,2.4259627E-2],"categories":[],"categories_nodes":[],"categories_segments":[],"categories_sizes":[],"default_left":[0,0,0,0,0,0,0,0,0,0,0,0,0,0,0],"id":66,"left_children":[1,3,5,7,9,11,13,-1,-1,-1,-1,-1,-1,-1,-1],"loss_changes":[2.6088396E4,4.4051123E3,7.1367617E3,1.8995994E3,2.5618916E3,2.9645017E3,1.01437305E3,0E0,0E0,0E0,0E0,0E0,0E0,0E0,0E0],"parents":[2147483647,0,0,1,1,2,2,3,3,4,4,5,5,6,6],"right_children":[2,4,6,8,10,12,14,-1,-1,-1,-1,-1,-1,-1,-1],"split_conditions":[3.5333332E1,2.1142147E1,5.5E1,1.6333334E1,1.7690332E1,2.0316889E1,2.4087738E1,-9.570044E-2,-2.094629E-2,-1.02042474E-1,8.170798E-3,4.333632E-2,-1.3108013E-2,1.0982612E-1,2.4259627E-2],"split_indices":[0,3,0,0,1,3,3,0,0,0,0,0,0,0,0],"split_type":[0,0,0,0,0,0,0,0,0,0,0,0,0,0,0],"sum_hessian":[1.145E3,5.61E2,5.84E2,3.73E2,1.88E2,4.17E2,1.67E2,3.7E1,3.36E2,1.64E2,2.4E1,2.78E2,1.39E2,1.51E2,1.6E1],"tree_param":{"num_deleted":"0","num_feature":"5","num_nodes":"15","size_leaf_vector":"1"}},{"base_weights":[2.761718E-3,-4.8146043E0,4.630893E0,-3.1852098E0,-9.56587E0,2.428818E0,1.0081705E1,-1.0065355E-1,-2.3118086E-2,-1.1705318E-1,-2.626849E-2,9.885274E-2,1.479941E-2,9.0857945E-2,1.6992159E-1],"categories":[],"categories_nodes":[],"categories_segments":[],"categories_sizes":[],"default_left":[0,0,0,0,0,0,0,0,0,0,0,0,0,0,0],"id":67,"left_children":[1,3,5,7,9,11,13,-1,-1,-1,-1,-1,-1,-1,-1],"loss_changes":[2.5572809E4,4.319082E3,6.996075E3,2.4993271E3,2.090751E3,2.9416924E3,9.992129E2,0E0,0E0,0E0,0E0,0E0,0E0,0E0,0E0],"parents":[2147483647,0,0,1,1,2,2,3,3,4,4,5,5,6,6],"right_children":[2,4,6,8,10,12,14,-1,-1,-1,-1,-1,-1,-1,-1],"split_conditions":[3.5333332E1,2.2845821E1,5.5E1,1.6333334E1,1.3488252E1,1.0829959E1,7.3E1,-1.0065355E-1,-2.3118086E-2,-1.1705318E-1,-2.626849E-2,9.885274E-2,1.479941E-2,9.0857945E-2,1.6992159E-1],"split_indices":[0,3,0,0,1,3,0,0,0,0,0,0,0,0,0],"split_type":[0,0,0,0,0,0,0,0,0,0,0,0,0,0,0],"sum_hessian":[1.145E3,5.61E2,5.84E2,4.19E2,1.42E2,4.17E2,1.67E2,4.6E1,3.73E2,1.08E2,3.4E1,4.6E1,3.71E2,1.48E2,1.9E1],"tree_param":{"num_deleted":"0","num_feature":"5","num_nodes":"15","size_leaf_vector":"1"}},{"base_weights":[2.8260087E-3,-3.0293694E0,7.2302923E0,-8.343899E0,-1.2086023E0,5.3905463E0,1.1763569E1,-1.6519055E-3,-9.2708595E-2,-4.0497365E-3,-6.859415E-2,9.383438E-2,2.7184308E-2,1.05565466E-1,3.184147E-1],"categories":[],"categories_nodes":[],"categories_segments":[],"categories_sizes":[],"default_left":[0,0,0,0,0,0,0,0,0,0,0,0,0,0,0],"id":68,"left_children":[1,3,5,7,9,11,13,-1,-1,-1,-1,-1,-1,-1,-1],"loss_changes":[2.5137014E4,7.807589E3,2.7621582E3,1.5592812E3,2.7348125E3,2.5659624E3,2.0103682E3,0E0,0E0,0E0,0E0,0E0,0E0,0E0,0E0],"parents":[2147483647,0,0,1,1,2,2,3,3,4,4,5,5,6,6],"right_children":[2,4,6,8,10,12,14,-1,-1,-1,-1,-1,-1,-1,-1],"split_conditions":[4.4333332E1,2.3E1,6.0333332E1,1.1792404E1,2.5671938E1,1.5530151E1,2.4384085E1,-1.6519055E-3,-9.2708595E-2,-4.0497365E-3,-6.859415E-2,9.383438E-2,2.7184308E-2,1.05565466E-1,3.184147E-1],"split_indices":[0,0,0,3,3,3,1,0,0,0,0,0,0,0,0],"split_type":[0,0,0,0,0,0,0,0,0,0,0,0,0,0,0],"sum_hessian":[1.145E3,8.07E2,3.38E2,2.05E2,6.02E2,2.42E2,9.6E1,2.1E1,1.84E2,5.28E2,7.4E1,9.6E1,1.46E2,9.2E1,4E0],"tree_param":{"num_deleted":"0","num_feature":"5","num_nodes":"15","size_leaf_vector":"1"}},{"base_weights":[3.127686E-3,-4.7291346E0,4.549501E0,-2.7748306E0,-8.570831E0,2.3904836E0,9.893665E0,-9.3053624E-2,-2.0299193E-2,-9.9477954E-2,8.559699E-3,8.854897E-2,1.32412E-2,1.0684818E-1,2.2319714E-2],"categories":[],"categories_nodes":[],"categories_segments":[],"categories_sizes":[],"default_left":[0,0,0,0,0,0,0,0,0,0,0,0,0,0,0],"id":69,"left_children":[1,3,5,7,9,11,13,-1,-1,-1,-1,-1,-1,-1,-1],"loss_changes":[2.4677264E4,4.194491E3,6.7249346E3,1.7993623E3,2.4627139E3,2.868705E3,9.932051E2,0E0,0E0,0E0,0E0,0E0,0E0,0E0,0E0],"parents":[2147483647,0,0,1,1,2,2,3,3,4,4,5,5,6,6],"right_children":[2,4,6,8,10,12,14,-1,-1,-1,-1,-1,-1,-1,-1],"split_conditions":[3.5333332E1,2.1142147E1,5.5E1,1.6333334E1,1.7690332E1,1.1542478E1,2.4087738E1,-9.3053624E-2,-2.0299193E-2,-9.9477954E-2,8.559699E-3,8.854897E-2,1.32412E-2,1.0684818E-1,2.2319714E-2],"split_indices":[0,3,0,0,1,3,3,0,0,0,0,0,0,0,0],"split_type":[0,0,0,0,0,0,0,0,0,0,0,0,0,0,0],"sum_hessian":[1.145E3,5.61E2,5.84E2,3.73E2,1.88E2,4.17E2,1.67E2,3.7E1,3.36E2,1.64E2,2.4E1,5.8E1,3.59E2,1.51E2,1.6E1],"tree_param":{"num_deleted":"0","num_feature":"5","num_nodes":"15","size_leaf_vector":"1"}},{"base_weights":[3.1201798E-3,-2.9739397E0,7.0991707E0,-8.194635E0,-1.1853205E0,5.291566E0,1.1553282E1,-1.2108822E-3,-9.109897E-2,4.907859E-3,-3.8125455E-2,9.2306584E-2,2.655623E-2,1.0355505E-1,3.1501257E-1],"categories":[],"categories_nodes":[],"categories_segments":[],"categories_sizes":[],"default_left":[0,0,0,0,0,0,0,0,0,0,0,0,0,0,0],"id":70,"left_children":[1,3,5,7,9,11,13,-1,-1,-1,-1,-1,-1,-1,-1],"loss_changes":[2.4231195E4,7.5343213E3,2.6665625E3,1.5201904E3,2.657519E3,2.4974214E3,1.9872432E3,0E0,0E0,0E0,0E0,0E0,0E0,0E0,0E0],"parents":[2147483647,0,0,1,1,2,2,3,3,4,4,5,5,6,6],"right_children":[2,4,6,8,10,12,14,-1,-1,-1,-1,-1,-1,-1,-1],"split_conditions":[4.4333332E1,2.3E1,6.0333332E1,1.1792404E1,1.9386593E1,1.5530151E1,2.4384085E1,-1.2108822E-3,-9.109897E-2,4.907859E-3,-3.8125455E-2,9.2306584E-2,2.655623E-2,1.0355505E-1,3.1501257E-1],"split_indices":[0,0,0,3,3,3,1,0,0,0,0,0,0,0,0],"split_type":[0,0,0,0,0,0,0,0,0,0,0,0,0,0,0],"sum_hessian":[1.145E3,8.07E2,3.38E2,2.05E2,6.02E2,2.42E2,9.6E1,2.1E1,1.84E2,3.68E2,2.34E2,9.6E1,1.46E2,9.2E1,4E0],"tree_param":{"num_deleted":"0","num_feature":"5","num_nodes":"15","size_leaf_vector":"1"}},{"base_weights":[3.4482586E-3,-4.6447277E0,4.4690404E0,-3.064121E0,-9.253888E0,2.3523667E0,9.708329E0,-9.721593E-2,-2.2190267E-2,-1.1347698E-1,-2.4659125E-2,4.18072E-2,-1.3073687E-2,1.0490183E-1,2.1406772E-2],"categories":[],"categories_nodes":[],"categories_segments":[],"categories_sizes":[],"default_left":[0,0,0,0,0,0,0,0,0,0,0,0,0,0,0],"id":71,"left_children":[1,3,5,7,9,11,13,-1,-1,-1,-1,-1,-1,-1,-1],"loss_changes":[2.38081E4,4.0647344E3,6.4635273E3,2.340234E3,2.0030566E3,2.802713E3,9.7030176E2,0E0,0E0,0E0,0E0,0E0,0E0,0E0,0E0],"parents":[2147483647,0,0,1,1,2,2,3,3,4,4,5,5,6,6],"right_children":[2,4,6,8,10,12,14,-1,-1,-1,-1,-1,-1,-1,-1],"split_conditions":[3.5333332E1,2.2845821E1,5.5E1,1.6333334E1,1.3488252E1,2.0316889E1,2.4087738E1,-9.721593E-2,-2.2190267E-2,-1.1347698E-1,-2.4659125E-2,4.18072E-2,-1.3073687E-2,1.0490183E-1,2.1406772E-2],"split_indices":[0,3,0,0,1,3,3,0,0,0,0,0,0,0,0],"split_type":[0,0,0,0,0,0,0,0,0,0,0,0,0,0,0],"sum_hessian":[1.145E3,5.61E2,5.84E2,4.19E2,1.42E2,4.17E2,1.67E2,4.6E1,3.73E2,1.08E2,3.4E1,2.78E2,1.39E2,1.51E2,1.6E1],"tree_param":{"num_deleted":"0","num_feature":"5","num_nodes":"15","size_leaf_vector":"1"}},{"base_weights":[3.3213052E-3,-3.011855E0,6.7579293E0,-8.046712E0,-1.2426499E0,5.006051E0,1.1346865E1,-1.3366684E-1,-6.602166E-2,-4.2771534E-3,-7.169318E-2,9.078412E-2,2.5361435E-2,1.01582706E-1,3.1165326E-1],"categories":[],"categories_nodes":[],"categories_segments":[],"categories_sizes":[],"default_left":[0,0,0,0,0,0,0,0,0,0,0,0,0,0,0],"id":72,"left_children":[1,3,5,7,9,11,13,-1,-1,-1,-1,-1,-1,-1,-1],"loss_changes":[2.3360547E4,7.052874E3,2.787458E3,1.4928525E3,2.836124E3,2.57087E3,1.9642227E3,0E0,0E0,0E0,0E0,0E0,0E0,0E0,0E0],"parents":[2147483647,0,0,1,1,2,2,3,3,4,4,5,5,6,6],"right_children":[2,4,6,8,10,12,14,-1,-1,-1,-1,-1,-1,-1,-1],"split_conditions":[4.3666668E1,2.3E1,6.0333332E1,1.3666667E1,2.5671938E1,1.5530151E1,2.4384085E1,-1.3366684E-1,-6.602166E-2,-4.2771534E-3,-7.169318E-2,9.078412E-2,2.5361435E-2,1.01582706E-1,3.1165326E-1],"split_indices":[0,0,0,0,3,3,1,0,0,0,0,0,0,0,0],"split_type":[0,0,0,0,0,0,0,0,0,0,0,0,0,0,0],"sum_hessian":[1.145E3,7.92E2,3.53E2,2.05E2,5.87E2,2.57E2,9.6E1,4.2E1,1.63E2,5.17E2,7E1,9.6E1,1.61E2,9.2E1,4E0],"tree_param":{"num_deleted":"0","num_feature":"5","num_nodes":"15","size_leaf_vector":"1"}},{"base_weights":[3.5082651E-3,-4.561859E0,4.3895473E0,-2.6669192E0,-8.286968E0,2.314172E0,9.526556E0,9.34985E-3,-3.931972E-2,-9.634374E-2,9.333925E-3,9.5509514E-2,1.393358E-2,8.553275E-2,1.629617E-1],"categories":[],"categories_nodes":[],"categories_segments":[],"categories_sizes":[],"default_left":[0,0,0,0,0,0,0,0,0,0,0,0,0,0,0],"id":73,"left_children":[1,3,5,7,9,11,13,-1,-1,-1,-1,-1,-1,-1,-1],"loss_changes":[2.2967375E4,3.9438828E3,6.213583E3,1.7081448E3,2.357918E3,2.7710356E3,9.650371E2,0E0,0E0,0E0,0E0,0E0,0E0,0E0,0E0],"parents":[2147483647,0,0,1,1,2,2,3,3,4,4,5,5,6,6],"right_children":[2,4,6,8,10,12,14,-1,-1,-1,-1,-1,-1,-1,-1],"split_conditions":[3.5333332E1,2.1142147E1,5.5E1,8.040334E0,1.7690332E1,1.0829959E1,7.3E1,9.34985E-3,-3.931972E-2,-9.634374E-2,9.333925E-3,9.5509514E-2,1.393358E-2,8.553275E-2,1.629617E-1],"split_indices":[0,3,0,1,1,3,0,0,0,0,0,0,0,0,0],"split_type":[0,0,0,0,0,0,0,0,0,0,0,0,0,0,0],"sum_hessian":[1.145E3,5.61E2,5.84E2,3.73E2,1.88E2,4.17E2,1.67E2,9.7E1,2.76E2,1.64E2,2.4E1,4.6E1,3.71E2,1.48E2,1.9E1],"tree_param":{"num_deleted":"0","num_feature":"5","num_nodes":"15","size_leaf_vector":"1"}},{"base_weights":[3.6853142E-3,-2.9567416E0,6.6356483E0,-7.914403E0,-1.2146754E0,4.916853E0,1.113785E1,4.5467026E-5,-8.813876E-2,-4.120952E-3,-7.0516035E-2,8.936648E-2,2.4789702E-2,9.9590145E-2,3.0816606E-1],"categories":[],"categories_nodes":[],"categories_segments":[],"categories_sizes":[],"default_left":[0,0,0,0,0,0,0,0,0,0,0,0,0,0,0],"id":74,"left_children":[1,3,5,7,9,11,13,-1,-1,-1,-1,-1,-1,-1,-1],"loss_changes":[2.2519914E4,6.838277E3,2.6830127E3,1.4682344E3,2.7508943E3,2.5050498E3,1.9392256E3,0E0,0E0,0E0,0E0,0E0,0E0,0E0,0E0],"parents":[2147483647,0,0,1,1,2,2,3,3,4,4,5,5,6,6],"right_children":[2,4,6,8,10,12,14,-1,-1,-1,-1,-1,-1,-1,-1],"split_conditions":[4.3666668E1,2.3E1,6.0333332E1,1.1792404E1,2.5671938E1,1.5530151E1,2.4384085E1,4.5467026E-5,-8.813876E-2,-4.120952E-3,-7.0516035E-2,8.936648E-2,2.4789702E-2,9.9590145E-2,3.0816606E-1],"split_indices":[0,0,0,3,3,3,1,0,0,0,0,0,0,0,0],"split_type":[0,0,0,0,0,0,0,0,0,0,0,0,0,0,0],"sum_hessian":[1.145E3,7.92E2,3.53E2,2.05E2,5.87E2,2.57E2,9.6E1,2.1E1,1.84E2,5.17E2,7E1,9.6E1,1.61E2,9.2E1,4E0],"tree_param":{"num_deleted":"0","num_feature":"5","num_nodes":"15","size_leaf_vector":"1"}},{"base_weights":[3.9624255E-3,-4.4800205E0,4.311816E0,-2.947055E0,-8.950409E0,2.2767909E0,9.348892E0,-9.420287E-2,-2.125427E-2,-1.0995053E-1,-2.3242183E-2,9.423714E-2,1.3674302E-2,1.01209104E-1,1.8903272E-2],"categories":[],"categories_nodes":[],"categories_segments":[],"categories_sizes":[],"default_left":[0,0,0,0,0,0,0,0,0,0,0,0,0,0,0],"id":75,"left_children":[1,3,5,7,9,11,13,-1,-1,-1,-1,-1,-1,-1,-1],"loss_changes":[2.215583E4,3.823792E3,5.9741387E3,2.2126309E3,1.9105049E3,2.7026714E3,9.4703613E2,0E0,0E0,0E0,0E0,0E0,0E0,0E0,0E0],"parents":[2147483647,0,0,1,1,2,2,3,3,4,4,5,5,6,6],"right_children":[2,4,6,8,10,12,14,-1,-1,-1,-1,-1,-1,-1,-1],"split_conditions":[3.5333332E1,2.2845821E1,5.5E1,1.6333334E1,1.3488252E1,1.0829959E1,2.4087738E1,-9.420287E-2,-2.125427E-2,-1.0995053E-1,-2.3242183E-2,9.423714E-2,1.3674302E-2,1.01209104E-1,1.8903272E-2],"split_indices":[0,3,0,0,1,3,3,0,0,0,0,0,0,0,0],"split_type":[0,0,0,0,0,0,0,0,0,0,0,0,0,0,0],"sum_hessian":[1.145E3,5.61E2,5.84E2,4.19E2,1.42E2,4.17E2,1.67E2,4.6E1,3.73E2,1.08E2,3.4E1,4.6E1,3.71E2,1.51E2,1.6E1],"tree_param":{"num_deleted":"0","num_feature":"5","num_nodes":"15","size_leaf_vector":"1"}},{"base_weights":[3.9039652E-3,-4.4356675E0,4.2690926E0,-9.085832E0,-2.986813E0,2.2542822E0,9.256125E0,-1.6298774E-1,-7.9592854E-2,-2.3279183E-2,-1.03535414E-1,4.0366195E-2,-1.3130491E-2,8.295888E-2,1.594209E-1],"categories":[],"categories_nodes":[],"categories_segments":[],"categories_sizes":[],"default_left":[0,0,0,0,0,0,0,0,0,0,0,0,0,0,0],"id":76,"left_children":[1,3,5,7,9,11,13,-1,-1,-1,-1,-1,-1,-1,-1],"loss_changes":[2.1719127E4,3.758081E3,5.8560195E3,9.485664E2,2.0618062E3,2.663295E3,9.4390234E2,0E0,0E0,0E0,0E0,0E0,0E0,0E0,0E0],"parents":[2147483647,0,0,1,1,2,2,3,3,4,4,5,5,6,6],"right_children":[2,4,6,8,10,12,14,-1,-1,-1,-1,-1,-1,-1,-1],"split_conditions":[3.5333332E1,1.9333334E1,5.5E1,9.333333E0,2.7959742E1,2.0316889E1,7.3E1,-1.6298774E-1,-7.9592854E-2,-2.3279183E-2,-1.03535414E-1,4.0366195E-2,-1.3130491E-2,8.295888E-2,1.594209E-1],"split_indices":[0,0,0,0,3,3,0,0,0,0,0,0,0,0,0],"split_type":[0,0,0,0,0,0,0,0,0,0,0,0,0,0,0],"sum_hessian":[1.145E3,5.61E2,5.84E2,1.32E2,4.29E2,4.17E2,1.67E2,1.6E1,1.16E2,3.95E2,3.4E1,2.78E2,1.39E2,1.48E2,1.9E1],"tree_param":{"num_deleted":"0","num_feature":"5","num_nodes":"15","size_leaf_vector":"1"}},{"base_weights":[3.77459E-3,-2.8783417E0,6.4603124E0,-7.0300407E0,-9.086539E-1,4.7875338E0,1.0841927E1,-4.53315E-2,-1.01766676E-1,5.874372E-2,-1.5236589E-2,8.738692E-2,2.3915466E-2,9.6731834E-2,3.0392155E-1],"categories":[],"categories_nodes":[],"categories_segments":[],"categories_sizes":[],"default_left":[0,0,0,0,0,0,0,0,0,0,0,0,0,0,0],"id":77,"left_children":[1,3,5,7,9,11,13,-1,-1,-1,-1,-1,-1,-1,-1],"loss_changes":[2.1344285E4,6.477616E3,2.541163E3,1.955877E3,2.2570054E3,2.4204546E3,1.918377E3,0E0,0E0,0E0,0E0,0E0,0E0,0E0,0E0],"parents":[2147483647,0,0,1,1,2,2,3,3,4,4,5,5,6,6],"right_children":[2,4,6,8,10,12,14,-1,-1,-1,-1,-1,-1,-1,-1],"split_conditions":[4.3666668E1,2.4666666E1,6.0333332E1,2.0945072E1,1.0805998E1,1.5530151E1,2.4384085E1,-4.53315E-2,-1.01766676E-1,5.874372E-2,-1.5236589E-2,8.738692E-2,2.3915466E-2,9.6731834E-2,3.0392155E-1],"split_indices":[0,0,0,3,3,3,1,0,0,0,0,0,0,0,0],"split_type":[0,0,0,0,0,0,0,0,0,0,0,0,0,0,0],"sum_hessian":[1.145E3,7.92E2,3.53E2,2.54E2,5.38E2,2.57E2,9.6E1,1.43E2,1.11E2,4.4E1,4.94E2,9.6E1,1.61E2,9.2E1,4E0],"tree_param":{"num_deleted":"0","num_feature":"5","num_nodes":"15","size_leaf_vector":"1"}},{"base_weights":[4.093821E-3,-4.354255E0,4.1912527E0,-2.5283294E0,-7.9438953E0,2.2147794E0,9.083364E0,1.0500115E-2,-3.785546E-2,-9.256445E-2,1.0326845E-2,8.370482E-2,1.1994981E-2,9.8469704E-2,1.7156236E-2],"categories":[],"categories_nodes":[],"categories_segments":[],"categories_sizes":[],"default_left":[0,0,0,0,0,0,0,0,0,0,0,0,0,0,0],"id":78,"left_children":[1,3,5,7,9,11,13,-1,-1,-1,-1,-1,-1,-1,-1],"loss_changes":[2.0931703E4,3.6624502E3,5.6351904E3,1.686781E3,2.2372168E3,2.6014065E3,9.2712695E2,0E0,0E0,0E0,0E0,0E0,0E0,0E0,0E0],"parents":[2147483647,0,0,1,1,2,2,3,3,4,4,5,5,6,6],"right_children":[2,4,6,8,10,12,14,-1,-1,-1,-1,-1,-1,-1,-1],"split_conditions":[3.5333332E1,2.1142147E1,5.5E1,8.040334E0,1.7690332E1,1.1542478E1,2.4087738E1,1.0500115E-2,-3.785546E-2,-9.256445E-2,1.0326845E-2,8.370482E-2,1.1994981E-2,9.8469704E-2,1.7156236E-2],"split_indices":[0,3,0,1,1,3,3,0,0,0,0,0,0,0,0],"split_type":[0,0,0,0,0,0,0,0,0,0,0,0,0,0,0],"sum_hessian":[1.145E3,5.61E2,5.84E2,3.73E2,1.88E2,4.17E2,1.67E2,9.7E1,2.76E2,1.64E2,2.4E1,5.8E1,3.59E2,1.51E2,1.6E1],"tree_param":{"num_deleted":"0","num_feature":"5","num_nodes":"15","size_leaf_vector":"1"}},{"base_weights":[4.144942E-3,-2.8256273E0,6.3434258E0,-7.582892E0,-1.1539912E0,1.559935E1,5.5618606E0,-1.2758356E-1,-6.179063E-2,-3.7700336E-3,-6.805057E-2,2.4200134E-1,1.1374068E-1,4.138356E-2,1.225539E-1],"categories":[],"categories_nodes":[],"categories_segments":[],"categories_sizes":[],"default_left":[0,0,0,0,0,0,0,0,0,0,0,0,0,0,0],"id":79,"left_children":[1,3,5,7,9,11,13,-1,-1,-1,-1,-1,-1,-1,-1],"loss_changes":[2.057605E4,6.2966406E3,2.471996E3,1.415957E3,2.5785122E3,7.023882E2,3.072914E3,0E0,0E0,0E0,0E0,0E0,0E0,0E0,0E0],"parents":[2147483647,0,0,1,1,2,2,3,3,4,4,5,5,6,6],"right_children":[2,4,6,8,10,12,14,-1,-1,-1,-1,-1,-1,-1,-1],"split_conditions":[4.3666668E1,2.3E1,9.511088E0,1.3666667E1,2.5671938E1,6.0215836E0,6.5666664E1,-1.2758356E-1,-6.179063E-2,-3.7700336E-3,-6.805057E-2,2.4200134E-1,1.1374068E-1,4.138356E-2,1.225539E-1],"split_indices":[0,0,3,0,3,1,0,0,0,0,0,0,0,0,0],"split_type":[0,0,0,0,0,0,0,0,0,0,0,0,0,0,0],"sum_hessian":[1.145E3,7.92E2,3.53E2,2.05E2,5.87E2,2.6E1,3.27E2,4.2E1,1.63E2,5.17E2,7E1,7E0,1.9E1,2.71E2,5.6E1],"tree_param":{"num_deleted":"0","num_feature":"5","num_nodes":"15","size_leaf_vector":"1"}},{"base_weights":[4.3280707E-3,-4.276258E0,4.116781E0,-2.7978444E0,-8.587849E0,2.1789742E0,8.91313E0,-9.055227E-2,-2.0037405E-2,-1.0577606E-1,-2.1429513E-2,3.926342E-2,-1.3181305E-2,7.971146E-2,1.548025E-1],"categories":[],"categories_nodes":[],"categories_segments":[],"categories_sizes":[],"default_left":[0,0,0,0,0,0,0,0,0,0,0,0,0,0,0],"id":80,"left_children":[1,3,5,7,9,11,13,-1,-1,-1,-1,-1,-1,-1,-1],"loss_changes":[2.019144E4,3.5571982E3,5.4166914E3,2.0677346E3,1.8098623E3,2.5597212E3,9.1352734E2,0E0,0E0,0E0,0E0,0E0,0E0,0E0,0E0],"parents":[2147483647,0,0,1,1,2,2,3,3,4,4,5,5,6,6],"right_children":[2,4,6,8,10,12,14,-1,-1,-1,-1,-1,-1,-1,-1],"split_conditions":[3.5333332E1,2.2845821E1,5.5E1,1.6333334E1,1.3488252E1,2.0316889E1,7.3E1,-9.055227E-2,-2.0037405E-2,-1.0577606E-1,-2.1429513E-2,3.926342E-2,-1.3181305E-2,7.971146E-2,1.548025E-1],"split_indices":[0,3,0,0,1,3,0,0,0,0,0,0,0,0,0],"split_type":[0,0,0,0,0,0,0,0,0,0,0,0,0,0,0],"sum_hessian":[1.145E3,5.61E2,5.84E2,4.19E2,1.42E2,4.17E2,1.67E2,4.6E1,3.73E2,1.08E2,3.4E1,2.78E2,1.39E2,1.48E2,1.9E1],"tree_param":{"num_deleted":"0","num_feature":"5","num_nodes":"15","size_leaf_vector":"1"}},{"base_weights":[4.3017487E-3,-2.689577E0,6.4253926E0,-6.432386E0,-6.1526144E-1,1.5393293E1,5.630956E0,-4.591813E-2,-1.03026085E-1,5.387376E-2,-1.1667275E-2,2.3923692E-1,1.1206469E-1,4.189049E-2,1.2031641E-1],"categories":[],"categories_nodes":[],"categories_segments":[],"categories_sizes":[],"default_left":[0,0,0,0,0,0,0,0,0,0,0,0,0,0,0],"id":81,"left_children":[1,3,5,7,9,11,13,-1,-1,-1,-1,-1,-1,-1,-1],"loss_changes":[1.9840752E4,6.268461E3,2.3263984E3,2.002751E3,1.7305042E3,6.926997E2,2.8367139E3,0E0,0E0,0E0,0E0,0E0,0E0,0E0,0E0],"parents":[2147483647,0,0,1,1,2,2,3,3,4,4,5,5,6,6],"right_children":[2,4,6,8,10,12,14,-1,-1,-1,-1,-1,-1,-1,-1],"split_conditions":[4.4333332E1,2.6333334E1,9.511088E0,2.3499481E1,1.0805998E1,6.0215836E0,6.5666664E1,-4.591813E-2,-1.03026085E-1,5.387376E-2,-1.1667275E-2,2.3923692E-1,1.1206469E-1,4.189049E-2,1.2031641E-1],"split_indices":[0,0,3,3,3,1,0,0,0,0,0,0,0,0,0],"split_type":[0,0,0,0,0,0,0,0,0,0,0,0,0,0,0],"sum_hessian":[1.145E3,8.07E2,3.38E2,2.87E2,5.2E2,2.6E1,3.12E2,1.96E2,9.1E1,4.3E1,4.77E2,7E0,1.9E1,2.56E2,5.6E1],"tree_param":{"num_deleted":"0","num_feature":"5","num_nodes":"15","size_leaf_vector":"1"}},{"base_weights":[4.615426E-3,-4.1974044E0,4.0415907E0,-9.919223E0,-3.1139882E0,2.1409252E0,8.745975E0,-1.7063731E-2,-1.08205885E-1,-2.4317885E-2,-1.02569304E-1,3.867707E-2,-1.3148824E-2,9.50186E-2,1.4671134E-2],"categories":[],"categories_nodes":[],"categories_segments":[],"categories_sizes":[],"default_left":[0,0,0,0,0,0,0,0,0,0,0,0,0,0,0],"id":82,"left_children":[1,3,5,7,9,11,13,-1,-1,-1,-1,-1,-1,-1,-1],"loss_changes":[1.9457062E4,3.451709E3,5.2109414E3,6.3913086E2,2.2835488E3,2.499725E3,9.092959E2,0E0,0E0,0E0,0E0,0E0,0E0,0E0,0E0],"parents":[2147483647,0,0,1,1,2,2,3,3,4,4,5,5,6,6],"right_children":[2,4,6,8,10,12,14,-1,-1,-1,-1,-1,-1,-1,-1],"split_conditions":[3.5333332E1,1.6666666E1,5.5E1,1.1571914E1,2.7959742E1,2.0316889E1,2.4087738E1,-1.7063731E-2,-1.08205885E-1,-2.4317885E-2,-1.02569304E-1,3.867707E-2,-1.3148824E-2,9.50186E-2,1.4671134E-2],"split_indices":[0,0,0,3,3,3,3,0,0,0,0,0,0,0,0],"split_type":[0,0,0,0,0,0,0,0,0,0,0,0,0,0,0],"sum_hessian":[1.145E3,5.61E2,5.84E2,8.8E1,4.73E2,4.17E2,1.67E2,9E0,7.9E1,4.33E2,4E1,2.78E2,1.39E2,1.51E2,1.6E1],"tree_param":{"num_deleted":"0","num_feature":"5","num_nodes":"15","size_leaf_vector":"1"}},{"base_weights":[4.4647176E-3,-2.7239392E0,6.1166677E0,-7.3207164E0,-1.108701E0,1.5179688E1,5.351673E0,3.4421992E-3,-8.193191E-2,-3.5460165E-3,-6.593416E-2,2.3638257E-1,1.1032276E-1,3.9740495E-2,1.1829951E-1],"categories":[],"categories_nodes":[],"categories_segments":[],"categories_sizes":[],"default_left":[0,0,0,0,0,0,0,0,0,0,0,0,0,0,0],"id":83,"left_children":[1,3,5,7,9,11,13,-1,-1,-1,-1,-1,-1,-1,-1],"loss_changes":[1.9128336E4,5.878978E3,2.3710508E3,1.3812227E3,2.428947E3,6.829409E2,2.8786836E3,0E0,0E0,0E0,0E0,0E0,0E0,0E0,0E0],"parents":[2147483647,0,0,1,1,2,2,3,3,4,4,5,5,6,6],"right_children":[2,4,6,8,10,12,14,-1,-1,-1,-1,-1,-1,-1,-1],"split_conditions":[4.3666668E1,2.3E1,9.511088E0,1.1792404E1,2.5671938E1,6.0215836E0,6.5666664E1,3.4421992E-3,-8.193191E-2,-3.5460165E-3,-6.593416E-2,2.3638257E-1,1.1032276E-1,3.9740495E-2,1.1829951E-1],"split_indices":[0,0,3,3,3,1,0,0,0,0,0,0,0,0,0],"split_type":[0,0,0,0,0,0,0,0,0,0,0,0,0,0,0],"sum_hessian":[1.145E3,7.92E2,3.53E2,2.05E2,5.87E2,2.6E1,3.27E2,2.1E1,1.84E2,5.17E2,7E1,7E0,1.9E1,2.71E2,5.6E1],"tree_param":{"num_deleted":"0","num_feature":"5","num_nodes":"15","size_leaf_vector":"1"}},{"base_weights":[4.7326684E-3,-4.122278E0,3.9696476E0,-2.3733423E0,-7.5607944E0,2.106209E0,8.581837E0,1.1874673E-2,-3.6249164E-2,-8.833924E-2,1.1402925E-2,8.105914E-2,1.11679565E-2,9.32979E-2,1.3835531E-2],"categories":[],"categories_nodes":[],"categories_segments":[],"categories_sizes":[],"default_left":[0,0,0,0,0,0,0,0,0,0,0,0,0,0,0],"id":84,